{"layers":[{"0":{},"1":{},"2":{},"3":{},"4":{},"5":{},"6":{},"7":{},"8":{},"9":{},"10":{},"11":{},"12":{},"13":{},"14":{},"15":{},"16":{},"17":{},"18":{},"19":{},"20":{},"21":{},"22":{},"23":{},"24":{},"25":{},"26":{},"27":{},"28":{},"29":{},"30":{},"31":{},"32":{},"33":{},"34":{},"35":{},"36":{},"37":{},"38":{},"39":{},"40":{},"41":{},"42":{},"43":{},"44":{},"45":{},"46":{},"47":{},"48":{},"49":{},"50":{},"51":{},"52":{},"53":{},"54":{},"55":{},"56":{},"57":{},"58":{},"59":{},"60":{},"61":{},"62":{},"63":{},"64":{},"65":{},"66":{},"67":{},"68":{},"69":{},"70":{},"71":{},"72":{},"73":{},"74":{},"75":{},"76":{},"77":{},"78":{},"79":{},"80":{},"81":{},"82":{},"83":{},"84":{},"85":{},"86":{},"87":{},"88":{},"89":{},"90":{},"91":{},"92":{},"93":{},"94":{},"95":{},"96":{},"97":{},"98":{},"99":{},"100":{},"101":{},"102":{},"103":{},"104":{},"105":{},"106":{},"107":{},"108":{},"109":{},"110":{},"111":{},"112":{},"113":{},"114":{},"115":{},"116":{},"117":{},"118":{},"119":{},"120":{},"121":{},"122":{},"123":{},"124":{},"125":{},"126":{},"127":{},"128":{},"129":{},"130":{},"131":{},"132":{},"133":{},"134":{},"135":{},"136":{},"137":{},"138":{},"139":{},"140":{},"141":{},"142":{},"143":{},"144":{},"145":{},"146":{},"147":{},"148":{},"149":{},"150":{},"151":{},"152":{},"153":{},"154":{},"155":{},"156":{},"157":{},"158":{},"159":{},"160":{},"161":{},"162":{},"163":{},"164":{},"165":{},"166":{},"167":{},"168":{},"169":{},"170":{},"171":{},"172":{},"173":{},"174":{},"175":{},"176":{},"177":{},"178":{},"179":{},"180":{},"181":{},"182":{},"183":{},"184":{},"185":{},"186":{},"187":{},"188":{},"189":{},"190":{},"191":{},"192":{},"193":{},"194":{},"195":{},"196":{},"197":{},"198":{},"199":{},"200":{},"201":{},"202":{},"203":{},"204":{},"205":{},"206":{},"207":{},"208":{},"209":{},"210":{},"211":{},"212":{},"213":{},"214":{},"215":{},"216":{},"217":{},"218":{},"219":{},"220":{},"221":{},"222":{},"223":{},"224":{},"225":{},"226":{},"227":{},"228":{},"229":{},"230":{},"231":{},"232":{},"233":{},"234":{},"235":{},"236":{},"237":{},"238":{},"239":{},"240":{},"241":{},"242":{},"243":{},"244":{},"245":{},"246":{},"247":{},"248":{},"249":{},"250":{},"251":{},"252":{},"253":{},"254":{},"255":{},"256":{},"257":{},"258":{},"259":{},"260":{},"261":{},"262":{},"263":{},"264":{},"265":{},"266":{},"267":{},"268":{},"269":{},"270":{},"271":{},"272":{},"273":{},"274":{},"275":{},"276":{},"277":{},"278":{},"279":{},"280":{},"281":{},"282":{},"283":{},"284":{},"285":{},"286":{},"287":{},"288":{},"289":{},"290":{},"291":{},"292":{},"293":{},"294":{},"295":{},"296":{},"297":{},"298":{},"299":{},"300":{},"301":{},"302":{},"303":{},"304":{},"305":{},"306":{},"307":{},"308":{},"309":{},"310":{},"311":{},"312":{},"313":{},"314":{},"315":{},"316":{},"317":{},"318":{},"319":{},"320":{},"321":{},"322":{},"323":{},"324":{},"325":{},"326":{},"327":{},"328":{},"329":{},"330":{},"331":{},"332":{},"333":{},"334":{},"335":{},"336":{},"337":{},"338":{},"339":{},"340":{},"341":{},"342":{},"343":{},"344":{},"345":{},"346":{},"347":{},"348":{},"349":{},"350":{},"351":{},"352":{},"353":{},"354":{},"355":{},"356":{},"357":{},"358":{},"359":{},"360":{},"361":{},"362":{},"363":{},"364":{},"365":{},"366":{},"367":{},"368":{},"369":{},"370":{},"371":{},"372":{},"373":{},"374":{},"375":{},"376":{},"377":{},"378":{},"379":{},"380":{},"381":{},"382":{},"383":{},"384":{},"385":{},"386":{},"387":{},"388":{},"389":{},"390":{},"391":{},"392":{},"393":{},"394":{},"395":{},"396":{},"397":{},"398":{}},{"0":{"bias":-0.24132261854465237,"weights":{"0":0.052319631004543794,"1":-0.4115072400096972,"2":0.07628694453452309,"3":-0.015868565467881943,"4":0.07768267023580044,"5":0.15692061885658168,"6":0.03187207989668158,"7":-0.11465781009267516,"8":-0.020427758906156238,"9":0.24323902488933327,"10":-0.05140890566978916,"11":0.2863790655814809,"12":0.11445887062087909,"13":-0.20759397744028776,"14":-0.20884081856634107,"15":0.2270955848684892,"16":-0.011957050489517779,"17":0.08294215510643776,"18":-0.024713265390493323,"19":0.05421356220760556,"20":-0.058235734954587184,"21":0.219198849307736,"22":-0.28956379089987294,"23":0.18246296092014289,"24":-0.01034717979611475,"25":0.21306035503303017,"26":-0.1392931649820195,"27":-0.22883374616473984,"28":0.294097063190774,"29":-0.08941408069114504,"30":-0.15920715950004607,"31":0.19076051267374403,"32":-0.33830525158730024,"33":0.11485395258045886,"34":-0.07048509572928635,"35":-0.1655047479638865,"36":-0.07946844662095799,"37":-0.1165415923923252,"38":-0.10074843152430418,"39":-0.0300265240747285,"40":0.0672928473336946,"41":0.07909863097977884,"42":0.097078117917242,"43":-0.12696248096593657,"44":0.14725015478297349,"45":0.06547985968645614,"46":-0.019675219228603994,"47":-0.1186567658662599,"48":0.09580373803278491,"49":0.11057703689996574,"50":0.11614734627846154,"51":-0.13654516017317914,"52":0.26602115938322524,"53":0.22826371256389563,"54":-0.15319736925578814,"55":0.1069804444643831,"56":-0.38834351837933856,"57":0.2607975423678853,"58":0.2155327208516532,"59":-0.10176630826533323,"60":-0.20499887975272588,"61":-0.16581563354026588,"62":-0.26102938448096075,"63":0.010843780685564589,"64":-0.045305396777748336,"65":0.03361082953362764,"66":-0.09467767324136561,"67":-0.10142390260745257,"68":0.18424402911462234,"69":0.06702112857553598,"70":0.052253405893937205,"71":0.12761483082385155,"72":-0.0006735093161911858,"73":0.07804400461021152,"74":-0.08095550442410804,"75":0.08135663151428164,"76":-0.19338266361574732,"77":-0.13725862582876064,"78":0.4214618545512968,"79":-0.2753137945534335,"80":0.002714998149832838,"81":-0.3429549570998797,"82":-0.04451411956941935,"83":-0.18310550029881503,"84":0.13030460189380433,"85":0.22153381276698408,"86":-0.18343328191991815,"87":0.09242107835719196,"88":0.057166106741026686,"89":0.024996357736379315,"90":-0.07369868907836825,"91":0.1277787760886771,"92":-0.04803173979594357,"93":-0.11462408521845249,"94":-0.02469149958149964,"95":0.08990790052028405,"96":-0.10322317776572726,"97":-0.2392035504975026,"98":0.06475605191297669,"99":-0.1274115339048705,"100":-0.01593151271334338,"101":0.1324411862290728,"102":-0.03795239994418991,"103":-0.1710719647070939,"104":0.1769352228638058,"105":0.12320596416707782,"106":0.027987987442706565,"107":0.11106435753848018,"108":-0.2248108952889659,"109":-0.11229136515615705,"110":-0.26047259422517893,"111":0.03669039699908114,"112":0.1345278508071805,"113":0.06857170954245279,"114":0.0798248736727081,"115":0.10551876218557092,"116":0.005157968897619948,"117":-0.0843741030880251,"118":-0.2298319550502069,"119":0.2068777448991046,"120":0.1297261759215077,"121":-0.1560124526444517,"122":-0.33223313490516737,"123":0.3076308276014493,"124":0.22064487016332313,"125":-0.05292860776240764,"126":0.09369857444695487,"127":0.11710844880907868,"128":-0.17824943955791048,"129":0.05459509931319922,"130":-0.14555068714057998,"131":-0.04007047918628104,"132":0.1064663478048041,"133":-0.11408589705149759,"134":-0.13339410816055683,"135":0.0006724930855114401,"136":-0.14218229551905523,"137":-0.1394590679378772,"138":0.0041318610079357715,"139":0.04605458203235385,"140":0.26851791358563154,"141":-0.011331839865992267,"142":-0.1166404240606464,"143":-0.0162120039216909,"144":0.1554612933521122,"145":-0.11952993534179537,"146":-0.12436417571059294,"147":-0.1230526827163382,"148":0.0065183212801177065,"149":-0.035274540583202015,"150":-0.21480780802187785,"151":0.14533290570995364,"152":0.05121696488443357,"153":0.09309579438363107,"154":0.16142333215755814,"155":0.20553259245363545,"156":-0.16334293073634076,"157":0.16540308127881298,"158":-0.009058697491570898,"159":0.05154401258583329,"160":0.08026383758901635,"161":-0.016083060154289515,"162":-0.06878072672591366,"163":0.03815247162304201,"164":0.033085598677982934,"165":0.11596892683102096,"166":0.16694533034766576,"167":0.05700866155012068,"168":-0.13151977092205105,"169":0.2135941024485457,"170":-0.02363232148615002,"171":0.31016227334968616,"172":-0.14189763343356945,"173":0.1222618702471325,"174":0.0005435343811620029,"175":0.2410893782030148,"176":0.0008622992323404978,"177":-0.12235309770465717,"178":0.02052984941080186,"179":0.28429832722234927,"180":-0.14464741031370357,"181":0.09023113439761676,"182":-0.12666406827347973,"183":0.07222751004492083,"184":-0.041143416918411724,"185":-0.054597117429949334,"186":-0.1456176651822626,"187":-0.009505235584025783,"188":-0.2144245625742018,"189":-0.054811961380944955,"190":0.0284285541489547,"191":-0.12406486685755158,"192":0.09650950465828004,"193":-0.12825006246145595,"194":0.09123509478858638,"195":0.12859144261800443,"196":-0.2109521436224584,"197":0.0617203774409343,"198":-0.03317366043541748,"199":-0.26237324827682507,"200":-0.03656276869694854,"201":0.03976649186914787,"202":0.09621091704270188,"203":0.026646717499142016,"204":-0.20760497927157376,"205":-0.2353769133070323,"206":-0.03051643971753186,"207":0.052390996797493074,"208":-0.12594103876423757,"209":-0.06258363850273084,"210":0.3065754533844381,"211":-0.2434876383747653,"212":-0.1703350707831595,"213":-0.05979184634198036,"214":0.000724817488279904,"215":-0.20527355745405226,"216":0.13840302792039727,"217":-0.20768611370335574,"218":0.09957529776611557,"219":0.2850634675383387,"220":0.10147152213433133,"221":-0.13908973939845556,"222":-0.06174710554064329,"223":-0.1398240689236585,"224":-0.05284791294399091,"225":0.25274547534527697,"226":0.24409267119207453,"227":-0.08043637749449538,"228":0.20238493577157443,"229":0.12467047000561844,"230":-0.19398220155965287,"231":0.07286693776551535,"232":0.3089414065767941,"233":0.10461670740673751,"234":0.0689301309212599,"235":0.19668199591880484,"236":-0.049854287227778675,"237":0.05450700059920015,"238":-0.13252428732400098,"239":0.07706843325739406,"240":0.22715189362002708,"241":0.023126342567163,"242":-0.12595862027697408,"243":-0.02121289777779094,"244":0.12237304179799402,"245":0.12862397154680355,"246":0.14865720822985157,"247":0.07987371648292027,"248":0.00928571264773484,"249":-0.03639962369394149,"250":-0.018022650314078823,"251":0.17414489826764398,"252":0.15317820713033015,"253":0.07131424424893353,"254":0.0726375474056198,"255":-0.14532672963097723,"256":-0.18586042920598997,"257":-0.04376935269417517,"258":0.1571179280136878,"259":0.05722738626948816,"260":0.023029123126091695,"261":0.05207334376610831,"262":0.03256032604628888,"263":0.00770401528806417,"264":-0.38324633898968413,"265":-0.06209859098898858,"266":0.01611350488040865,"267":-0.050504905305873905,"268":0.1495724839868958,"269":-0.15680647857938063,"270":0.099390045290875,"271":-0.02989043158806935,"272":0.15256648726399616,"273":0.16729271661088396,"274":0.17956787707730562,"275":0.08560779482013794,"276":-0.11583072913005167,"277":0.13369611852329133,"278":0.06629058589945082,"279":0.28746093657267235,"280":-0.35157929529858556,"281":0.05781172256828236,"282":-0.25324889198562456,"283":-0.2166026414103758,"284":0.005604541428659194,"285":-0.039398603593941796,"286":0.1346308407574334,"287":-0.0001056162699670712,"288":-0.20680001275268425,"289":-0.05674309117118367,"290":0.031629695959812326,"291":-0.15553973295822954,"292":0.013731729412790184,"293":0.1097288631653084,"294":0.1383677148130767,"295":-0.26953932312438966,"296":-0.304471659899181,"297":0.10631443901097078,"298":-0.019151206641916576,"299":0.055790062089615365,"300":-0.18492480082388196,"301":0.21747123107387276,"302":-0.015610019964909136,"303":0.3207471976613763,"304":-0.05889614807997443,"305":0.0705347929611677,"306":0.14148053317187687,"307":-0.14731224550209165,"308":0.03861088921641908,"309":0.09971165605656002,"310":0.024407237940768104,"311":0.18759132026176809,"312":0.2842387437604966,"313":-0.0975044229236793,"314":-0.11225289992269549,"315":-0.1828794886900758,"316":-0.18627281576546764,"317":-0.2189813232340609,"318":0.006755754668718159,"319":0.08693821042437187,"320":-0.1454993501853275,"321":0.01773980415654885,"322":-0.06540351643758587,"323":-0.09815818990548528,"324":0.03810493209590175,"325":-0.10053364377693634,"326":0.12454854698191416,"327":0.13676771790977085,"328":0.014680876725998715,"329":0.18568734726067943,"330":0.06041918182689821,"331":0.11267510180254094,"332":-0.015909499275444293,"333":0.002966485355277672,"334":0.10427723227839997,"335":-0.19040837221583176,"336":0.0055754076911985265,"337":0.047951508287029564,"338":-0.02552704497218495,"339":-0.08186007509272349,"340":-0.28482244157251024,"341":0.17131395248873707,"342":0.05608411520505577,"343":-0.27658071113752053,"344":-0.3085752621717772,"345":-0.07253656440696589,"346":-0.11161837185017248,"347":0.18241057992771686,"348":-0.19930556414775963,"349":-0.14440548086093957,"350":-0.27516790869528646,"351":-0.21668144843488954,"352":-0.12650032062413766,"353":-0.3162226922120234,"354":-0.06492378160156835,"355":-0.03774063312418207,"356":-0.25515639425782105,"357":0.07277409064166326,"358":-0.15997368553400568,"359":0.3337479678397509,"360":-0.07102452848995948,"361":0.05192467133585842,"362":-0.23361008197441735,"363":-0.11702996457178508,"364":0.08742361603617033,"365":-0.14859243142698847,"366":0.1437104103521964,"367":0.03826928967313912,"368":0.07568407286659427,"369":-0.03222938743974155,"370":0.07959166041460242,"371":0.07866813354468112,"372":-0.07943035643387614,"373":-0.2790062260471271,"374":-0.2301691665509834,"375":-0.027706142754172634,"376":-0.13583752816314204,"377":0.18231758996459188,"378":0.16679249656016526,"379":0.10536895471078793,"380":0.3166247669280187,"381":-0.251570132808032,"382":-0.4470584115152511,"383":0.19589211759254638,"384":-0.019709922341246258,"385":-0.02808684803056613,"386":-0.32517077314170634,"387":-0.17920780958817478,"388":0.2270776900838947,"389":0.14483040759982485,"390":-0.1124031285910926,"391":-0.07649642884616722,"392":-0.1225778230479412,"393":-0.007760730027160371,"394":0.13479105346867715,"395":0.3403885853477475,"396":0.009020589465254553,"397":0.1327947553589769,"398":-0.3259951317577583}},"1":{"bias":0.19936490062383758,"weights":{"0":-0.3350578936303249,"1":-0.11799407124736716,"2":0.0011757773991120895,"3":-0.1389744349910187,"4":0.004229923617687194,"5":-0.007456102695460944,"6":-0.10700623595732696,"7":-0.08093355625859142,"8":0.03494864823080038,"9":0.03659763717168429,"10":-0.03397663152687507,"11":-0.10657891304864536,"12":-0.1647284904233534,"13":-0.09665193266988667,"14":-0.20224914492594706,"15":0.058663354472991563,"16":0.11481185672167729,"17":-0.03056111722865643,"18":-0.03147541176323388,"19":-0.15835376260693595,"20":-0.047115746830307045,"21":0.22168050593714403,"22":-0.013839321650575423,"23":0.08695869688547235,"24":0.00679450042735462,"25":0.056218192185024315,"26":0.11362177641833787,"27":0.09136750543972208,"28":0.018343963148604342,"29":0.13359708664706155,"30":-0.07685484700034885,"31":-0.3938073081812741,"32":0.20664257124767135,"33":0.10506984414804582,"34":-0.2434045467270509,"35":-0.03723743942608439,"36":-0.1902001593611761,"37":-0.026213468756374415,"38":0.14729152563360653,"39":-0.055391352990835474,"40":-0.07072353833047927,"41":0.0284196248308881,"42":0.07517147684161539,"43":0.07002668278421235,"44":0.020636186564946396,"45":0.22037271376835943,"46":0.007912904056214158,"47":-0.1177334158704879,"48":0.025733014709654074,"49":0.021650786977067064,"50":-0.23484127013525274,"51":0.11765363513301084,"52":0.038773995962672225,"53":-0.14924059685980892,"54":-0.06226423801563564,"55":0.14987597550056794,"56":-0.07529592471531972,"57":0.025640608128240042,"58":-0.03913471812074926,"59":-0.06989387951141997,"60":0.04188671676224926,"61":0.09667081782925944,"62":-0.06823494982675006,"63":-0.0602043598375348,"64":0.19340447270229758,"65":-0.01054819527774708,"66":0.09690330252330602,"67":0.161655572369074,"68":-0.11627427601177265,"69":-0.027944723673892,"70":0.021153364478442477,"71":-0.5071514592094589,"72":-0.08556965081509649,"73":-0.07301981158249687,"74":-0.1862024048833429,"75":0.0475298904356847,"76":0.020120353484181477,"77":0.09342733704079431,"78":-0.23227636444800778,"79":0.36792951881904107,"80":0.24916598897239,"81":0.20829488608335178,"82":0.1739840031537533,"83":0.029089686277242795,"84":0.009198650330984803,"85":0.0964432270821424,"86":0.23377595870716947,"87":-0.0015090971592263067,"88":0.06529009709283617,"89":0.2074824034136383,"90":0.24075858220530236,"91":0.03360269295413606,"92":0.2196989616719842,"93":-0.07937363620782265,"94":-0.05835848101619545,"95":0.21725747579530164,"96":0.1034303519072052,"97":0.05485231057025754,"98":0.1635906112013245,"99":0.11199383136816164,"100":-0.14933827761109933,"101":-0.16573926401362687,"102":0.12166037416258829,"103":0.024871299803009013,"104":0.1841746388347946,"105":-0.05555846636914805,"106":-0.03507428150372002,"107":-0.12158048380969656,"108":0.023528122261164984,"109":0.1900150816018574,"110":0.19193156864788866,"111":-0.3132058672910836,"112":-0.056233968918424394,"113":0.010549449597512481,"114":-0.1380988611498226,"115":0.1203671153593281,"116":-0.05303833962223402,"117":0.19547101785227916,"118":-0.047694295996386214,"119":-0.2778569422489679,"120":-0.1806149865179437,"121":-0.062398873104711775,"122":0.0623856278954267,"123":0.08853815175250523,"124":-0.03612993736331174,"125":0.05141399144984473,"126":-0.18795164912635234,"127":-0.13825147702152574,"128":-0.03982038065894965,"129":0.17576906515919835,"130":-0.12015535489958035,"131":0.04857129156981802,"132":0.17796097280243314,"133":0.13786035181227954,"134":-0.08227589381158056,"135":0.18118525980489414,"136":0.22417047140465177,"137":-0.0020569498647856756,"138":-0.07560820098490426,"139":-0.19995588823636862,"140":0.056126911448645074,"141":-0.06393261882325572,"142":-0.0593567596409923,"143":-0.07019505519130162,"144":0.2597571170219806,"145":0.03689564018418547,"146":0.024445570132843705,"147":0.21364617132477678,"148":0.01717176372649829,"149":-0.09809984134200031,"150":-0.04355233821579847,"151":-0.02050832098338398,"152":0.16820488476392895,"153":-0.14634440201902496,"154":0.09062485930457714,"155":0.24601928884239846,"156":0.05013672309261024,"157":-0.101134084528263,"158":0.16139006885241455,"159":-0.09946947078090469,"160":-0.24486501792895693,"161":-0.08594106001504905,"162":-0.1311223472448788,"163":0.029355977907054916,"164":-0.07243124255249014,"165":-0.23216138478884435,"166":-0.09955286491621045,"167":0.1562898454149272,"168":0.049846136058279915,"169":0.16392244784976304,"170":-0.17599704153580562,"171":-0.24834796542159832,"172":0.05312948076442932,"173":-0.11536298080707288,"174":0.06860051066372046,"175":-0.17288148644613804,"176":0.1748435833620213,"177":-0.11636058640833372,"178":0.10093833340189773,"179":-0.2704643981577053,"180":-0.14474982943838124,"181":0.19000798374540592,"182":-0.1360900435122612,"183":0.23484601340977526,"184":-0.1250046215483757,"185":0.17958346717703336,"186":-0.13223166443407441,"187":-0.024475780532909,"188":0.1818601931683126,"189":-0.15884910303034483,"190":0.0917037409870083,"191":0.07055731322821801,"192":0.07964819962347816,"193":-0.033511283335479945,"194":0.14128163671902508,"195":-0.032518200328702396,"196":0.2701964784502116,"197":-0.023095153254055204,"198":0.012240315111600852,"199":0.18396924879432597,"200":-0.14679178174215748,"201":-0.15685620790874746,"202":0.15120120948332225,"203":0.061641675840999666,"204":-0.12023180904230195,"205":0.02005700522705033,"206":0.1814012400372728,"207":-0.04074824330847332,"208":-0.002493924289634382,"209":0.26268745104728236,"210":0.11929783924634464,"211":-0.02842717436641695,"212":0.10007874656427672,"213":-0.14473153614842357,"214":-0.07887987071836085,"215":0.011925990301120544,"216":0.019461415266139655,"217":-0.04923677090552561,"218":0.15706290440354317,"219":0.03923713695751188,"220":-0.1115327505118723,"221":-0.1471949136617776,"222":-0.17392430629588032,"223":-0.15970365121118543,"224":-0.014549482133794154,"225":-0.08030019276054981,"226":-0.245364746070274,"227":-0.10839955987912539,"228":-0.05390190847105686,"229":0.19191248605748545,"230":0.07095433589035272,"231":-0.14316340616939918,"232":-0.18554152139221428,"233":-0.10264339113867166,"234":-0.19750499670477578,"235":-0.1972581973613914,"236":0.16846137040426737,"237":0.08597478854040591,"238":-0.09360267945821804,"239":-0.017211646344899894,"240":0.04385470048634443,"241":0.047723060677011805,"242":0.10196668220388429,"243":-0.04535870524952666,"244":0.0672825863273353,"245":-0.0969985482047092,"246":0.08745026518535205,"247":0.0780391626939765,"248":-0.09448890554055812,"249":0.18968969892428875,"250":0.06454109565350745,"251":-0.18654366766163988,"252":-0.01778418340291794,"253":-0.030597654557080616,"254":-0.06027463889273777,"255":0.2181726543405275,"256":-0.05172295268487727,"257":-0.14840357134553125,"258":-0.035108791176687054,"259":0.08123656200958798,"260":-0.16404420236018014,"261":0.03424158062060615,"262":0.04722199738373885,"263":0.19332384729648117,"264":-0.0070414359221623495,"265":-0.00737545041535383,"266":-0.09796835144969113,"267":0.1285616867580401,"268":0.027998950597250067,"269":-0.045280694947052176,"270":0.05783022758656509,"271":0.13513333870461694,"272":0.13338447488254618,"273":0.03743138731976466,"274":0.033418269413368736,"275":0.05910900330546107,"276":-0.02509904210684523,"277":0.10239459657400839,"278":0.1605833680558108,"279":-0.15829282354653243,"280":-0.11819755372910115,"281":0.011479193775310299,"282":0.14648159516381223,"283":0.09626959540162348,"284":-0.026613622579562315,"285":0.2086195069969733,"286":-0.012586004031903273,"287":0.12561608010903663,"288":-0.2095867102013993,"289":0.21204181945819328,"290":-0.0845785572677687,"291":-0.09168642145810729,"292":-0.1984783997685809,"293":0.014726428201135788,"294":0.13886059054630104,"295":0.0901443870594512,"296":-0.06372665105053452,"297":-0.01314910398567257,"298":-0.24552808900474768,"299":-0.27015049849118516,"300":-0.13488115582423077,"301":-0.28715022664291506,"302":0.21195627616503368,"303":0.24968019281487921,"304":-0.008125440873402506,"305":-0.13165152866371466,"306":0.16585869117011348,"307":0.1285580071506738,"308":0.09177564551998257,"309":-0.010693150650577285,"310":-0.012676913640509399,"311":-0.16429006996459555,"312":0.017234596318543436,"313":0.035089284776457404,"314":-0.012433266615762677,"315":0.17498271953055344,"316":0.12377925319485887,"317":-0.03949495568785412,"318":-0.004721420256308896,"319":-0.1343510075151437,"320":-0.09003916946454277,"321":0.045417394546641586,"322":0.16488431696299738,"323":0.13352256648601474,"324":0.17201673863271869,"325":-0.04079640777797118,"326":-0.20266654755428032,"327":-0.07946247128507243,"328":0.00983696970000055,"329":0.02766638888729317,"330":-0.04238691189136909,"331":0.12190890836872162,"332":-0.005544540486166453,"333":0.0829431436935182,"334":-0.15766465815497283,"335":0.11333580023519083,"336":0.11105493489151892,"337":0.3027782892666614,"338":0.14736101073767846,"339":0.09698994792049768,"340":-0.031561148611901076,"341":-0.06964623992244988,"342":-0.010735694248174362,"343":-0.03381032477646847,"344":0.0012874491253409925,"345":-0.03160295698529198,"346":0.002215826576973779,"347":0.17401941242260624,"348":-0.2810414004271954,"349":0.16406252762216028,"350":0.18129748480218266,"351":-0.23597291372916382,"352":0.12284842083579263,"353":0.04873963185111514,"354":0.19426906144440864,"355":-0.1840764422352067,"356":0.07949655698530378,"357":0.04098944446858749,"358":0.07367379829758158,"359":-0.00871721410706904,"360":-0.19239641530063498,"361":-0.11415882105670663,"362":0.026290754808570595,"363":0.0525893798607649,"364":-0.23486842886164816,"365":0.03733377786734411,"366":0.027182290369190135,"367":0.2635573569931254,"368":-0.18962697774654916,"369":-0.06486456619300106,"370":0.04437173150472437,"371":-0.07236770984850219,"372":0.09249152874594153,"373":0.0461764782352724,"374":0.19567065601514105,"375":-0.1265071402389841,"376":0.13878233259796197,"377":0.05459331392288631,"378":0.19675505259252374,"379":-0.1218148167081141,"380":-0.19755387664764576,"381":-0.18860900510928696,"382":-0.3141583947227283,"383":0.11387322386935267,"384":-0.004493206739100333,"385":-0.010024011471723163,"386":0.015988001116568784,"387":-0.16472916399212742,"388":-0.0017411729576337735,"389":-0.17893273343949487,"390":-0.11946257614119135,"391":-0.3592597905128843,"392":0.09655804574078015,"393":-0.09650064395047932,"394":0.08902680514317968,"395":-0.1317621321558344,"396":0.17662595082929863,"397":-0.18712407161844874,"398":-0.27732432526915257}},"2":{"bias":-0.23483647445154726,"weights":{"0":-0.15612549005309348,"1":0.032156665388626375,"2":-0.013889295314118436,"3":-0.18294601885677753,"4":0.14911015523810706,"5":0.20163037250183957,"6":-0.22673678032871844,"7":0.017499387082372128,"8":0.23737880121924676,"9":-0.19565069095572138,"10":0.10330420103934851,"11":0.35523234130157677,"12":0.19866289331103548,"13":-0.08225989659327558,"14":0.08449266022516322,"15":-0.10662839515572453,"16":0.13783863058495538,"17":0.14988445116289517,"18":0.1416099609156511,"19":-0.2853001381377038,"20":-0.04122035730274431,"21":0.007663692764978749,"22":0.03358568196277482,"23":-0.10820643809893982,"24":0.15857144985332508,"25":-0.13920662215354498,"26":0.1990487489663862,"27":0.03614896054741141,"28":0.1410518154602037,"29":-0.22438627280017384,"30":-0.10204424087612961,"31":0.05057076601855302,"32":-0.12445699992592033,"33":-0.21144584979142045,"34":-0.05905398731602936,"35":0.056329817762254784,"36":-0.2273013560347814,"37":-0.15916006362276786,"38":-0.022867694659151457,"39":0.0540742216377395,"40":0.2126011529433625,"41":-0.09501916024450527,"42":0.0919473629571836,"43":0.14465741182344546,"44":-0.1713065746358977,"45":-0.18441375252889147,"46":-0.008394598459888476,"47":-0.14026059289509474,"48":0.2412366899537827,"49":0.016536599448926288,"50":0.15471169906691182,"51":-0.0030118254423683933,"52":0.191804284402071,"53":-0.19521177505842988,"54":0.07843165085927709,"55":-0.21345599071558494,"56":0.3021494514102563,"57":0.10319553623519771,"58":0.10092380461403924,"59":0.10533738864303872,"60":-0.08978852570861653,"61":-0.11478180586568916,"62":-0.12423311239803278,"63":-0.046833352040268984,"64":-0.06533201107019768,"65":-0.0021090981399881424,"66":-0.17614297021924405,"67":-0.039455432506245995,"68":0.20175781881665508,"69":-0.14325199447529166,"70":-0.08391476285903353,"71":0.0370846638882468,"72":0.05946082330269514,"73":0.03642731806985789,"74":0.16717404250288126,"75":-0.11385192765206985,"76":0.16108615830619424,"77":0.11011316902286658,"78":-0.07074792336993208,"79":-0.20301207086789774,"80":-0.17979895262959988,"81":-0.039306516407698576,"82":0.012981619133907094,"83":-0.1065773082278143,"84":0.17730271463583763,"85":0.0422309983496866,"86":0.16643841142736612,"87":0.17433055043394907,"88":0.15194910391865182,"89":-0.16032211420922787,"90":0.13524997002848296,"91":0.15251912101212683,"92":-0.11991166475520919,"93":-0.14768279283696137,"94":0.0804484137108786,"95":-0.01920638308559412,"96":0.2354249359257134,"97":-0.054415317246966244,"98":-0.02390458155253122,"99":0.09740239468410926,"100":0.24780483879482362,"101":-0.10906668174887985,"102":-0.03272192404807178,"103":0.06638064378011334,"104":0.09869000405846869,"105":0.17873450775920383,"106":-0.17035223551531573,"107":0.13580642524327846,"108":0.0334969819813666,"109":-0.18257512167390638,"110":0.05542044865926967,"111":0.2483184541320015,"112":-0.04480793347576799,"113":0.17128974540755942,"114":0.06524636348455647,"115":0.28808281183446033,"116":-0.13906710293079802,"117":0.09598168363675748,"118":0.08996424144150299,"119":0.15411129863742457,"120":0.1631309444970647,"121":0.12882710887561266,"122":0.08740009406255296,"123":-0.12175697951371092,"124":0.039186349535608477,"125":-0.1606791524667969,"126":0.04577378776336547,"127":-0.14001654035082134,"128":0.11145211919073596,"129":0.08367655158484136,"130":0.15533896858498358,"131":0.003876647603936844,"132":-0.1292052295109448,"133":0.14295074507759928,"134":0.06704575678878785,"135":-0.015559293373218387,"136":-0.1673660531816407,"137":-0.12922904901998022,"138":-0.08947319135730494,"139":0.14005443215019778,"140":0.05093549606386902,"141":-0.09018137163003334,"142":-0.15433778789731875,"143":0.08656350814813203,"144":-0.14574514600247518,"145":0.14966533831379847,"146":-0.11085963455481553,"147":0.09683447261388488,"148":-0.07267717467812575,"149":-0.13560682131828497,"150":-0.16329644852964645,"151":-0.21664068792772154,"152":-0.14463745479429663,"153":0.1285166703520453,"154":-0.14214110461604212,"155":0.10698616152132721,"156":0.0935423036651442,"157":0.06590011569351967,"158":0.07354730529899896,"159":-0.0193790070741677,"160":-0.02617311788262081,"161":-0.05985654515136552,"162":-0.15643875934212093,"163":-0.14192096126400522,"164":0.08619783189497963,"165":-0.05636850731073881,"166":0.0005465726330117645,"167":0.006529199903498442,"168":-0.131784642394791,"169":0.08091189212387012,"170":-0.07480060836004142,"171":-0.1369210397260821,"172":0.06963571100047614,"173":0.22822535352426496,"174":0.07178293854782312,"175":0.05626121386725015,"176":-0.08538246275997088,"177":0.026053790669958662,"178":-0.17560176347395592,"179":0.011241647255094682,"180":0.13139147020071487,"181":0.09427413014928078,"182":-0.007686208242733751,"183":0.12135126719268115,"184":0.23168250044039604,"185":-0.17203346408582068,"186":-0.013290771890881192,"187":0.1277179949165468,"188":0.20550037834649645,"189":0.18881832934435624,"190":0.1618151396846458,"191":0.10941981574591379,"192":0.0766448270438166,"193":0.2709644293726377,"194":0.10509516712101231,"195":0.006770668093101202,"196":-0.14719875850927466,"197":-0.16111549434642478,"198":-0.19038352379342205,"199":0.006089400579686162,"200":-0.13272538465689424,"201":0.11015575936090585,"202":-0.2568165359279046,"203":0.23731445855230676,"204":0.14060014807997356,"205":0.12810828424519277,"206":-0.04608632928714952,"207":0.06690570695942256,"208":-0.024064728139866154,"209":-0.1157596196580844,"210":0.21610640895296143,"211":-0.04160697240541291,"212":-0.0834129694204767,"213":-0.02502060030244445,"214":0.23797361731030026,"215":-0.06269453381531312,"216":0.13520675024570247,"217":0.13363017962326704,"218":0.16883434491592056,"219":-0.07487079570348985,"220":-0.05868039096299904,"221":0.01465268670990476,"222":0.052377605668385986,"223":0.005070727472628412,"224":0.15318500579438193,"225":0.12276515272523844,"226":-0.07744593216720336,"227":0.06154927985295752,"228":-0.0925116340175474,"229":-0.17996972129282687,"230":-0.01738825220261049,"231":-0.0051879129473014225,"232":0.2647744182791285,"233":0.13101845905990545,"234":0.16331143819110308,"235":0.21771624691985803,"236":0.18446721121159412,"237":0.21902744728300244,"238":0.05973332186021256,"239":0.0835431367123929,"240":0.1885809592495843,"241":0.1579821979735749,"242":0.1461422371976573,"243":0.1234793739290663,"244":-0.03249957646948077,"245":0.10944362898387311,"246":-0.11562188656330795,"247":-0.10472486984483399,"248":0.23408595318258504,"249":-0.12303871207803653,"250":-0.06008331001562737,"251":-0.10196173323456224,"252":0.017648664467299454,"253":-0.11440391326458517,"254":0.045804464826340124,"255":0.10889937566617665,"256":-0.04459545952881935,"257":-0.005345130759076935,"258":0.050455924006060825,"259":0.08238217297197716,"260":0.15086437426358792,"261":0.23913314971473568,"262":0.02895203708468483,"263":-0.09949601404981374,"264":0.06280293928855472,"265":-0.26267678386248916,"266":-0.15152789122405194,"267":-0.18544894789465957,"268":0.09611733749283959,"269":0.02660482414388312,"270":0.010812377061391994,"271":-0.0513207083149124,"272":-0.10696904864082311,"273":0.20696823328483177,"274":0.06342097504691972,"275":0.10694074674354388,"276":-0.21972453355974125,"277":0.12803774858420475,"278":0.11127505162955474,"279":0.18214603741235286,"280":0.11335670960963135,"281":0.23745339789612147,"282":0.1697472880502132,"283":-0.15613161720394134,"284":-0.04769578682600273,"285":0.12586823812887124,"286":-0.062226918597689716,"287":-0.03957053757821181,"288":0.027000207436387192,"289":-0.166651600648427,"290":0.0500613049150814,"291":-0.09668594360388495,"292":0.1507536750893331,"293":-0.017752838618017755,"294":-0.020293103037209,"295":0.006581474176303146,"296":-0.16229339745812907,"297":0.03791104145651528,"298":-0.1742071717611449,"299":-0.004452257581331467,"300":0.17377743553357095,"301":0.198953439712449,"302":-0.10371147092069652,"303":-0.011974994464592992,"304":0.06516562136856299,"305":0.04357092812752631,"306":-0.030355801989840923,"307":0.044127270376175,"308":-0.06138957402117883,"309":0.1625618290608908,"310":0.2247744009556521,"311":0.00845225919960414,"312":0.11180993779802248,"313":0.12886350277012976,"314":0.16977943912561458,"315":0.08652560133342986,"316":0.09132466104684946,"317":-0.1957821004416527,"318":-0.04868408063509872,"319":-0.020336984971244462,"320":-0.11621888962342619,"321":-0.18243961877592274,"322":-0.034385856284292644,"323":-0.05368279565838298,"324":0.23661938827937037,"325":-0.029223569992389654,"326":0.11646153675840737,"327":-0.026563896697237105,"328":0.19635673916614088,"329":-0.04520570579377697,"330":0.010774236925211686,"331":0.1904747417788258,"332":0.024039858191832766,"333":0.14895544828141521,"334":0.24875824093487137,"335":0.2669395610438969,"336":0.06900854293306219,"337":-0.12092122127927923,"338":-0.252694422242255,"339":0.07491490449168103,"340":-0.23691227962371372,"341":-0.00939300402118292,"342":-0.06346244545873601,"343":0.04000567898753825,"344":-0.020298721164289636,"345":-0.04366392339192143,"346":0.037334651059150764,"347":0.008928973336743647,"348":-0.1456872457730464,"349":-0.2115685383184821,"350":0.12743348398162857,"351":-0.16170553780701882,"352":-0.12689051077515426,"353":-0.056473449543000286,"354":-0.09199461483820666,"355":-0.024152304366391857,"356":-0.21267868692736486,"357":-0.11725469916027058,"358":-0.11811409383588549,"359":0.1478477140881256,"360":0.16515856748001204,"361":0.06238524744559555,"362":-0.01422577811989974,"363":-0.14079140196144024,"364":0.22232452177404358,"365":-0.007603094257881608,"366":0.12823399501094315,"367":0.03763916643352079,"368":-0.11919996641662844,"369":0.12679762754622995,"370":-0.09347831313324889,"371":0.23033751767023145,"372":-0.21007477991149873,"373":-0.09830675945248449,"374":-0.01178222876364381,"375":0.05676420227136711,"376":-0.21035697277283566,"377":-0.21583000903813404,"378":0.10276366260975298,"379":-0.037504708826680264,"380":0.09341362947113521,"381":0.04804961916836351,"382":0.16937557196527034,"383":0.20085198258079445,"384":0.1361014947584919,"385":-0.008989334321996698,"386":-0.10406673944180317,"387":-0.10637162582359388,"388":-0.027250448384910187,"389":0.08043207008251842,"390":0.04754076672218985,"391":0.07109590251166623,"392":0.02601925647244425,"393":-0.057947939314075506,"394":-0.07618893992431741,"395":0.09047137173358821,"396":-0.3636336044903821,"397":0.35980341749204836,"398":-0.057101678995728794}},"3":{"bias":0.16253166474839362,"weights":{"0":-0.27738885384983486,"1":-0.07006965652491401,"2":-0.16679308226739228,"3":-0.19709149198529452,"4":0.03078894339016799,"5":-0.172595445606915,"6":0.023133845168012056,"7":-0.26400518074561496,"8":-0.02670508344229257,"9":0.05713795527755067,"10":-0.16477012088385384,"11":-0.01805985327115896,"12":0.07332682351357907,"13":-0.006666212980700269,"14":0.13982296341901093,"15":0.04002526663591775,"16":0.012124547213936304,"17":-0.09801893984946765,"18":0.04010124255036563,"19":-0.01414121101016958,"20":-0.24474266201093564,"21":-0.18329566961421886,"22":0.08870046671730593,"23":0.14752418823279062,"24":-0.025543547766138357,"25":0.005523823944687774,"26":-0.16210405293669866,"27":0.12692899951707293,"28":0.15698231229852463,"29":-0.09829988325214964,"30":0.04947877995753793,"31":-0.19065652854265736,"32":0.2827582798250255,"33":0.04452289844439257,"34":-0.21497150339517354,"35":0.1566105447000789,"36":-0.08960737543990026,"37":-0.04877175064701835,"38":0.002537751578255255,"39":0.06578570766781305,"40":-0.007399626347215158,"41":0.07958298223731218,"42":-0.18698274848487442,"43":-0.008480300709835591,"44":0.018883412498511578,"45":0.13293356898971034,"46":-0.14504683806180835,"47":-0.08228246559026949,"48":-0.0937881000784383,"49":0.21101204840292154,"50":-0.14607364714864288,"51":-0.12172352634845192,"52":0.1358884569257597,"53":0.04014469968816152,"54":0.034793434701460894,"55":0.10313787722405925,"56":-0.10787829525937645,"57":0.05620334425899406,"58":-0.10225939263265191,"59":0.14905991429347937,"60":-0.03388689591512977,"61":0.35258803836325436,"62":-0.27210895884242164,"63":0.0037323238795685023,"64":-0.2042062378536331,"65":-0.12557211691525666,"66":0.22716744791912988,"67":0.20720255779972102,"68":-0.017611384256544585,"69":0.03199722013617257,"70":0.02976680445998262,"71":-0.2956072485644194,"72":0.08347735932365369,"73":-0.05627691058760766,"74":0.23342793164131148,"75":-0.15255841730835526,"76":0.10385006706400712,"77":-0.1575904994966959,"78":0.11764336291705528,"79":0.09665204261232428,"80":-0.08384950250838215,"81":0.014207926366460602,"82":-0.051167966877114605,"83":0.10427197850634431,"84":0.08632859862186588,"85":-0.0019133307702340779,"86":0.058355380781818234,"87":0.04104631610771625,"88":-0.16847319911186273,"89":-0.05630020413436466,"90":-0.12788531727427532,"91":0.02954095670627714,"92":0.09163941168087993,"93":0.05881605863164923,"94":0.049897423947398684,"95":-0.003080784897758496,"96":0.10318823431440846,"97":0.15396608683759538,"98":-0.06959067870935197,"99":0.08514660763337398,"100":0.06794699027738157,"101":-0.14033914203859532,"102":-0.11822086106753428,"103":0.12212767879237901,"104":0.06274475288001596,"105":0.0693853790583471,"106":-0.03457388301950646,"107":0.18970616123130274,"108":-0.13354376595801773,"109":0.18760340826893016,"110":-0.016348573062388055,"111":-0.1818087674679033,"112":0.22544470350407697,"113":0.04528591184550091,"114":0.08674213999882217,"115":0.12133562497384699,"116":0.09054701195984154,"117":-0.01764943758723598,"118":0.19055884163241243,"119":0.14313462459122994,"120":0.17465084889758728,"121":-0.14703875259810842,"122":0.2543051123824136,"123":-0.1737742150930913,"124":-0.1569497959460325,"125":-0.1640566869231166,"126":-0.01271831513845306,"127":0.043910289596989914,"128":0.05364718519635437,"129":-0.14825395674745415,"130":0.13848637130655067,"131":0.10154948627388911,"132":-0.03909638200580084,"133":-0.12170197896166055,"134":0.10075833742928135,"135":0.13240347624226848,"136":-0.07885857035391977,"137":0.032647056064180495,"138":-0.08341100159873481,"139":-0.08019498047719473,"140":0.2273566665017362,"141":-0.060849872911842656,"142":0.10717625497371035,"143":-0.1246733510392789,"144":0.09033521228221326,"145":-0.11278491363223127,"146":-0.10154276685156914,"147":-0.052869637814921,"148":0.11391426166192908,"149":-0.09055511879303181,"150":-0.15996209758939503,"151":0.018444545166746342,"152":0.07664683789169804,"153":-0.15484343083186614,"154":-0.09290016116835013,"155":0.007772750423179308,"156":0.07484906061276636,"157":0.18403365967164878,"158":0.20685723106057524,"159":-0.18509765055891764,"160":-0.2769640973718051,"161":-0.04841480987250651,"162":0.10208120320649557,"163":-0.11292575009674115,"164":0.00003704595612811806,"165":-0.060894817259385135,"166":0.11673017117632534,"167":0.028781662151447434,"168":0.07182435079663273,"169":0.11275116208453767,"170":0.158742386060093,"171":0.19404531423248708,"172":0.05314167463421677,"173":-0.2078799792347821,"174":-0.18105667005838583,"175":0.1753214883514364,"176":0.21976866245113605,"177":0.03196713814308592,"178":0.15869437094256397,"179":-0.17964476985025477,"180":0.19312028273118778,"181":0.006416906023683215,"182":-0.07217118445038663,"183":-0.16381492739514528,"184":0.10205981931372991,"185":0.14676779423292657,"186":0.08642077948966095,"187":0.02237558470982081,"188":0.046028813905912354,"189":-0.16354412889029768,"190":-0.000264239893209356,"191":0.16713816772664267,"192":0.17149446698428267,"193":0.0657070034883559,"194":0.11294927213822809,"195":-0.04721384213522995,"196":-0.05433397673162826,"197":0.10765830187722435,"198":0.12969878652594988,"199":-0.26197473246835723,"200":0.07771227162860359,"201":-0.01922605633951138,"202":0.054102626869767606,"203":0.09123469119176127,"204":0.077197195990037,"205":-0.04484878421443699,"206":-0.18526210530219112,"207":-0.09982584945200544,"208":0.029305247938196385,"209":0.05277177797234709,"210":0.051103671122894316,"211":-0.17628882708252178,"212":0.03091089653400353,"213":-0.08322650705636918,"214":0.19651245548162224,"215":0.0038787609258106462,"216":0.09212976200711298,"217":-0.08217142845153545,"218":-0.0520265873992971,"219":0.14497920449345486,"220":-0.21142188135562254,"221":-0.04569060919313253,"222":0.10335754219973627,"223":0.11913070361781097,"224":0.09814152448891487,"225":0.1112168385904435,"226":-0.1281857777111346,"227":0.01458597419548725,"228":0.02391597418874516,"229":-0.09006696356830396,"230":0.18004385529037442,"231":0.05018677000536772,"232":-0.06924596905842831,"233":0.04977758818236071,"234":-0.0403327739089395,"235":0.12078581667499565,"236":0.09994262039418085,"237":0.09707236754797757,"238":0.03479887912911414,"239":-0.31884622204964186,"240":-0.152415452669721,"241":0.22060910488340163,"242":-0.04439807715920612,"243":-0.0835092177561888,"244":-0.20492733132442842,"245":-0.060428461027039346,"246":-0.05329052857848508,"247":0.17039345777183243,"248":-0.011002646165230246,"249":0.13232726123688981,"250":0.144296773948,"251":0.15858876999504304,"252":0.017592901387003194,"253":-0.04251336511625313,"254":0.10318981256795368,"255":0.11005992096469643,"256":0.021490570775225277,"257":0.1049479043993954,"258":0.18592869938323806,"259":-0.23099174038963205,"260":-0.02196362308342096,"261":0.04748725478667744,"262":0.2988938406052817,"263":-0.1086416780834678,"264":-0.18438497443611518,"265":0.06423353124736614,"266":0.023294659574490603,"267":-0.11148896998068487,"268":0.18760734644533286,"269":0.08495717372246352,"270":-0.1585410376252481,"271":0.11114462872031168,"272":-0.06081875634989606,"273":-0.061502572802104645,"274":0.1645927227512856,"275":0.06530927746430248,"276":0.2948078426662685,"277":0.12601104652810924,"278":-0.14884833115281262,"279":0.20073658175922396,"280":-0.05674869171744479,"281":0.04896602999649721,"282":0.20461784268095143,"283":0.12989475689119342,"284":-0.18130369709461472,"285":-0.3128351750241586,"286":0.13277342186778304,"287":-0.0708226835866385,"288":-0.1070220845783019,"289":0.06232780305521141,"290":-0.09563792790457809,"291":-0.1260228211617827,"292":0.14291417854342134,"293":-0.07110346487376246,"294":0.01825169670143575,"295":0.06644147450961865,"296":-0.022962630907416508,"297":-0.004386214076336953,"298":-0.08766686937385358,"299":-0.2914676290830794,"300":-0.1812210681111622,"301":0.19835505058083006,"302":-0.0076502092357636576,"303":-0.1034500591763313,"304":-0.01036996847743397,"305":-0.01271251532119639,"306":-0.03843598005067341,"307":0.07834842032469191,"308":0.1513173160017693,"309":0.013447106226139592,"310":-0.08036770932605196,"311":0.05551905441247119,"312":-0.1399228984085906,"313":0.20695115497247077,"314":-0.1668016388950649,"315":0.061177026717076324,"316":-0.1824085907736269,"317":-0.1237252578450871,"318":-0.24238832166506402,"319":-0.3057342484790774,"320":-0.14600377511555096,"321":0.007745405273291982,"322":-0.2698799785800572,"323":-0.07833365462018209,"324":-0.05228162462769062,"325":0.07215325517240302,"326":-0.040014212315592254,"327":0.24206565452480153,"328":0.04101876635198068,"329":-0.1160117399661852,"330":0.0016581496151951303,"331":0.029047760292642492,"332":0.0021267355997054514,"333":-0.03838846798430575,"334":0.22925769546835814,"335":0.15567154114481738,"336":0.1479505011818506,"337":0.042235242850893105,"338":0.2470233341277111,"339":0.0977866099005896,"340":-0.0658702558735536,"341":-0.30376627324567096,"342":0.04464509093829898,"343":-0.19455888155944664,"344":0.09832832863271868,"345":0.12862401332609652,"346":0.20433808283011498,"347":0.26064395734374896,"348":0.14339050684853905,"349":0.1812028172755352,"350":-0.13718096907069627,"351":0.12741292676027757,"352":-0.11134855893386726,"353":-0.01422039587631277,"354":-0.04356723962151211,"355":0.21600102432121934,"356":0.12325391278850399,"357":0.3447021473955423,"358":0.032586396421288286,"359":-0.14861091924399025,"360":0.043290332918190434,"361":-0.03422261463011264,"362":0.09240389643420789,"363":0.2561531834824243,"364":0.07197050628726294,"365":-0.12022417095377164,"366":-0.24758422748202888,"367":-0.17865659590325214,"368":-0.22834226694396667,"369":0.09386804876085635,"370":0.1525846050807369,"371":-0.18255093305824335,"372":0.07463100075851493,"373":-0.14944770574932534,"374":0.03945501053912284,"375":0.19159321491845754,"376":0.23679763225137868,"377":-0.09912541676007015,"378":-0.1789048387454094,"379":-0.12778430375925587,"380":-0.05509729322767273,"381":-0.06144022679773792,"382":0.15168872191273722,"383":-0.15842592812461226,"384":-0.0417716172207624,"385":0.10585395349247718,"386":-0.19214167907051827,"387":-0.10704940435838824,"388":-0.3132044779590252,"389":-0.06571038299414267,"390":-0.05807612430567433,"391":-0.010162031798650361,"392":0.23016156183410194,"393":0.07826017311497283,"394":-0.23528585850074696,"395":-0.3616335930643485,"396":-0.17242882207849872,"397":-0.22190778721016916,"398":-0.011435026625091443}},"4":{"bias":-0.03908311400484438,"weights":{"0":0.06815606322208557,"1":-0.17660105256114128,"2":0.07909880130778944,"3":0.22718674677609219,"4":-0.0032966161472694467,"5":-0.12148789571820263,"6":-0.3312022342968141,"7":-0.1505836862725056,"8":-0.2705642177461578,"9":0.12199205179113307,"10":0.034615211957747326,"11":-0.35751537428244357,"12":-0.26179198427415706,"13":-0.09528415890097731,"14":-0.37138013226743993,"15":0.15583719616182062,"16":0.04001142235593685,"17":0.00903372519748821,"18":0.12532888318197602,"19":0.00045706040357300175,"20":-0.0009621441445202709,"21":-0.11830286057968649,"22":0.14603892430846924,"23":-0.08558372437201225,"24":-0.13937692189267833,"25":0.01894519704783991,"26":-0.041496997922865465,"27":0.04864448488152113,"28":-0.17634596089175317,"29":-0.02904983708330135,"30":-0.006846296289725555,"31":-0.31345512988736224,"32":0.01046787729060362,"33":0.09884155196557179,"34":-0.06853137619537435,"35":-0.19949497564773555,"36":0.12389616793548591,"37":0.3371109019696014,"38":-0.24850346928414882,"39":-0.18836883697372422,"40":-0.18434297169112332,"41":0.08915480287574669,"42":0.11307311355410912,"43":-0.041471191267604145,"44":0.01219304592438401,"45":0.1828286839177484,"46":0.11891743861642785,"47":-0.17850638298610072,"48":-0.02735521658447595,"49":-0.0800195699390939,"50":0.11362658380189697,"51":0.13061065485864837,"52":0.1298282855938807,"53":0.0533778510627874,"54":0.1759027452335016,"55":0.20106514464666678,"56":-0.17329438962257854,"57":-0.03004379101024382,"58":0.11457065299782608,"59":-0.10886696422408698,"60":-0.18615517603434065,"61":0.03699570636578367,"62":0.13472049728468907,"63":-0.3221014180693137,"64":0.20704191903371524,"65":0.16905620642031,"66":-0.08303126851804137,"67":0.10047864113551729,"68":0.07394325437860068,"69":-0.11890008812331783,"70":-0.1252877262885536,"71":0.15389417584273166,"72":-0.13308599883682995,"73":-0.1687526447423386,"74":-0.13933745457038932,"75":0.19303447107450922,"76":0.0038489750811777465,"77":0.23241753213654426,"78":-0.19077576646703653,"79":0.03089021197587732,"80":0.012287024057785,"81":0.10859333795569866,"82":0.15128812559625554,"83":0.1382872670296249,"84":-0.024800768461677055,"85":0.11947895001842783,"86":0.03388282796588431,"87":0.10237833052059336,"88":-0.1700015769651609,"89":0.057563688294495784,"90":0.1720177891383822,"91":0.009165278152496887,"92":0.17686404306029183,"93":-0.0286431758220171,"94":-0.1251980159889943,"95":0.060961056549082585,"96":0.20331495541966702,"97":-0.03822122591448186,"98":-0.14004183660582242,"99":0.22091834200972962,"100":-0.12089271888326784,"101":0.2176544928506001,"102":-0.03916220271429442,"103":0.07646035059851065,"104":0.16087829709782567,"105":-0.10966775348829433,"106":-0.021719131696445827,"107":0.1728486838912134,"108":0.15618762606443315,"109":-0.11586914204903483,"110":0.14525319383543372,"111":-0.04786703631955343,"112":-0.10981263619774571,"113":0.19725559176435878,"114":0.12321125775547723,"115":-0.027552292933208315,"116":0.029185904801546595,"117":-0.07300651867709275,"118":0.009051488104982547,"119":-0.24279126619349528,"120":-0.09222244536620344,"121":0.0646613030897779,"122":-0.04454211188764639,"123":-0.1484764462890585,"124":0.19603898184023866,"125":0.14230704412196085,"126":-0.19887425168873507,"127":-0.19465926663321387,"128":0.014094161373320202,"129":0.23383936073426656,"130":-0.2233215586814682,"131":0.12110827647328663,"132":0.08718999592096922,"133":0.13575295773694873,"134":-0.16829147941899586,"135":0.1679148567608269,"136":-0.022289535247725627,"137":0.06471685427719008,"138":-0.0066812802223511995,"139":-0.07292701836421205,"140":0.09517514590378316,"141":0.03914220649473466,"142":-0.17141680453348418,"143":0.013073468962363208,"144":0.08644859133149152,"145":0.11419473911724222,"146":0.0029741357349654025,"147":0.09405811096876088,"148":0.10903373747569278,"149":0.16422470956693047,"150":-0.07805136629625621,"151":-0.048038108221741184,"152":0.01255927591192778,"153":-0.1298575755773379,"154":0.06660976877462572,"155":0.047491985783198666,"156":-0.08373870105429856,"157":-0.00019867735802808585,"158":-0.14627654963437772,"159":0.17352758998234058,"160":0.06413840853054942,"161":0.08815659384591022,"162":0.10439345949154773,"163":-0.19094706248763582,"164":0.06401821792242242,"165":0.1568756480279182,"166":0.17121563033303555,"167":0.05642919028536079,"168":0.03920527690073957,"169":0.015653374840500892,"170":0.048769443085258275,"171":0.14350951342290766,"172":0.10020921201023233,"173":-0.001987296317526914,"174":0.023102271384360405,"175":0.10496052268275928,"176":0.10275438690693908,"177":0.20334681517555594,"178":0.12641564186834262,"179":-0.04096487160027152,"180":0.07385416887993425,"181":0.06501883822263353,"182":0.1477525861439206,"183":-0.06231353120318542,"184":-0.12829078355139362,"185":0.003123695306201103,"186":-0.11977405791239273,"187":0.05969363032355221,"188":-0.06163215338159384,"189":-0.030777991685724482,"190":0.14905999290414926,"191":0.1312738492922577,"192":0.22406355872642025,"193":-0.007232251724100575,"194":0.036576645117158406,"195":-0.08055557419269276,"196":-0.014559675397139359,"197":0.02776474746170826,"198":0.2145777699909592,"199":0.02015182994590875,"200":-0.2312712034095705,"201":-0.11393645152403568,"202":-0.11283673239149046,"203":-0.004960404717635291,"204":-0.1921067028703093,"205":-0.010838592894743001,"206":0.14213582899254817,"207":0.064324512360333,"208":0.21529863911696678,"209":0.2660630704154875,"210":-0.14059422831666168,"211":0.1265820871542119,"212":-0.11768799271342786,"213":0.1747648416555685,"214":-0.11269315540079632,"215":-0.1452596652513366,"216":0.17454664506782358,"217":0.08924471330101774,"218":0.0828059020991157,"219":-0.20410173377062987,"220":-0.18764960016005344,"221":-0.14007783057378134,"222":0.15737256661201043,"223":-0.18671743184524853,"224":-0.21176752627535916,"225":0.07847857922891027,"226":0.01604528451803292,"227":0.11334155307223447,"228":-0.11233790442136019,"229":0.16552318802173657,"230":-0.11566483109038975,"231":-0.014411001577438793,"232":0.12634582608910863,"233":-0.044753273663410954,"234":-0.07255060709083086,"235":-0.005818968597673156,"236":0.02139395816589744,"237":-0.2765314733015577,"238":0.17263101232580327,"239":0.11027945977626612,"240":0.10167079585480793,"241":-0.08814734845154588,"242":0.13300740290026766,"243":-0.3503016146220056,"244":-0.05794523998980706,"245":-0.09764427321702045,"246":-0.04100648759369654,"247":0.14936056745475854,"248":0.06146239872034655,"249":0.20065254602618535,"250":0.021561944075641718,"251":-0.12255155931486403,"252":-0.09445673163493003,"253":0.010585042201686642,"254":-0.2479211531161849,"255":0.2357050418175366,"256":0.07123778147702232,"257":-0.08919367180467054,"258":0.16280745396521387,"259":0.20961592962620226,"260":0.0037758038289951758,"261":0.06141820410955581,"262":-0.09701433955737421,"263":0.10198749358440146,"264":0.04169534151087935,"265":0.18435700625816226,"266":0.07256782874174113,"267":0.010958015793205916,"268":-0.10933327503901379,"269":-0.06498164385077745,"270":0.11936262030542111,"271":-0.01970715901672848,"272":-0.013501524867624789,"273":0.1197456178237097,"274":0.09841081417552786,"275":0.09974832630731853,"276":-0.12090453667662664,"277":0.01766810484438704,"278":0.10650703266922833,"279":-0.30587224426314474,"280":0.18202089412466227,"281":0.041219374426948445,"282":0.19505083240955107,"283":0.14873127920946727,"284":0.15934625788951867,"285":0.08444845040084,"286":-0.04735908119225949,"287":-0.054290289996708,"288":-0.18056424262825546,"289":0.14998253268963715,"290":0.18055584977790096,"291":0.13310057555119473,"292":-0.09116665349132276,"293":-0.0923810395905174,"294":0.06967332492928215,"295":-0.14375098197977895,"296":0.055053266927311176,"297":0.05949851339018153,"298":-0.2068908136487322,"299":0.1035664400129739,"300":-0.021956255139116563,"301":-0.02568327522037004,"302":0.08165445745879751,"303":-0.1295731236120649,"304":0.1300829381165103,"305":0.16751783875153484,"306":0.025529427784016703,"307":0.2699985635139897,"308":-0.050583029293287105,"309":0.03631022139067284,"310":0.12556177458179632,"311":-0.13731345383416813,"312":0.1557048969261786,"313":0.10172934099204181,"314":0.16217162436935575,"315":0.0932631167430692,"316":0.17126557654573107,"317":-0.04410029488466759,"318":0.1499194655801329,"319":-0.22728910191034796,"320":-0.2612575427581046,"321":0.022775302157620754,"322":-0.041902632459121826,"323":0.19380077179473504,"324":-0.07631428094412931,"325":-0.060615581663069254,"326":0.19830408662747345,"327":0.0302371576160453,"328":0.046201161268137274,"329":0.23273398296611517,"330":0.03950357802456722,"331":0.23408807023324527,"332":-0.06427851526746774,"333":0.04521562965996575,"334":0.0398266104855341,"335":0.18322867131823972,"336":0.10422905156733729,"337":-0.01875048541258284,"338":-0.10578040484097921,"339":-0.22781310868390942,"340":-0.08873144549071,"341":0.2792504471886872,"342":0.13192772369550557,"343":-0.1050317046532943,"344":-0.04737163128768649,"345":-0.0056404981633886575,"346":0.24499575265620516,"347":0.060094491690453826,"348":0.11431924540492869,"349":-0.08726444530583904,"350":-0.08468326441263492,"351":0.12247278864373323,"352":-0.11272091853027216,"353":-0.08562810096207674,"354":-0.08525093075984587,"355":-0.2894492039202748,"356":-0.28541365639140237,"357":-0.11237419212140275,"358":0.23153787721001126,"359":-0.06895448806130573,"360":0.06357687195123077,"361":0.17600238428309392,"362":0.1706588896147304,"363":0.003194328542677757,"364":-0.012148547859533208,"365":0.006737902098472457,"366":-0.052221632779159456,"367":0.26796306691255095,"368":0.11436057562798768,"369":0.04086618637157073,"370":-0.08361233198613069,"371":0.07663877344197977,"372":0.17196619056730336,"373":-0.019257984616731137,"374":-0.06571369484501398,"375":0.10710069580212049,"376":0.16711906419239134,"377":0.4120912349249651,"378":-0.09456461631654267,"379":-0.14078863862875998,"380":0.10106200705002201,"381":0.14173170751274106,"382":-0.28972892008837703,"383":0.19499947532966405,"384":0.11609651836647575,"385":-0.355869640486415,"386":0.013969820193770266,"387":-0.21851389044166478,"388":-0.09639907799570924,"389":0.16557747250599297,"390":-0.09244643674164885,"391":-0.26461453806830104,"392":-0.056730978315868034,"393":-0.10637465221575834,"394":-0.06353364759894974,"395":0.08732302721572273,"396":0.025845911897707904,"397":-0.07756960984151261,"398":0.1880713538067977}},"5":{"bias":-0.08331145928956876,"weights":{"0":0.02972168339863316,"1":-0.011795166593391393,"2":-0.03828130465469133,"3":-0.1646327038018716,"4":-0.12855786135300287,"5":-0.005716660624852623,"6":0.25524324988948843,"7":0.02310499325440551,"8":0.1283789511186275,"9":-0.11567244944393948,"10":0.09162466732798494,"11":-0.09733012062510926,"12":-0.18780813170428473,"13":-0.08551050719931634,"14":-0.2863310726146635,"15":-0.18978125327067263,"16":-0.06824546296757088,"17":0.041325794716773945,"18":-0.10719791987286406,"19":0.09250109799022065,"20":-0.20366888595472063,"21":-0.12223783427670991,"22":-0.005759121739709675,"23":-0.04765527659276329,"24":-0.058549159095563394,"25":0.029951346573791688,"26":-0.03699497029321628,"27":0.13020958947102523,"28":-0.12843563385312845,"29":-0.03384588179963326,"30":0.20360646232947976,"31":-0.02492720441389808,"32":0.043245270907122144,"33":0.2706504024300929,"34":-0.22426327271084234,"35":-0.051715079023706076,"36":0.0798666263038576,"37":0.22435465769660384,"38":-0.03954809764807294,"39":-0.16795026544890035,"40":-0.3283800852193023,"41":-0.11147185435141282,"42":-0.1491770528513016,"43":0.03889874121093129,"44":-0.17127696861065766,"45":0.22376534387127694,"46":0.044058376901803135,"47":0.034595788288326636,"48":0.15329705478168215,"49":0.16075906096212897,"50":-0.13976946905833673,"51":0.01928331882469922,"52":0.22960486497113755,"53":0.08588463292322082,"54":0.08477191949727773,"55":0.14115745064987567,"56":-0.09136632695365023,"57":-0.17633916588612542,"58":-0.265063540328946,"59":-0.29031905269842045,"60":0.10243674027848257,"61":-0.0009333962750874481,"62":0.03858007423188208,"63":0.2214785387688333,"64":0.06359608570370938,"65":-0.11490102563275931,"66":-0.10141000335704539,"67":0.04431983034414949,"68":0.10829568542633689,"69":-0.11338693193404399,"70":0.06478448808370973,"71":-0.41669664939872714,"72":0.01363010080149459,"73":0.1450566399899996,"74":-0.11106458755937039,"75":0.15361989777632362,"76":0.1479264712902885,"77":-0.136186991878536,"78":-0.21934386600917052,"79":0.13015275004146062,"80":-0.1379589008566248,"81":-0.027086507307022514,"82":0.0964892479906847,"83":-0.14964928948820844,"84":-0.1659846966658233,"85":0.10991674716904581,"86":0.12109752094713418,"87":-0.13057988060117215,"88":0.08098740557931607,"89":0.17990815089484946,"90":0.15371611889329395,"91":-0.054013467061794475,"92":0.16293334104543153,"93":-0.1491104056527317,"94":0.020714126130232723,"95":0.23264897567729068,"96":-0.13944145651683099,"97":0.07681858911913116,"98":0.03790232509947511,"99":0.003830415027395671,"100":-0.1352102784850919,"101":-0.13335028493338733,"102":-0.022309121728274737,"103":-0.21234005472908657,"104":-0.23289189417990597,"105":-0.1328836443888224,"106":0.13851764819879966,"107":0.24065765131457806,"108":-0.05790732283131378,"109":0.15881497750485693,"110":-0.0006815176508417859,"111":-0.2465311917902628,"112":0.1524512613090178,"113":-0.1779166289817487,"114":0.12364962784525486,"115":0.03212112939310562,"116":0.18568402656049554,"117":-0.18981600041817043,"118":-0.22318001747616453,"119":-0.01689388606687916,"120":0.03291502337773019,"121":-0.11816316402123267,"122":-0.12791706892505264,"123":0.016782675056610425,"124":-0.1246474615527449,"125":-0.01891730776791037,"126":0.005028124215753694,"127":-0.05482502465587673,"128":-0.18360799369201794,"129":0.2196319050876988,"130":-0.2115562546485479,"131":0.018085014910249414,"132":0.1529180025334037,"133":-0.013015790641094422,"134":-0.04126934825900409,"135":0.13259503175445497,"136":-0.0344439636565627,"137":-0.14429333092714608,"138":-0.17931822415049786,"139":0.035579481831300275,"140":-0.03829756159915735,"141":0.06976819569946627,"142":-0.11949041380927045,"143":0.0517380210328288,"144":-0.016755680686668467,"145":-0.01780550601441186,"146":0.17681653157896232,"147":0.1465676056467155,"148":0.08820763341856419,"149":-0.008125405923934795,"150":0.27201525542627447,"151":-0.12306788212952204,"152":-0.08706165469773777,"153":0.09534869565722827,"154":-0.014130668436181668,"155":0.06423664022700735,"156":0.08999159142886876,"157":0.057991495771295566,"158":-0.031501232571642876,"159":-0.1554957812874914,"160":-0.04630654320510123,"161":-0.020163356144428192,"162":0.006030878168932773,"163":-0.1063057407989082,"164":0.03520965434860852,"165":-0.203849135587003,"166":0.026329459310528273,"167":0.09166634748784427,"168":-0.09265164991599029,"169":-0.06383929501553848,"170":0.013096130974429425,"171":-0.21640925503198752,"172":-0.23851144733932556,"173":0.12666478669061054,"174":-0.011839057851410489,"175":0.07071007755398043,"176":-0.016607206838284736,"177":0.01156504297399345,"178":0.04074605756998931,"179":0.007753579362420408,"180":-0.11298880906456633,"181":-0.13431802234076284,"182":0.2637915796176008,"183":-0.06094257665825115,"184":0.08825991111760721,"185":-0.14638883409009618,"186":0.1596409040203952,"187":0.11153451881031169,"188":-0.003986696947715982,"189":0.13753770037279936,"190":0.18894660358034943,"191":0.04168925724758612,"192":-0.02628805548351136,"193":0.10727939265338683,"194":0.1753434450446852,"195":0.15313461172211773,"196":0.06612979830477259,"197":0.09935168843276518,"198":0.06195688851963306,"199":0.08742955269910237,"200":0.014264136852009592,"201":0.1479044459221918,"202":0.21728146723090572,"203":-0.148123741285738,"204":0.07395294731898557,"205":-0.05583648385906381,"206":0.05233305227885064,"207":0.07150575624323924,"208":-0.1747542654403835,"209":0.11611595512895367,"210":-0.12905312444422293,"211":0.19110521636348593,"212":0.07058769464281428,"213":0.10644176822057602,"214":0.0100129618078322,"215":0.024820228886683508,"216":0.0390879643712391,"217":0.09332621175541028,"218":0.17657238132030473,"219":-0.09237263499078376,"220":0.09746246979874905,"221":0.004617710570172768,"222":-0.19205621234705983,"223":-0.22055615322162184,"224":0.04431812196734839,"225":-0.2421463616368195,"226":-0.00018529970168551722,"227":0.12664925289247617,"228":0.03820212944275092,"229":0.13353171309254663,"230":-0.02344868326851111,"231":0.07089732478621433,"232":-0.1815070292113699,"233":-0.10813359403429391,"234":-0.06808305668584248,"235":-0.2542179652511959,"236":-0.10512274874575059,"237":-0.07448103908744357,"238":-0.11962145947586436,"239":-0.11660805538000847,"240":-0.18644070223010564,"241":-0.061806108832114834,"242":0.0840490856827327,"243":0.15969982797341928,"244":0.12623416857390482,"245":-0.12091448091755054,"246":-0.11033827342843627,"247":0.22551891513954075,"248":-0.1044905816756067,"249":0.09862727282849544,"250":0.015445177303415209,"251":-0.1086049930191347,"252":-0.21056919175282365,"253":0.06579185081099084,"254":-0.0023974443918526743,"255":-0.09847745396926885,"256":0.06667162454959953,"257":-0.07098038748752493,"258":0.11282416307915752,"259":0.043760989484892265,"260":0.03626928669663875,"261":-0.21844653825945107,"262":0.15846288553797136,"263":-0.18300029384208066,"264":0.10055722481426471,"265":0.03385955023945492,"266":0.05055067752530067,"267":-0.15250646539176907,"268":0.08644394822063246,"269":-0.04190241315759249,"270":0.056310574743805825,"271":-0.027858429604198823,"272":0.10395083796332062,"273":-0.07139094652023252,"274":-0.19178717875559656,"275":-0.08069285018439733,"276":0.18853143549809104,"277":0.1312692034445092,"278":0.16365227690943132,"279":-0.019195383942679334,"280":0.012472113241132909,"281":0.15324222796028233,"282":0.1986570316976761,"283":0.1892566279202086,"284":0.08538055718582735,"285":-0.1709590152761333,"286":0.006766486934231719,"287":-0.06146969325071629,"288":0.018041591778377896,"289":-0.1204341599252333,"290":0.16173210271308758,"291":0.1237131231624082,"292":-0.06181460855375575,"293":0.07301292114346447,"294":0.12401191635605653,"295":0.14413145481731304,"296":-0.12772591450283677,"297":0.07003889443179818,"298":-0.0728590638669581,"299":-0.07159087877614038,"300":0.02331298128050634,"301":-0.09248569584159796,"302":-0.06032127292419503,"303":-0.10069928832191373,"304":0.016087039585513767,"305":0.013714436288709175,"306":0.13230580474779788,"307":-0.10369323512635809,"308":-0.09830408022846707,"309":-0.017459963155499678,"310":-0.07124993116127115,"311":-0.1478050432952342,"312":-0.18079580818478427,"313":0.09122339555514336,"314":0.1788345435767066,"315":0.09797174032332363,"316":-0.16920019287399876,"317":0.14445117394409226,"318":-0.14114360733162437,"319":-0.22077578350668772,"320":0.08863453340592367,"321":0.15364905539486637,"322":-0.18106180089514182,"323":-0.19369160182715242,"324":0.06252716195011865,"325":0.00617232795191375,"326":0.03079036701163779,"327":-0.18156625396248344,"328":0.01834228757293766,"329":-0.12261665988612558,"330":0.14627273531238924,"331":-0.24494914874916443,"332":0.13072784298328216,"333":-0.15980142571670053,"334":0.15948650089683042,"335":0.0008405686742122278,"336":-0.07712193805347989,"337":0.17645285301569352,"338":-0.03655081172417628,"339":0.08323898088772799,"340":0.09507975721478147,"341":-0.29130831051687034,"342":-0.025738023930352787,"343":0.12576674103884475,"344":-0.1363032641230764,"345":0.04594259496034102,"346":-0.02085896993237059,"347":-0.1828256784801679,"348":0.048563206783229215,"349":-0.013609591705954212,"350":0.08830944043211596,"351":0.18416534226370568,"352":0.119658216905285,"353":-0.016582515248010497,"354":-0.10602563828017067,"355":0.02936733587013914,"356":0.13544637956215796,"357":0.00230047488481591,"358":0.33310921699027274,"359":0.1177788306536499,"360":-0.33284601477946485,"361":-0.11769947315335078,"362":0.056293638728326725,"363":0.028652307138934692,"364":-0.11198993479653259,"365":0.1123779679423498,"366":0.029819661006636293,"367":-0.027064476921632462,"368":-0.2292910684536824,"369":0.09459779446861155,"370":-0.008021855271067607,"371":-0.18955951684689132,"372":-0.15250931508775079,"373":-0.09131825640349636,"374":0.09891213795183856,"375":0.13522146108242575,"376":0.014874420569608521,"377":0.10769017822575334,"378":0.13078076940363448,"379":-0.271785365564015,"380":-0.366575040158442,"381":-0.15450414342478874,"382":-0.03467118171671435,"383":0.07473666763176934,"384":0.09185259132567283,"385":-0.19906821412976375,"386":0.12083515600989311,"387":0.0895063877616125,"388":-0.10840630011257489,"389":-0.033288490298490396,"390":0.140784663122671,"391":-0.1306805244463164,"392":0.07767715601315422,"393":-0.002825407529019782,"394":-0.2090659828932766,"395":-0.17155668866157714,"396":-0.010165216176749464,"397":-0.2454226762409707,"398":-0.14254317348092782}},"6":{"bias":-0.30538583766136373,"weights":{"0":-0.2168059364440677,"1":-0.023559232706050367,"2":-0.24401744845143608,"3":-0.08892653279282461,"4":0.16120909137749165,"5":-0.05037627412572959,"6":-0.42481750640811883,"7":0.1134292008070359,"8":-0.01654134158832218,"9":-0.07072707104161875,"10":0.13030553647956758,"11":0.09093707235621924,"12":-0.1452363005182657,"13":-0.08387549232281837,"14":0.0908477141914978,"15":0.027467688743537964,"16":-0.15448900202568697,"17":-0.0350112321055078,"18":-0.02315533591842963,"19":-0.15338951039604393,"20":0.13163490988641827,"21":-0.06458699568516517,"22":0.2430449071010029,"23":0.15616415154675087,"24":-0.17047459621181563,"25":-0.2533976761362193,"26":0.022336201224081798,"27":-0.05873965164364029,"28":-0.1554400884934597,"29":-0.04503664037206709,"30":0.10598081744731144,"31":-0.35664897743879437,"32":0.1692256946649088,"33":0.03456440087301764,"34":-0.15233338764157572,"35":0.09951469031435921,"36":0.10359381026443167,"37":0.26320990748204537,"38":-0.10888591523163327,"39":0.05873056641899365,"40":-0.04183160958178499,"41":-0.07546021751876208,"42":-0.10410531929653001,"43":0.07193271845816768,"44":-0.13769054113818982,"45":0.13407961675759733,"46":-0.1770575350108216,"47":0.13438627029930625,"48":0.30600325966875386,"49":0.08764137809811177,"50":0.002643086164725403,"51":0.12545008799008542,"52":-0.023056756861599668,"53":-0.017318001195964158,"54":0.28093970755741343,"55":-0.1970003743772232,"56":0.3877744135901016,"57":-0.2979577577011006,"58":-0.146700315827073,"59":0.20152963276309077,"60":0.15071938424931947,"61":-0.1711220141563714,"62":0.26024160590383627,"63":0.1512917487680705,"64":0.07859060659896693,"65":0.27882069262035275,"66":-0.15134701002286674,"67":-0.18828350733095817,"68":-0.020328214748129517,"69":0.08690870207656784,"70":-0.1878826143440365,"71":-0.06515893607947394,"72":-0.17544606665956838,"73":-0.25111922930710523,"74":0.08113623217645663,"75":0.1423848307815254,"76":0.009968987630250635,"77":0.2855404204109259,"78":-0.2557047781481657,"79":0.25936925990250725,"80":0.17921667763376964,"81":0.29055130180597066,"82":-0.012104311282060356,"83":0.058570092205606016,"84":0.23494717272818463,"85":-0.15952995884016413,"86":-0.00042224022274519745,"87":-0.24491931226821712,"88":0.10413382536386057,"89":0.1173616655298406,"90":0.24139057848771736,"91":-0.006295160530854196,"92":-0.07009068469056236,"93":0.11340950676080166,"94":-0.16830720514827488,"95":-0.15772815225484643,"96":0.09879442214128469,"97":0.04012573364396365,"98":0.016835490976188895,"99":0.04891797823223536,"100":-0.5359001051670161,"101":0.028158018715520663,"102":-0.14312732136820322,"103":0.14776737791697533,"104":-0.015262224134366969,"105":0.25508380179606627,"106":0.16841881266258826,"107":0.06847000370692821,"108":-0.1664698768808842,"109":0.19505291971829705,"110":0.2754999841674131,"111":0.008850206153730581,"112":0.056836605909752834,"113":-0.15265236772480667,"114":0.014068067225964468,"115":-0.2602366627775513,"116":-0.3176750242971214,"117":-0.06696855908605355,"118":0.0777591097855803,"119":-0.3107076306742867,"120":0.00009248441642944958,"121":0.1783211827779302,"122":-0.012972003859128532,"123":-0.24317765143060963,"124":-0.20754836669428023,"125":0.04553074624382388,"126":0.06833430336807032,"127":-0.015459806193209587,"128":0.14496916630011392,"129":0.2297240453494508,"130":-0.004556671328798945,"131":0.0029340361816131907,"132":0.1998048261522546,"133":0.2354329771391585,"134":-0.12743455191836975,"135":-0.18226996541621446,"136":-0.03353880610365728,"137":0.1749700053237606,"138":-0.051456494327438394,"139":-0.009985765975365199,"140":-0.25541928897759764,"141":0.015050328071032706,"142":-0.15237426733514756,"143":0.08700016071577034,"144":-0.12467072407682196,"145":0.05079317262900833,"146":-0.14741698121171726,"147":0.24388685967647836,"148":0.020743537389000928,"149":0.23407683533501314,"150":0.2617140320162965,"151":-0.16834792574326987,"152":-0.13047796292221064,"153":-0.1281623975072602,"154":-0.012818410949897198,"155":-0.05064089076259524,"156":-0.10532507030502937,"157":-0.04336304273568137,"158":0.17633307525585468,"159":-0.2546956881807446,"160":0.25433079247068735,"161":-0.07415301621939048,"162":0.05507592688087159,"163":-0.1962230266168751,"164":0.0667136022266574,"165":-0.2264611221899063,"166":-0.1193239568467725,"167":0.05513409720140077,"168":-0.003959359259566681,"169":-0.1507727856303939,"170":0.17614258703353958,"171":0.027300580279666725,"172":-0.00916604837377794,"173":-0.18020543291491772,"174":-0.032469342927286746,"175":-0.12467999991112372,"176":0.1631840453133929,"177":0.24545053462127056,"178":0.15920682926681975,"179":0.1592388489264613,"180":0.08567250050145361,"181":-0.22168724456030925,"182":0.0732242970312865,"183":0.10091454158456467,"184":0.07704645408014461,"185":-0.0630481083714873,"186":0.01863618001576545,"187":-0.025427743580772162,"188":-0.06009331645486266,"189":0.15440228045772134,"190":-0.03883434073853235,"191":0.0838721854786345,"192":0.13515883197011294,"193":-0.20721668718008132,"194":-0.20467820089689415,"195":0.04904307055698025,"196":0.14763631501883837,"197":0.006607523794510893,"198":0.026274292988465228,"199":0.34154863206866526,"200":0.03836463394359243,"201":-0.04469543998731959,"202":-0.27340143631880326,"203":0.13996197020198345,"204":-0.1023740971809219,"205":0.21583754752819287,"206":0.08994110799295948,"207":-0.07845480376954005,"208":-0.02886462483435767,"209":0.31064231712318074,"210":-0.2861351731180301,"211":0.19338835177868297,"212":0.18948366702169686,"213":0.13079919306285612,"214":-0.03856581955286911,"215":0.10953682711816456,"216":0.07739617504868831,"217":0.17695010192509672,"218":0.0896638869567695,"219":-0.22761660887576157,"220":0.0730005917008233,"221":-0.13265702847118932,"222":-0.01240666236602915,"223":0.12486792693492543,"224":0.020449439494591364,"225":-0.06841066617299593,"226":0.10592472056744869,"227":0.14268942524900508,"228":-0.1794985650617987,"229":-0.19050478243287278,"230":-0.20129794693254863,"231":-0.09003305579290208,"232":-0.12219831508462928,"233":0.009718979985000738,"234":0.02794042783006502,"235":-0.10436695154365362,"236":-0.13281738396872864,"237":-0.30844973944111564,"238":-0.14355411992820444,"239":0.23296109710527368,"240":-0.005841849995404901,"241":0.061345624502669324,"242":0.1059173947385327,"243":-0.002299988574234653,"244":-0.04231606039062245,"245":0.04816839564256408,"246":-0.0493818527157486,"247":0.02885472172454738,"248":-0.0024454129527019834,"249":-0.0492067020937824,"250":0.017170920699898982,"251":-0.39543034709193303,"252":0.008360204085416753,"253":-0.20170699658830263,"254":0.007121433207643441,"255":0.18789765946917272,"256":0.1335761698751369,"257":-0.14742366866317178,"258":-0.027735454978228446,"259":0.03823328155177778,"260":-0.3818324158211722,"261":-0.021725862143227557,"262":-0.07143090260007642,"263":0.14019752244742095,"264":0.31245934559711364,"265":0.024623663433737123,"266":0.25315486568562606,"267":0.08498958089699998,"268":-0.25442117989472113,"269":-0.08288877279902425,"270":-0.2538680712614608,"271":-0.37283048636744154,"272":-0.14591071957619883,"273":-0.05267150517425376,"274":0.09816947036203998,"275":0.2034604177316301,"276":0.1900746401692667,"277":-0.19509251576701245,"278":0.010106536268552027,"279":-0.15958212706344935,"280":0.061758374515996,"281":-0.11782177196424971,"282":0.20035707699301084,"283":0.18460915016730686,"284":0.2782655397677155,"285":0.22590763396718466,"286":-0.27218331366808657,"287":0.29470999375321083,"288":-0.09014148996553785,"289":-0.0966316219886969,"290":0.253912263661091,"291":-0.027211703613140625,"292":-0.040802409413248246,"293":0.13255655753377735,"294":-0.2101174338035981,"295":-0.09051190181081256,"296":0.3569197317466672,"297":0.2082364540231907,"298":-0.008887577140161296,"299":-0.13813620778649538,"300":0.10576226318180776,"301":-0.08402141681824478,"302":-0.012887417477440948,"303":-0.11393066370665854,"304":-0.3079905934361583,"305":-0.16386244334968483,"306":0.1066584977600756,"307":0.07963337111617393,"308":-0.10391860490435828,"309":-0.27679439352515317,"310":-0.043670299260060955,"311":-0.15165402876633852,"312":-0.11637866138920402,"313":0.1838350447589293,"314":0.10545412987469319,"315":0.08559589344460782,"316":0.07559658131684469,"317":0.11914124708837619,"318":-0.22397225111158692,"319":-0.036535468710391344,"320":0.26182827235274514,"321":-0.24832616949660172,"322":0.226887645060322,"323":0.061119883657231984,"324":0.40470720889277734,"325":-0.019217686047469602,"326":-0.016599433119785484,"327":-0.1626220251595733,"328":-0.22812908191802123,"329":0.026990498110772684,"330":-0.30841170920827937,"331":-0.2369815369360918,"332":-0.1511275235486806,"333":-0.3415677988533244,"334":0.07067507193993058,"335":0.20823117042810577,"336":0.13001260577863724,"337":0.1503225498633748,"338":-0.017177849623288024,"339":0.1338018232828778,"340":0.10993643281699216,"341":0.10828356558936919,"342":0.15086632198505517,"343":0.3122460317024531,"344":0.2310518973899205,"345":-0.00827277892000296,"346":0.2124369407732464,"347":-0.09320025544481456,"348":0.0768593425831746,"349":0.18862213315196408,"350":0.2560611747930753,"351":0.13110087007701923,"352":0.27531530002907223,"353":-0.0017628167587195145,"354":0.29417391116044206,"355":0.26916320079514416,"356":-0.1145937095892525,"357":-0.017616817727047252,"358":0.5056239836309935,"359":-0.10089123536426102,"360":-0.32024253713075074,"361":0.1577715488486882,"362":-0.17476972149261716,"363":0.08761238593776077,"364":0.0232826650898159,"365":0.39758311820834863,"366":0.2501014929738091,"367":0.02195806297737746,"368":0.045816725847161684,"369":-0.2666326264158581,"370":-0.31853803997036023,"371":0.01770163416609629,"372":0.023503079931060624,"373":0.14865214515627279,"374":-0.05556494752451891,"375":0.18388677569905032,"376":-0.14206895048519397,"377":0.1571396662612877,"378":0.06604637502108514,"379":-0.1401158325412743,"380":-0.3713994687871198,"381":-0.02218711311572884,"382":-0.2690215967990253,"383":-0.4123422530551487,"384":-0.32283937927825085,"385":-0.4666884134898148,"386":-0.09949721545580646,"387":-0.4087812130649189,"388":-0.29967963670534886,"389":-0.01652168909973023,"390":0.22657797501267896,"391":-0.2023884273342404,"392":-0.5426113152456233,"393":-0.1809894691592512,"394":-0.2863684145011835,"395":-0.2289143842017315,"396":0.016308892970528184,"397":-0.05535845694344335,"398":-0.18222359285063253}},"7":{"bias":0.008135466674720164,"weights":{"0":-0.22896954220666332,"1":0.09632117798954616,"2":0.11979741470756147,"3":-0.29521938333260017,"4":-0.14456265983476102,"5":-0.1775460280715625,"6":-0.004235527033658833,"7":-0.20390731986374488,"8":-0.18964468284854402,"9":-0.08071168045738043,"10":-0.32119715593221154,"11":-0.09084857461376275,"12":0.19549338447757153,"13":0.25848502322546957,"14":0.13029453493767645,"15":0.07154439396926209,"16":-0.11596333983269737,"17":-0.15907747363077532,"18":-0.06311792270626364,"19":-0.04423722630757785,"20":-0.022179612065130402,"21":0.1756119023422172,"22":-0.26613722274675744,"23":-0.10663382328494883,"24":-0.07654698580315825,"25":-0.05985388379756903,"26":-0.308057830066043,"27":0.06536882196923424,"28":0.0326846002662032,"29":0.0982670426866334,"30":0.20748540084696845,"31":0.057595129017560615,"32":0.002342928899895123,"33":0.15328732699602035,"34":0.09400721474957822,"35":0.08628976831855291,"36":-0.039911897483750014,"37":-0.1819615593669678,"38":0.07089124046911668,"39":0.09566191803639403,"40":-0.1362621600853362,"41":0.05089615303142696,"42":-0.16387436515291226,"43":-0.20048427487771212,"44":0.1968358403445496,"45":0.0813129228686083,"46":-0.03168029717222708,"47":-0.20274046546711272,"48":0.07524023211867253,"49":0.09510802997928329,"50":0.1095438057638563,"51":-0.16778656194282443,"52":0.16835255990246642,"53":-0.024675764301341586,"54":-0.06403274000126774,"55":0.2276098858454506,"56":-0.03613912383741315,"57":0.13802245512720385,"58":-0.01802565172610064,"59":0.10703778782350942,"60":-0.22276332227723952,"61":0.25415855923295694,"62":-0.28870363306511626,"63":-0.18638011322767079,"64":-0.10856731304845416,"65":-0.16040415791600485,"66":0.030671632382174446,"67":-0.08585987493584259,"68":-0.12041867006602855,"69":-0.11035838571839317,"70":0.15831634837114417,"71":-0.103038787466719,"72":-0.06062445276117512,"73":0.08187494452999756,"74":0.07243938800125174,"75":0.16670231220495724,"76":-0.04623347243754792,"77":-0.19641974001950244,"78":0.14161735002711168,"79":-0.09787072796044337,"80":-0.19796993172576755,"81":-0.06942530330168996,"82":0.033547366153664,"83":-0.0031662935600975353,"84":-0.19845719401429293,"85":0.10532984458187641,"86":0.05518234733628529,"87":-0.048436475509058344,"88":0.1922448626308177,"89":-0.19853431016806092,"90":-0.006613617947065482,"91":0.18389205010923657,"92":0.04360204360337799,"93":-0.059693433257005935,"94":0.2584036491019857,"95":0.05068429693177264,"96":0.02993687097341057,"97":-0.18394711759900806,"98":-0.17766200703479235,"99":-0.053103096866820305,"100":-0.01596982295399063,"101":-0.09980763967658916,"102":0.14299454239738624,"103":-0.17983938200187635,"104":-0.11387464252195209,"105":-0.12894096073914887,"106":-0.06876753804172309,"107":0.0631660098067695,"108":0.17227135137111185,"109":0.13195348421390674,"110":-0.025152748489647075,"111":0.10207032137309754,"112":0.1605331586150625,"113":0.17105195907135778,"114":0.04101211388294437,"115":0.10821276657690446,"116":0.12566685651700166,"117":0.0043939165688277465,"118":-0.15018639360380287,"119":0.22319044441614774,"120":-0.18228718015851844,"121":0.049227469174422965,"122":0.11313997512833603,"123":-0.006023763488929548,"124":0.03425615626825025,"125":0.07257737550710949,"126":-0.11633219409222717,"127":0.02658430015289681,"128":0.07297158654778198,"129":-0.13685605501177325,"130":0.30231410034008616,"131":0.010974261042146754,"132":0.04280488532227677,"133":0.07751867872872063,"134":0.08719811600014603,"135":-0.0514513877546091,"136":-0.04631269119533109,"137":-0.0998272955166401,"138":0.09816960741526254,"139":-0.13118901989330728,"140":0.05554105454699728,"141":0.08886798023845073,"142":0.1007463450295639,"143":-0.10983397571641862,"144":0.06371524794414488,"145":-0.05640676421751838,"146":0.0698650104716036,"147":0.008495354040899203,"148":-0.057474602560467956,"149":-0.22127921706749903,"150":0.12240111319236509,"151":0.23355672046612314,"152":0.11875927402132729,"153":-0.05280794931773335,"154":-0.11645499314322379,"155":-0.10540173649036517,"156":0.2347930974641477,"157":0.02671390039314171,"158":0.11526590062630558,"159":-0.08256661267192549,"160":-0.014559964638830266,"161":-0.1768353555934489,"162":0.03303207534177307,"163":0.2760466554316644,"164":0.17396048525983573,"165":-0.1312318567740908,"166":-0.19919930870998218,"167":-0.022127404922899923,"168":-0.04870533329461177,"169":0.05805141160348219,"170":0.07067192760519778,"171":0.05305305777459946,"172":0.11783510859965216,"173":0.010998121675474273,"174":-0.15903081842062147,"175":-0.004541017148912627,"176":-0.12533659262282176,"177":-0.09387204126267586,"178":-0.010577581375951408,"179":-0.21723691123526961,"180":-0.2666064888494087,"181":0.12462424707139064,"182":-0.03482930580851383,"183":-0.04396338703375472,"184":-0.052282276023575096,"185":-0.17205907324400443,"186":-0.12054991607853746,"187":0.027487831358200623,"188":0.178843591955264,"189":0.00814302721999979,"190":0.09320060825114554,"191":-0.009893063116797671,"192":0.09070287099820877,"193":0.034106405713553195,"194":0.10339410202760105,"195":-0.16767957374686263,"196":0.09704920169230989,"197":0.1826902962210977,"198":-0.052822198071211565,"199":-0.12389938622421225,"200":-0.047455203153990884,"201":-0.1476677311213915,"202":0.1958568691243182,"203":0.07992489289932123,"204":-0.15299099276298134,"205":0.05197856283202542,"206":-0.0005492261638328857,"207":0.11064199273324436,"208":-0.0001980873576033598,"209":0.09257738559550444,"210":0.33274708732101965,"211":-0.2467583451960797,"212":-0.022579800088748894,"213":-0.13971187034855123,"214":0.10929492666984646,"215":-0.08384611081439522,"216":-0.14506896644976428,"217":0.11005670880024931,"218":0.1775505652695997,"219":0.25853004845559047,"220":-0.15113393192280292,"221":0.13781462617376145,"222":-0.008537806358935772,"223":-0.12358245293394785,"224":0.2152153183103882,"225":0.10215293611183213,"226":-0.20745860861679138,"227":-0.10762360504934602,"228":-0.017578583084140086,"229":0.06018238977366537,"230":-0.13805415708511415,"231":0.15443986423202236,"232":0.13328583057289609,"233":0.06378661709887788,"234":-0.05227680252600583,"235":0.14312230122929853,"236":0.1430240297781836,"237":-0.05807188637229765,"238":-0.006324337797804863,"239":0.009413699659696973,"240":0.009408545680393303,"241":-0.11999208322499269,"242":0.09029692880243445,"243":0.18559866047337265,"244":-0.16190986903517268,"245":-0.19629952189329608,"246":0.13622606843943194,"247":-0.07168667228311806,"248":0.20691267883163114,"249":0.1695670077832463,"250":0.2207176059202797,"251":-0.009456081077275408,"252":-0.02380368404145833,"253":0.1053973238124328,"254":-0.08880621827134996,"255":0.1276561859443754,"256":-0.16152489109263987,"257":0.14496483738990573,"258":-0.05591712384725909,"259":-0.10774910634836915,"260":-0.07809703082529165,"261":0.1725258031489629,"262":-0.16054816991871526,"263":-0.25625132355157076,"264":-0.1706908072415278,"265":0.010611139685641199,"266":-0.12464512249684705,"267":-0.11405020051530608,"268":-0.1289967055789124,"269":0.09435326694747322,"270":0.0888333289232707,"271":0.0835782264892615,"272":0.1343140482069061,"273":-0.05956343775699692,"274":-0.14812077678511987,"275":-0.24050949969052915,"276":0.21003528417650127,"277":-0.03965651947529615,"278":-0.10002190030176555,"279":0.32056984780354164,"280":-0.280356304810603,"281":0.07082435784396587,"282":-0.1488568884457288,"283":-0.17234059441081967,"284":-0.11184370287402905,"285":-0.23930402742930235,"286":0.010063459344049508,"287":-0.19416564598550096,"288":0.03853720102589894,"289":0.08163382534091908,"290":-0.07567115954965437,"291":-0.2560297864660172,"292":-0.02381054362657649,"293":-0.10642603480740731,"294":-0.056328679828293336,"295":-0.15893803262140313,"296":-0.21067761461833737,"297":0.006697690673468697,"298":-0.05443097903273606,"299":0.06379690079823044,"300":-0.09656827426870138,"301":0.11076904195660355,"302":-0.19160678779953594,"303":-0.07129294932781281,"304":0.2179729540069397,"305":-0.23905411433333285,"306":-0.1782603819124983,"307":-0.1419514843546568,"308":-0.04013446941812462,"309":0.01543633434595414,"310":0.1489647955031037,"311":-0.0677468614314679,"312":0.17395345335266782,"313":0.043976733788448255,"314":-0.0473826739435038,"315":0.09762308770043976,"316":-0.23400814571676512,"317":-0.04984938315369534,"318":-0.08566069091100498,"319":0.04767574855875361,"320":0.0008696567783419889,"321":0.01306161059447428,"322":-0.17935233450823618,"323":-0.12239356169567457,"324":-0.03879068098073889,"325":0.10131506644716683,"326":0.06688606550697937,"327":-0.06247913855022871,"328":0.18109591509570813,"329":-0.11154393686060886,"330":-0.1288100884923529,"331":-0.06973337382337542,"332":0.07070363081181806,"333":0.21644615691166613,"334":-0.05315104551065846,"335":-0.16327400604482373,"336":-0.10652280984218992,"337":0.026636831802448697,"338":0.2728865765169468,"339":0.20777492759026553,"340":0.04952523188412203,"341":0.1771711099551962,"342":-0.053010781065395106,"343":-0.07442813055124102,"344":0.15516277633163184,"345":0.044535930061384996,"346":-0.2608899969547617,"347":0.023360098593434117,"348":-0.2269635650418865,"349":-0.13511722865796535,"350":-0.23896774338323953,"351":0.061997990256756154,"352":0.04946942637121791,"353":-0.0028639426812537084,"354":-0.12505338930382492,"355":-0.07657138236170177,"356":0.11299747930037579,"357":0.15087573425484646,"358":-0.29641160947294,"359":0.2551437809741007,"360":-0.09887295806998374,"361":0.06171067519488524,"362":-0.07190858736332927,"363":-0.15759869666783405,"364":-0.043279074872557395,"365":0.05816965460853805,"366":-0.2523254194750778,"367":0.11785644289240958,"368":-0.1273060903530424,"369":0.02364762288884014,"370":0.2313376932563571,"371":-0.04991092687445038,"372":-0.12182729448466742,"373":0.08849645538525538,"374":-0.03366120255157318,"375":-0.2085451220366832,"376":0.0546025562874299,"377":-0.13713955989282614,"378":0.07744713601018956,"379":0.057943977971516805,"380":0.06692917310980737,"381":-0.2919764994734208,"382":0.03438845705756171,"383":-0.12140877467207192,"384":0.13463914492567197,"385":0.2322781973896246,"386":-0.1184421228035248,"387":0.11026390301776484,"388":-0.05669245537671518,"389":-0.2333438174942932,"390":-0.08053293748452398,"391":-0.2356738451284215,"392":-0.029626323070539813,"393":0.09898290738010598,"394":-0.0894686193875983,"395":-0.02325736883408888,"396":0.11480012616101812,"397":-0.04188312200491119,"398":-0.22280835893005882}},"8":{"bias":-0.2684420711961034,"weights":{"0":0.2187875652241991,"1":-0.13226749235761068,"2":0.08115074707316933,"3":0.11825263121036098,"4":0.17247181099056041,"5":-0.14396689526711218,"6":0.06443823620855524,"7":-0.043347763951854135,"8":0.21102473564429144,"9":-0.02073639802659515,"10":-0.11700063353246244,"11":0.11303282896809007,"12":-0.14678860692674373,"13":-0.1953282714640129,"14":-0.16759290350260514,"15":0.1575540338492615,"16":-0.029289413859264705,"17":0.17824422432762105,"18":-0.11753677251298797,"19":0.10054263465442584,"20":-0.08795808343764233,"21":-0.00889334548171068,"22":0.2871597452520949,"23":-0.060548837660934544,"24":0.06466709089551936,"25":0.07218128657614141,"26":0.03334312475538225,"27":-0.05621383852285442,"28":-0.025843286680079857,"29":-0.3205528120536684,"30":-0.2081503362134257,"31":0.24537705876332394,"32":-0.15879791053858378,"33":0.09780143209266523,"34":0.20898049741671323,"35":0.178281398865858,"36":0.04088862625286221,"37":-0.05807536352295983,"38":0.15142195300417036,"39":0.044377387600944666,"40":-0.07081802136381596,"41":0.04642562603337958,"42":0.06641763200583593,"43":0.12473377181864673,"44":-0.06242734983234677,"45":0.06954371732307843,"46":-0.05106671279728514,"47":0.15571434430497694,"48":0.007398075054682029,"49":-0.10962557623418775,"50":0.12221015697919259,"51":0.23143332818245357,"52":0.17263474021107586,"53":-0.1110084273302363,"54":0.13357650818216002,"55":0.026005112440692226,"56":0.1426866258287141,"57":-0.23317430621637905,"58":-0.2051662294237151,"59":-0.005819737688144227,"60":0.05383540371162318,"61":-0.022865610951014574,"62":-0.1842131044910547,"63":0.03954596755449905,"64":0.06436483039627224,"65":0.03630421621044241,"66":-0.16074671232373677,"67":-0.14151354954585665,"68":-0.06762751557887431,"69":0.00867355928171267,"70":-0.1867969447699027,"71":0.3946674842268662,"72":0.17975018007930194,"73":0.015504672200644781,"74":-0.11389599630339473,"75":-0.06153806344020201,"76":-0.2075338161425825,"77":-0.06844382771510689,"78":0.10487917092160473,"79":-0.05328818084820842,"80":-0.19289347591284273,"81":-0.04728328521484761,"82":0.07204184802812019,"83":0.00923512635484585,"84":0.05190604068954482,"85":-0.033281146074906204,"86":-0.11090169553610105,"87":-0.05732299411896136,"88":0.13720372382432,"89":-0.0743710855298399,"90":0.06300079094895812,"91":-0.009294128610877235,"92":0.1089649909253794,"93":0.08581858868997977,"94":0.074057297335733,"95":0.0744814267465548,"96":-0.06193226613841979,"97":-0.02674962197751544,"98":0.17526330566053283,"99":0.12320958371127061,"100":-0.06661797295328209,"101":-0.07252226459620016,"102":0.10012697198238926,"103":0.06642320475032046,"104":0.06664599819563126,"105":0.18239304816771154,"106":0.21831971100811537,"107":0.0026454088809652813,"108":0.20643745243683945,"109":0.025703049362709385,"110":0.017344629273793776,"111":0.1926261329440343,"112":0.10136576425409105,"113":0.12566357340156833,"114":-0.183118109325476,"115":-0.15807430089748287,"116":0.15795740307884656,"117":0.13453483608654723,"118":-0.07619778586046648,"119":0.22195105387768876,"120":-0.1040660173532644,"121":-0.03028832082302033,"122":-0.06760612761135877,"123":-0.14457793488576348,"124":-0.07917548338015425,"125":-0.19941800943517024,"126":0.06736157490839732,"127":0.11557253617904382,"128":-0.06252792193770727,"129":-0.08272947306370836,"130":0.13578804350296417,"131":0.07041875953513452,"132":-0.05272900172212979,"133":0.014759004241584252,"134":0.03078608827446006,"135":-0.144101970258489,"136":-0.1214714851826685,"137":-0.14589437808546465,"138":0.16765818979013392,"139":0.058364256316208854,"140":0.12709794612994552,"141":-0.017233439025828894,"142":0.027342981810971785,"143":-0.20275705296981333,"144":0.06812078095043012,"145":0.12486358695194105,"146":0.016609772360432873,"147":0.08224446448056982,"148":-0.08824188330139529,"149":0.024716754039725144,"150":-0.017037261985750663,"151":-0.13010472270377965,"152":-0.01134399539494266,"153":0.1489637304985966,"154":0.03772165165736087,"155":-0.20733309103802988,"156":-0.006503723047369633,"157":-0.15212967534940416,"158":-0.116656415270887,"159":0.040958668933085765,"160":0.0112123437318928,"161":-0.04216069376368078,"162":-0.053897674860160255,"163":0.01835650705177042,"164":0.23449591724748736,"165":0.1515217688693025,"166":0.0520026061340804,"167":-0.04549348458680666,"168":-0.08425713413927438,"169":-0.06843964426370697,"170":-0.09789702601627412,"171":0.12918943501626182,"172":0.03148559393432936,"173":0.0818678341472123,"174":-0.06472745829103516,"175":0.03461413807695168,"176":-0.06150726726486623,"177":0.13090414651242002,"178":0.12149731620228485,"179":0.1914632588624043,"180":0.154452408994945,"181":-0.04992914924208902,"182":0.12719504782046473,"183":0.20435541545552868,"184":-0.0795844325032531,"185":0.03907464680652297,"186":0.18306694066246512,"187":0.06733657701322353,"188":-0.14825262930575275,"189":-0.10379223348175104,"190":-0.13251256577286658,"191":0.1641856515329633,"192":0.03240004063218114,"193":-0.12099495744828737,"194":-0.16835227432212016,"195":-0.21374602062147818,"196":-0.06632857711971007,"197":-0.039391239152296614,"198":-0.13386056374373287,"199":0.19946493507570678,"200":-0.13173339982766308,"201":-0.1924167406711733,"202":0.12396822631025319,"203":0.09030140308290185,"204":0.05287433997103016,"205":-0.13475439617740062,"206":0.16817719519662094,"207":-0.07299579095038909,"208":-0.08164273663157517,"209":-0.05296378092238006,"210":0.10852580354368621,"211":-0.13680824864271166,"212":-0.11404030434776372,"213":-0.02935866500534413,"214":0.2178787111544586,"215":0.03953154489700341,"216":-0.16742899586872637,"217":0.1203076551721897,"218":0.030570379292861865,"219":-0.05014983744843154,"220":0.05635595823297526,"221":0.24458943603894606,"222":0.2056351754473636,"223":0.03024928117642298,"224":-0.1306773020436012,"225":-0.05529019721609595,"226":0.18915429716550322,"227":0.24858994497627507,"228":-0.04528895347902358,"229":-0.19010179338224023,"230":0.16673259580183009,"231":-0.026104909964391798,"232":0.19106427584600902,"233":0.028716976459407198,"234":-0.16589827119173925,"235":-0.11768348079507165,"236":0.12274012999065187,"237":0.16219699883771335,"238":-0.15771627605655494,"239":0.08161410541868239,"240":0.11035825255328703,"241":0.21544309135795894,"242":0.02309310337141431,"243":0.21750675862872057,"244":0.13652202207229017,"245":0.04105057248197676,"246":0.2409861666195565,"247":-0.21668457053731233,"248":0.18570684229959777,"249":-0.17638341428598728,"250":-0.18234269821235202,"251":-0.019159176720542095,"252":-0.09776401252555775,"253":-0.015657354654244657,"254":-0.04564213810326482,"255":-0.09128568029447161,"256":0.20563062322854456,"257":-0.13747344326792085,"258":-0.014241219890152175,"259":-0.09079916530627229,"260":0.11437149613599971,"261":0.05337532772503741,"262":0.01220197416119704,"263":-0.1140895091244544,"264":0.10401501938522685,"265":0.12095732346053542,"266":-0.10688904738183329,"267":0.019805964595857792,"268":0.18589343268743486,"269":0.017320781099908117,"270":0.1308890758937332,"271":-0.16565727087462276,"272":0.12972936373704358,"273":0.019515077736807388,"274":-0.22610629387133452,"275":0.1543943443500553,"276":-0.2807599489038072,"277":-0.09236049682983213,"278":0.11067286544107612,"279":0.09140779683680568,"280":0.10488576063481063,"281":0.09564671365270916,"282":-0.09210687261720113,"283":-0.10355945370251098,"284":0.12571389573872507,"285":0.12051022486082437,"286":-0.03465049949442978,"287":-0.1390690369171826,"288":-0.030001038956105827,"289":0.06335813376344826,"290":0.15687559357453626,"291":-0.019297416313685593,"292":0.05781201041940293,"293":0.16994730868054855,"294":-0.07399751373730376,"295":0.05052606758974553,"296":0.1224402368155314,"297":0.09870806002541259,"298":-0.1444201539676692,"299":0.24589893123568182,"300":0.04633238238343816,"301":-0.019700115168013076,"302":0.06386932226805839,"303":-0.18054061542940084,"304":-0.016672540728484963,"305":-0.1316372030615886,"306":-0.1586160430713405,"307":-0.1592840753244081,"308":0.09786672619925364,"309":-0.01479873823342661,"310":-0.14603324125629863,"311":0.13732862853596975,"312":-0.02741366263373319,"313":0.028890099576406775,"314":-0.07339745911043069,"315":-0.12458370988771257,"316":-0.14784999264885937,"317":-0.20227159478727397,"318":-0.08807083064786886,"319":-0.1734471904775104,"320":0.11283005731904094,"321":-0.19165539559294667,"322":-0.06769731294598418,"323":-0.09624476410810906,"324":0.10529276531043764,"325":-0.04793783050727504,"326":0.15558239059116843,"327":-0.056090282356027164,"328":-0.09243490664586308,"329":-0.20095456445202578,"330":0.12333345995473084,"331":-0.16398660771167664,"332":0.05234963965392931,"333":-0.13691576435275765,"334":0.056897313915053906,"335":0.09012119964575573,"336":-0.07504217947471223,"337":-0.27314338893347495,"338":0.07685028675908852,"339":-0.2732284328761828,"340":-0.12482774645720958,"341":-0.15981797184412985,"342":-0.021517091436954267,"343":0.13854120544668658,"344":-0.1398142874825947,"345":0.21326006822216279,"346":0.04241868610857288,"347":-0.061393202305137715,"348":0.15245350726712575,"349":-0.02491760013201001,"350":0.2721197576272362,"351":0.2471349562836649,"352":-0.09655824851472058,"353":0.03401727573951235,"354":0.07245777696364362,"355":-0.09202636780025791,"356":-0.03138122738326514,"357":-0.10806615808171863,"358":-0.21743166021530969,"359":0.0822199383797975,"360":-0.040489677825035646,"361":-0.0431305299537146,"362":-0.1437224096775982,"363":0.18144369137252273,"364":0.23584673904609185,"365":0.2565497360035103,"366":0.00983566683094632,"367":-0.07966681149671134,"368":-0.16542574194680382,"369":-0.06338696227378564,"370":-0.27663292181224053,"371":0.14687574404940185,"372":-0.020366067725062817,"373":-0.07964421465612284,"374":-0.08762592068422584,"375":0.19917059254827335,"376":0.05268144126632309,"377":0.24063789360519058,"378":0.15155094871998712,"379":0.22870698375719117,"380":0.15226365274720863,"381":0.007420132548413534,"382":0.20516715891251866,"383":-0.03995357517097204,"384":-0.1618864735843802,"385":0.2735655315036226,"386":-0.09135983892287286,"387":-0.1631126018746308,"388":-0.07873400654514731,"389":0.10865233345457294,"390":-0.05223558925094622,"391":0.28070678678153993,"392":-0.06447232806162234,"393":0.09060004885254523,"394":-0.17980010134728713,"395":-0.19244653762024386,"396":-0.253059563052313,"397":0.15149609326060895,"398":0.33157984142316504}},"9":{"bias":-0.1662293549164002,"weights":{"0":-0.09535117721234548,"1":0.13836099145014755,"2":0.0704740869261873,"3":-0.048373549182257135,"4":0.20302275532591485,"5":0.13924964406902038,"6":0.041833046184738806,"7":-0.22313373825640592,"8":-0.11217690106337667,"9":-0.01575133064832679,"10":-0.17003905061273977,"11":-0.11635439010117009,"12":-0.13388738864428135,"13":-0.013111901884613452,"14":-0.030086278119827045,"15":0.08793594916187196,"16":-0.16397283330427959,"17":-0.21628734854217604,"18":0.08984025864930813,"19":-0.14507710116893044,"20":-0.1948103951884206,"21":0.02487162077070286,"22":-0.11288589016730069,"23":0.18253349593496604,"24":-0.07897143505286554,"25":-0.11034756057904271,"26":0.06200651374167339,"27":0.20608229602957356,"28":0.10923140002928053,"29":0.09426739233642213,"30":-0.16846004050274369,"31":-0.0432535335253173,"32":-0.06851585804653294,"33":-0.07037986102248145,"34":-0.19668856669142507,"35":0.17465770432955458,"36":0.1357607624498152,"37":0.2390942758248989,"38":-0.043237782353266876,"39":-0.11758869948866983,"40":0.0001584962876568284,"41":-0.29831285885773867,"42":-0.23187715155206257,"43":-0.09191350543751454,"44":-0.0018876711113980462,"45":-0.021791224575699576,"46":0.07256409792130619,"47":0.037725970048089405,"48":-0.09594060321207229,"49":-0.03902302318031591,"50":0.056122652889186046,"51":-0.14743391680295104,"52":-0.07528309161816574,"53":0.18722941834999,"54":0.15364805106191087,"55":-0.01591589302150259,"56":-0.051703596087037305,"57":0.16217101713834275,"58":-0.3390218654441981,"59":-0.060655319953959265,"60":-0.15392423392239937,"61":-0.15384295159904968,"62":0.06418134930915285,"63":0.11588401173301406,"64":-0.015092363723320696,"65":-0.08450122125171265,"66":0.1185776818378212,"67":0.1736637965347817,"68":-0.03194792572821824,"69":-0.027231001783202848,"70":0.14792538426686394,"71":-0.212144793284206,"72":0.22103980157153047,"73":0.1405977573153618,"74":-0.03137482208940673,"75":-0.023195362178522635,"76":0.11401619169347678,"77":0.05679957106352049,"78":-0.1592479653885646,"79":-0.12452642938696075,