{"layers":[{"0":{},"1":{},"2":{},"3":{},"4":{},"5":{},"6":{},"7":{},"8":{},"9":{},"10":{},"11":{},"12":{},"13":{},"14":{},"15":{},"16":{},"17":{},"18":{},"19":{},"20":{},"21":{},"22":{},"23":{},"24":{},"25":{},"26":{},"27":{},"28":{},"29":{},"30":{},"31":{},"32":{},"33":{},"34":{},"35":{},"36":{},"37":{},"38":{},"39":{},"40":{},"41":{},"42":{},"43":{},"44":{},"45":{},"46":{},"47":{},"48":{},"49":{},"50":{},"51":{},"52":{},"53":{},"54":{},"55":{},"56":{},"57":{},"58":{},"59":{},"60":{},"61":{},"62":{},"63":{},"64":{},"65":{},"66":{},"67":{},"68":{},"69":{},"70":{},"71":{},"72":{},"73":{},"74":{},"75":{},"76":{},"77":{},"78":{},"79":{},"80":{},"81":{},"82":{},"83":{},"84":{},"85":{},"86":{},"87":{},"88":{},"89":{},"90":{},"91":{},"92":{},"93":{},"94":{},"95":{},"96":{},"97":{},"98":{},"99":{},"100":{},"101":{},"102":{},"103":{},"104":{},"105":{},"106":{},"107":{},"108":{},"109":{},"110":{},"111":{},"112":{},"113":{},"114":{},"115":{},"116":{},"117":{},"118":{},"119":{},"120":{},"121":{},"122":{},"123":{},"124":{},"125":{},"126":{},"127":{},"128":{},"129":{},"130":{},"131":{},"132":{},"133":{},"134":{},"135":{},"136":{},"137":{},"138":{},"139":{},"140":{},"141":{},"142":{},"143":{},"144":{},"145":{},"146":{},"147":{},"148":{},"149":{},"150":{},"151":{},"152":{},"153":{},"154":{},"155":{},"156":{},"157":{},"158":{},"159":{},"160":{},"161":{},"162":{},"163":{},"164":{},"165":{},"166":{},"167":{},"168":{},"169":{},"170":{},"171":{},"172":{},"173":{},"174":{},"175":{},"176":{},"177":{},"178":{},"179":{},"180":{},"181":{},"182":{},"183":{},"184":{},"185":{},"186":{},"187":{},"188":{},"189":{},"190":{},"191":{},"192":{},"193":{},"194":{},"195":{},"196":{},"197":{},"198":{},"199":{},"200":{},"201":{},"202":{},"203":{},"204":{},"205":{},"206":{},"207":{},"208":{},"209":{},"210":{},"211":{},"212":{},"213":{},"214":{},"215":{},"216":{},"217":{},"218":{},"219":{},"220":{},"221":{},"222":{},"223":{},"224":{},"225":{},"226":{},"227":{},"228":{},"229":{},"230":{},"231":{},"232":{},"233":{},"234":{},"235":{},"236":{},"237":{},"238":{},"239":{},"240":{},"241":{},"242":{},"243":{},"244":{},"245":{},"246":{},"247":{},"248":{},"249":{},"250":{},"251":{},"252":{},"253":{},"254":{},"255":{},"256":{},"257":{},"258":{},"259":{},"260":{},"261":{},"262":{},"263":{},"264":{},"265":{},"266":{},"267":{},"268":{},"269":{},"270":{},"271":{},"272":{},"273":{},"274":{},"275":{},"276":{},"277":{},"278":{},"279":{},"280":{},"281":{},"282":{},"283":{},"284":{},"285":{},"286":{},"287":{},"288":{},"289":{},"290":{},"291":{},"292":{},"293":{},"294":{},"295":{},"296":{},"297":{},"298":{},"299":{},"300":{},"301":{},"302":{},"303":{},"304":{},"305":{},"306":{},"307":{},"308":{},"309":{},"310":{},"311":{},"312":{},"313":{},"314":{},"315":{},"316":{},"317":{},"318":{},"319":{},"320":{},"321":{},"322":{},"323":{},"324":{},"325":{},"326":{},"327":{},"328":{},"329":{},"330":{},"331":{},"332":{},"333":{},"334":{},"335":{},"336":{},"337":{},"338":{},"339":{},"340":{},"341":{},"342":{},"343":{},"344":{},"345":{},"346":{},"347":{},"348":{},"349":{},"350":{},"351":{},"352":{},"353":{},"354":{},"355":{},"356":{},"357":{},"358":{},"359":{},"360":{},"361":{},"362":{},"363":{},"364":{},"365":{},"366":{},"367":{},"368":{},"369":{},"370":{},"371":{},"372":{},"373":{},"374":{},"375":{},"376":{},"377":{},"378":{},"379":{},"380":{},"381":{},"382":{},"383":{},"384":{},"385":{},"386":{},"387":{},"388":{},"389":{},"390":{},"391":{},"392":{},"393":{},"394":{},"395":{},"396":{},"397":{},"398":{}},{"0":{"bias":-0.07568434724403159,"weights":{"0":-0.14107264132999583,"1":-0.09610156977283715,"2":0.06082056660024891,"3":-0.07129115455736297,"4":-0.16414073942871377,"5":-0.15341818486290548,"6":0.013190818886482776,"7":-0.1346860074003293,"8":0.10069777035460487,"9":0.17111637550541345,"10":0.23303125257864746,"11":-0.042022208439433266,"12":0.25811686718456783,"13":0.04487313750098748,"14":0.029438528195727412,"15":0.06748745037108189,"16":0.10287831865934774,"17":-0.03656168522978582,"18":0.07159116477477051,"19":-0.332404555932118,"20":0.0962678861339168,"21":0.0892453081198142,"22":0.08650455772771315,"23":-0.01210852264793544,"24":-0.0530911164693206,"25":-0.19468303045466617,"26":-0.12569700981783546,"27":-0.09090398124042778,"28":0.20550316384349254,"29":0.024827363855632504,"30":-0.2322614562247678,"31":0.05464398949848548,"32":-0.13273689670905864,"33":-0.13940547541504705,"34":-0.20875582114045232,"35":-0.08254349225019796,"36":0.07431910691496546,"37":0.12559878203225822,"38":-0.02679848694535865,"39":0.2594337540037859,"40":0.08976847960866335,"41":0.028274138104816705,"42":0.11690765445262129,"43":-0.16775077104553957,"44":0.042017017814843016,"45":-0.07305768887095178,"46":-0.025362389730024724,"47":-0.1099057267736826,"48":-0.13946036686289026,"49":0.1084931416803354,"50":0.05078013247714823,"51":0.08766555029141078,"52":-0.01628842093455427,"53":0.17891642624453608,"54":0.16200179141702437,"55":0.06098902762669394,"56":-0.17445015277530057,"57":0.03813805474912247,"58":0.012096663390865136,"59":0.0628712244190953,"60":0.01669733692709745,"61":0.24486550188575812,"62":-0.023695429185857528,"63":0.1465107289425021,"64":-0.25517108830828455,"65":0.08960897861451662,"66":0.0856447879599659,"67":0.21564193815721938,"68":0.07470102810051167,"69":-0.15735079635034582,"70":-0.012226001290503333,"71":-0.06680910745457373,"72":0.039905489790645246,"73":0.030302146802104354,"74":0.05784733513497141,"75":-0.220460908543711,"76":-0.062331174644572294,"77":-0.0019831046072079596,"78":-0.028642152136053745,"79":-0.23756418603328774,"80":-0.20556755613930383,"81":0.14170141640948905,"82":0.18642897068607328,"83":-0.09542039227447328,"84":-0.1318348169559644,"85":-0.10673894533710648,"86":0.04529471645773789,"87":-0.022507561131497784,"88":-0.13645030226530794,"89":-0.20899456017775728,"90":-0.08279619235256702,"91":-0.0785916012148976,"92":-0.05879737322657654,"93":-0.1454612807843077,"94":0.22662353082660708,"95":-0.12814832438984022,"96":-0.01726265578582459,"97":0.02851542574509174,"98":0.16216933556364277,"99":-0.15661398444744964,"100":0.13096579776549722,"101":0.13316791746215648,"102":-0.14761353398440513,"103":0.00272517538366918,"104":0.014284562030625583,"105":-0.2934734315220647,"106":0.2275243115354556,"107":-0.14709910070028012,"108":-0.10007675283291752,"109":-0.034384750460516374,"110":0.030841746773208664,"111":-0.27420574649548485,"112":-0.02102510628103687,"113":-0.053086566001287215,"114":-0.043621788150627894,"115":-0.08871577646518015,"116":-0.045402321547037626,"117":-0.24260736085145843,"118":-0.13146160875032786,"119":0.04081783854809492,"120":0.10172191058235504,"121":0.09444044401402797,"122":0.12204422697679505,"123":-0.0963716439061875,"124":0.12066702166802037,"125":0.20256980368775943,"126":0.021149101401838063,"127":-0.23310888610537114,"128":0.0501706430099419,"129":-0.11225159260308189,"130":0.05006442438613619,"131":0.06346820956890015,"132":-0.15734198627840135,"133":-0.14981638020579527,"134":-0.09204529660806889,"135":-0.23269133748397136,"136":0.2061316243052711,"137":0.10502215295140233,"138":0.04040519435176431,"139":0.10720363717190284,"140":-0.16942242874344493,"141":-0.014604523426496702,"142":-0.12008716268949556,"143":-0.06692027686080673,"144":0.09419424072215253,"145":-0.15694851697300274,"146":0.18574566090015476,"147":0.08779260144806746,"148":0.15135891941819807,"149":-0.004897181565580127,"150":-0.04615731137911349,"151":-0.15042990840602116,"152":0.01574127229921878,"153":-0.10490304329069203,"154":-0.057339035571154995,"155":0.010802320357127592,"156":-0.22812663370258185,"157":-0.07065458150094521,"158":0.06516876219271618,"159":0.16662541138942538,"160":-0.21802623931258963,"161":-0.16047823814746193,"162":0.17676352850137333,"163":0.10757887839286022,"164":0.19605827334978682,"165":-0.09125028225486523,"166":0.1822738477700925,"167":-0.06737571629781686,"168":-0.1778379055958646,"169":0.013564689370596862,"170":0.16324023066305243,"171":0.05214016000852288,"172":0.08812777414879139,"173":0.09699168349386189,"174":0.14258315285253692,"175":0.1836861001379512,"176":0.14029785607412415,"177":-0.180736327335351,"178":-0.16541254580484824,"179":-0.2873055946948921,"180":0.059380900434662785,"181":-0.0946568016300251,"182":0.13958525032562522,"183":0.07865949018626514,"184":0.08826298668639976,"185":0.16774776096702304,"186":-0.024991366635067847,"187":0.09662151784577397,"188":0.09927281898661053,"189":-0.02602397954087703,"190":0.19587732566617017,"191":-0.03133287164941586,"192":0.012866414907553192,"193":0.14302045325018978,"194":-0.07925133410262106,"195":0.062261259885945816,"196":-0.2475492375432182,"197":-0.20606061195210776,"198":-0.1071167111559019,"199":0.031490636005454986,"200":0.08825446222976252,"201":0.17171567166202817,"202":0.023442742034463962,"203":0.047174699997179895,"204":0.07478190832393544,"205":-0.1724183145846348,"206":0.01855110011157614,"207":-0.19034549823568966,"208":0.09962165598879003,"209":-0.08365154685133055,"210":0.1623644525894619,"211":-0.01670609158463987,"212":-0.1629744209570603,"213":0.13295746483812176,"214":0.021172099952671622,"215":-0.017498189475417963,"216":-0.166355644266174,"217":-0.12654843582650388,"218":0.1573046806417131,"219":0.24396896227494638,"220":-0.06121264656898478,"221":0.23743855671359762,"222":0.19171443898013932,"223":-0.21107198515489026,"224":0.09741456786352022,"225":-0.13468250443181162,"226":-0.07749671741780509,"227":-0.01654882705296904,"228":-0.2059778427984036,"229":-0.16889858049788523,"230":-0.06581909555284496,"231":0.09228692852242103,"232":-0.2317174164857428,"233":0.007045676609320575,"234":-0.05711027387747859,"235":0.050580818664084023,"236":-0.15299219772485315,"237":-0.08315205012067506,"238":0.2397894458227133,"239":-0.24207166770770897,"240":0.17675790657756932,"241":-0.06258908492461013,"242":-0.00912349663216795,"243":0.129945549096342,"244":0.19202615450743374,"245":0.15793936060181377,"246":-0.020009076588820954,"247":0.07176965276023596,"248":-0.0038846903600101893,"249":-0.12691844153793846,"250":-0.15457225200145225,"251":-0.13304895466193598,"252":0.10580435839486005,"253":-0.1459375647441904,"254":0.004374293953583908,"255":-0.19254034235810202,"256":0.01961833604501856,"257":-0.09790202950429526,"258":0.023013321917793896,"259":-0.04446053770841233,"260":-0.027312459025736452,"261":-0.026661342144086563,"262":0.26739518851450844,"263":0.1772078157509488,"264":0.0888952399101695,"265":-0.002523147641530814,"266":-0.06548334437168868,"267":0.16935416613627488,"268":-0.1525255303947661,"269":0.09595619445476004,"270":0.13494856956715137,"271":-0.12281706106694332,"272":0.08151225289586596,"273":0.04108671166850555,"274":-0.09130462233545726,"275":0.08480325711360023,"276":-0.019733371793304623,"277":0.23575082794149196,"278":0.057544611464364556,"279":-0.033622393302030366,"280":-0.1470702855946678,"281":-0.10369842102348405,"282":-0.19986944122870381,"283":-0.10414065118996825,"284":0.06358574946018014,"285":0.087933123532897,"286":-0.1110172270168951,"287":0.01409680484991198,"288":0.15741846912564803,"289":-0.14116613040625314,"290":0.13460151367301876,"291":-0.029407954826182765,"292":-0.06952211614277234,"293":0.2117270094133848,"294":0.036318705413177374,"295":0.18115457572559152,"296":-0.07543559195924919,"297":-0.1519693424415682,"298":0.31656100019223066,"299":0.21186813522998785,"300":-0.02831493773536855,"301":0.30228187967562203,"302":0.010073816656281692,"303":0.17442968177506973,"304":0.19677510598618503,"305":-0.18004548086164712,"306":-0.11092439193776368,"307":-0.03898328166710689,"308":-0.03009307323292738,"309":-0.19736480817340535,"310":0.1375969626620323,"311":0.044926888641278244,"312":0.07522245066025628,"313":0.13195857577176098,"314":-0.09162121894590229,"315":0.016139218970261493,"316":-0.15439792513199063,"317":0.033020528319121195,"318":0.29161720943096936,"319":-0.17832930128056174,"320":0.08007498378113118,"321":-0.055517033077906265,"322":0.2839664451229249,"323":-0.016932474275063687,"324":-0.050915475307135735,"325":-0.23661161092594393,"326":-0.1470362899183032,"327":-0.0033710584276250037,"328":0.11426652033385645,"329":0.16579039516340152,"330":0.10486083037657945,"331":-0.06244360060410249,"332":0.1904355058279402,"333":-0.12449090371396485,"334":0.2115067618326865,"335":-0.013967982736633388,"336":-0.048941867184616156,"337":0.12511962720248349,"338":0.2182639725774742,"339":0.004160308772326014,"340":-0.3274984016846507,"341":0.22386840945609507,"342":-0.06437229459864291,"343":0.07709707275833735,"344":0.0436131507980069,"345":-0.16196046753587806,"346":-0.01697466871824956,"347":0.045095024579343175,"348":-0.13810715134888782,"349":-0.08573538824611102,"350":-0.2755854108201375,"351":-0.2026234564562375,"352":-0.32366064987402604,"353":-0.2962041701949189,"354":-0.4271015131420478,"355":0.197422270222285,"356":0.229218636888124,"357":0.05797016739642828,"358":-0.27825093347842705,"359":0.13223836353186963,"360":0.3022101648437256,"361":-0.17801235569835522,"362":0.37350178579605736,"363":-0.0031432603548218986,"364":-0.09276089336418095,"365":-0.38222050813109093,"366":0.05580236444142441,"367":-0.05108876505856334,"368":-0.2121537648334006,"369":0.21886691607130707,"370":0.3577350286829236,"371":-0.20898953177331409,"372":-0.06560801072767547,"373":-0.16699786054361726,"374":0.1406274575492432,"375":-0.06958941157426869,"376":0.09121385936106967,"377":-0.1615676202073605,"378":0.08547764671306134,"379":-0.027102041851404298,"380":0.15429771416634594,"381":-0.10004804654129355,"382":-0.16013064907491886,"383":-0.06218508830654738,"384":-0.023580713716212554,"385":0.03959916617632896,"386":-0.03612187789937397,"387":-0.11466608872826406,"388":0.046942280426519704,"389":-0.1167848419328346,"390":-0.18141995655826168,"391":-0.22563554238210096,"392":0.2796444916631723,"393":-0.10791672516490848,"394":-0.06397314841739343,"395":0.114922409511552,"396":0.014775068037529544,"397":-0.0039467484051680084,"398":-0.1376217009523619}},"1":{"bias":-0.050957983840864154,"weights":{"0":0.08995023070220201,"1":0.027479353113272494,"2":0.06773872677464217,"3":-0.16496343438337474,"4":-0.036356342955507694,"5":-0.07057609233432478,"6":0.031798284529212094,"7":-0.09014738578671978,"8":0.25369556104467145,"9":0.20493778499401905,"10":0.10778274052905128,"11":0.15162442278084146,"12":-0.0036773251633294727,"13":0.04953068926729427,"14":0.02513278742835738,"15":-0.13117263163334808,"16":-0.000651003794542467,"17":0.02630316516795463,"18":-0.024409014983622464,"19":-0.24353807434094263,"20":-0.028701319883759506,"21":-0.11187979233330547,"22":0.0364031767261103,"23":-0.2179527609073246,"24":0.03772837920643035,"25":0.038838441832223826,"26":-0.027522680999872772,"27":0.07168187438193113,"28":-0.1255621685426133,"29":0.04142248827015397,"30":0.14011332957718842,"31":-0.04423726260686541,"32":-0.15847564292581862,"33":-0.011205520086596595,"34":-0.18694666509229052,"35":-0.17340292235560592,"36":-0.09043720654457044,"37":-0.07681463382165808,"38":-0.12316446505996302,"39":0.2960575506083201,"40":-0.1195259534948241,"41":0.1801294894085536,"42":-0.17633957389315155,"43":-0.10132984144628811,"44":-0.06873551137014687,"45":0.0904342402795306,"46":-0.19658557968032284,"47":-0.1628265426284271,"48":0.06272164080155879,"49":-0.1583255052215533,"50":0.02804875889246985,"51":-0.11909944676862153,"52":0.1540086325932689,"53":0.10445162709933231,"54":0.027976292719372256,"55":0.10504488343507877,"56":-0.010578771059724039,"57":0.1883724646903867,"58":0.03243230292858323,"59":-0.1357844629296742,"60":0.08797124673598494,"61":0.21228668572360965,"62":0.11318538041689374,"63":0.013203160684348894,"64":0.09009559802027968,"65":-0.18475866799812873,"66":0.2161585265718698,"67":0.05319754951300957,"68":0.06272996020304282,"69":-0.09320548882488157,"70":-0.12424614523412657,"71":0.09103419593694459,"72":-0.1286811914649958,"73":-0.00715593253931877,"74":-0.061322392189725135,"75":0.06665501311187642,"76":-0.2521139478162061,"77":-0.07911627627607645,"78":-0.07539938370197767,"79":0.14226431738886344,"80":0.08786784272703588,"81":-0.21035221137522464,"82":0.01578887520125884,"83":-0.24423671471443303,"84":0.14583538463593576,"85":-0.06070548158570393,"86":-0.03491167288168757,"87":-0.12929218915836618,"88":0.06850370122333484,"89":-0.21948388452629006,"90":0.01507549593369069,"91":0.19052528583994643,"92":0.026920821438045184,"93":-0.03492851106919077,"94":0.13987854965092358,"95":0.18692711473760903,"96":-0.23613593123587195,"97":0.19246953752454732,"98":0.1415587602667924,"99":-0.14074601466796946,"100":-0.16924249860729654,"101":-0.19958040535656751,"102":-0.16490766528384254,"103":-0.1090213501305334,"104":-0.14286030977298858,"105":-0.0201956275483946,"106":-0.1568099956099135,"107":0.1437730322516353,"108":0.022504059953154607,"109":-0.017430002276950244,"110":-0.08687461047028229,"111":-0.1103674843089254,"112":-0.0862986206284697,"113":0.15816337134619288,"114":-0.036652247104833134,"115":-0.11617733812718084,"116":0.23237857197618178,"117":-0.12246467585981193,"118":-0.050860998690639314,"119":0.18814756708209468,"120":-0.144418186324385,"121":0.06811064463653291,"122":0.06634906321722028,"123":-0.13829921044763993,"124":0.02418166330686551,"125":0.1276197293003613,"126":0.10206915561973687,"127":0.00459358051779111,"128":0.1843765686494918,"129":0.015381807481621518,"130":-0.029326906753186548,"131":0.19111375448419485,"132":0.16484094305255784,"133":-0.1758669907564747,"134":-0.15385801863726242,"135":-0.20490378370403656,"136":-0.025897134074929776,"137":0.10755549345306707,"138":-0.07004883458358002,"139":0.19094639857583293,"140":0.1236956137201081,"141":-0.06966241490777149,"142":0.02045902866589036,"143":0.1853505667610238,"144":-0.004890703707689982,"145":0.17451440641292026,"146":0.02968533096404146,"147":0.03829050840492698,"148":-0.04995643087646216,"149":0.13861943736772525,"150":0.13591175856156484,"151":-0.04752701175726087,"152":-0.10570866597579952,"153":0.060435183248954874,"154":0.1302487578749774,"155":0.0733876907485689,"156":0.05057259303390299,"157":0.15210058304530374,"158":0.051280628060656565,"159":-0.16058385277034148,"160":-0.15552699976021528,"161":-0.045672453212200224,"162":0.0004353643092420317,"163":0.0798742091522559,"164":-0.040633467625699145,"165":-0.1785102748093319,"166":-0.04055046786589743,"167":0.14912958818011043,"168":-0.14231214789912322,"169":-0.0241769826491482,"170":0.19629343574703326,"171":0.1194788792370603,"172":0.18264811426999847,"173":-0.12104559580971218,"174":-0.0034461904929393617,"175":-0.011523093957312257,"176":-0.14009128974993604,"177":-0.16738185980567896,"178":0.1248657781159542,"179":-0.11797837406986031,"180":0.1472384740262291,"181":0.1607234684325933,"182":0.004192410450567074,"183":0.006132410048304085,"184":-0.17931257659827968,"185":-0.05874576626598266,"186":-0.12202885649264442,"187":0.15662065726310276,"188":-0.12235538836485292,"189":0.12348028083431176,"190":-0.003975059604630374,"191":-0.10665607867220132,"192":-0.025968200622978457,"193":0.04847522420970151,"194":-0.0999429873666901,"195":0.08014451366359496,"196":0.10632667066187432,"197":0.01572205458148409,"198":0.19666105266626255,"199":-0.07767024904248038,"200":0.032185758068053204,"201":-0.019297265850733193,"202":-0.06831257047974897,"203":0.09614075152580856,"204":-0.09472654227832303,"205":-0.1509124947561217,"206":-0.020477298254839564,"207":-0.17501701254521795,"208":-0.006475783447570598,"209":-0.22835868251148747,"210":-0.002550267883000431,"211":-0.15367481559775137,"212":0.14879672034495334,"213":-0.13354801817108475,"214":0.16557632710463646,"215":0.08750031771173676,"216":0.057019131799340685,"217":-0.22542659521578295,"218":0.1455317905710121,"219":-0.022868473514933405,"220":0.18617247528598876,"221":0.12173103189100865,"222":0.00022057979135438604,"223":0.00995190555027352,"224":-0.17153731799052205,"225":-0.14981361001239352,"226":-0.13505121552138866,"227":-0.09358051563272508,"228":0.0007067150870796745,"229":0.1057225893885089,"230":0.03133933378874484,"231":-0.11248308787241165,"232":0.04694874862533983,"233":-0.10219383172429683,"234":0.1908000589385897,"235":0.2254350666901879,"236":0.07332906038519967,"237":-0.023066246511910596,"238":0.11929758909208087,"239":0.11633609800541328,"240":0.1473515958521654,"241":0.05575736113864322,"242":0.190557123754289,"243":0.20042449105057936,"244":-0.1024208577855854,"245":-0.0071706685812070745,"246":0.16467292546209614,"247":-0.10777776920204497,"248":-0.16948548434687435,"249":-0.09712768259824804,"250":0.11132337565003601,"251":0.050488273971568784,"252":-0.07529002132728302,"253":-0.20130091922474044,"254":0.008795267164982206,"255":0.1640450122714924,"256":0.01219839591173149,"257":-0.05419346132694618,"258":0.1661441386208307,"259":-0.06148903937324974,"260":0.05755668320528998,"261":0.0899795883592521,"262":-0.1993536081122043,"263":0.11451838242108593,"264":0.18640530818071357,"265":0.08036136125151422,"266":0.057530703738941306,"267":0.1642390911250601,"268":0.001329881921480692,"269":-0.03403937951196121,"270":0.09868029486080253,"271":0.11896227735864323,"272":-0.042456784213164074,"273":0.1668724861436976,"274":0.04805875401920777,"275":0.03367983505204904,"276":-0.07227775543906277,"277":-0.1238476760015412,"278":-0.2292354542548719,"279":0.17884187043288988,"280":0.09654081161227014,"281":-0.0012896382507462491,"282":0.15348860955516014,"283":0.2431711708983014,"284":0.1878848046249533,"285":0.006286784143044221,"286":-0.09316381951708602,"287":0.1734471768685906,"288":-0.034869757053438886,"289":0.1846999371773961,"290":0.13153831813357494,"291":0.056019593340867195,"292":-0.10563129714454221,"293":-0.03311179982585314,"294":0.04529286947737122,"295":0.07251729284300533,"296":-0.06954630932398387,"297":-0.3076476006903182,"298":0.20912813708265898,"299":0.04129317598317218,"300":-0.2433756197300051,"301":0.23219232675380827,"302":0.05730817072975316,"303":-0.10721540359868863,"304":0.17649137799769044,"305":-0.016291531511481692,"306":0.14885291905494377,"307":-0.15053673828703393,"308":-0.1713620775448149,"309":0.1074676815379169,"310":0.02309397066691069,"311":0.15309909875001307,"312":0.11000015406738485,"313":0.04888379648786628,"314":0.016537687249859247,"315":-0.08544899387045526,"316":-0.2595388433674338,"317":-0.21952003470138842,"318":0.0413939964864991,"319":-0.19514526200346274,"320":0.10420049226275979,"321":0.057815138420324035,"322":-0.024464499961054535,"323":0.09424315104156933,"324":-0.09410828942638848,"325":0.05756321867145391,"326":-0.17243914059200527,"327":0.007433952601282593,"328":0.04621025357779176,"329":0.14149596548624296,"330":-0.17527923188641303,"331":0.011520116071776495,"332":0.08983029309759266,"333":0.04436821594380255,"334":-0.09412216168793666,"335":0.10293483132268529,"336":-0.24032185910849538,"337":0.07100687688529043,"338":0.07409844991948389,"339":0.06609606010405542,"340":0.04757725143262031,"341":0.15640857268525402,"342":0.03243728780795854,"343":-0.006944707938339547,"344":-0.058539793373077076,"345":-0.04004558622214852,"346":0.08388242951051315,"347":-0.16909359284574982,"348":-0.13825531859389786,"349":-0.1768764935939677,"350":-0.1505213294166815,"351":0.009370014205951281,"352":-0.2555309940327366,"353":-0.3082850836186684,"354":-0.11774479509308183,"355":0.12370616392497827,"356":-0.14592309842373105,"357":0.22530164241316133,"358":-0.174534949370822,"359":-0.1946876639789643,"360":0.24900185095768998,"361":-0.0671850687696577,"362":0.35848103365789596,"363":0.1314364258668222,"364":-0.058093299315977356,"365":-0.002002877132608541,"366":-0.010318474907902235,"367":0.07809585517264199,"368":-0.008979447724653169,"369":0.04504377893922324,"370":-0.13121878079130495,"371":-0.07910552366490271,"372":-0.025117034548379904,"373":-0.19707024096574677,"374":0.1318441622109192,"375":-0.04025573317819592,"376":0.22177422334487473,"377":-0.0840268730863099,"378":0.08167745847848469,"379":-0.1206644339367411,"380":-0.12124950026158757,"381":0.06821772568748757,"382":0.06173023759164435,"383":0.1299007457703031,"384":-0.027388467454235284,"385":0.08233762184695526,"386":-0.12103211193898981,"387":-0.15982559263439047,"388":-0.027736592315831334,"389":0.15632391417881927,"390":0.033755811503667806,"391":-0.08338718350679315,"392":-0.018215622568922372,"393":-0.1375495320619578,"394":-0.12157657684758856,"395":-0.18412217032484385,"396":0.0039330046506482,"397":-0.08724329480965017,"398":-0.08296040949196912}},"2":{"bias":0.02804331837186482,"weights":{"0":-0.09319026509720754,"1":0.24910884497171992,"2":-0.11242719916080969,"3":0.36433043222918843,"4":0.1092260814026135,"5":-0.09211305152317892,"6":0.035114954417410284,"7":0.22301490471649782,"8":0.01854194471452105,"9":-0.053761667350551844,"10":0.06372116839153087,"11":-0.12169896488799296,"12":-0.13898882218153197,"13":-0.08469934787860162,"14":-0.19753901258262832,"15":-0.019905436931129204,"16":-0.07883314580470456,"17":0.005281988175146178,"18":-0.247940274894348,"19":-0.06705939006946413,"20":0.013121246067081567,"21":-0.11133736556188834,"22":0.11675069331820498,"23":-0.05047475518797424,"24":0.0739358489170965,"25":0.07800620233276785,"26":0.016348222573562988,"27":0.15103242365188943,"28":-0.1345732214063275,"29":-0.017424788400779226,"30":-0.007775399809194705,"31":-0.04763038229868742,"32":-0.046791092434934296,"33":0.11858368241245676,"34":0.11433372488813552,"35":-0.03338739291273113,"36":-0.1446026905242161,"37":-0.038463890993610035,"38":0.031864346301536166,"39":-0.20440995780458354,"40":-0.13046399218941043,"41":-0.05225757238267535,"42":0.10864679899464177,"43":-0.12677716513564163,"44":-0.04423526970135061,"45":0.06906399900435849,"46":-0.013568477244910898,"47":-0.17879867199047245,"48":0.01247739770397727,"49":-0.047663793777079445,"50":0.021357866489219446,"51":0.13993819768222968,"52":0.0926433778949833,"53":-0.020899616962244218,"54":-0.0019102888051654896,"55":0.3056730860554554,"56":0.11889510832345633,"57":-0.165604654002104,"58":0.06400720651866303,"59":0.1011578551045889,"60":0.3554647332710901,"61":0.055009409149124985,"62":0.05598377471474217,"63":-0.11953109557003098,"64":0.0899951824076999,"65":-0.0012050509917239053,"66":0.12366883778572313,"67":0.015468989849694293,"68":-0.1377476088675189,"69":0.0878448556784321,"70":-0.045038010390238824,"71":-0.05119436826476662,"72":-0.005076637542417298,"73":-0.06277965428536239,"74":-0.09453691542216655,"75":0.17478706556902793,"76":-0.0006149957888926618,"77":0.06786400705740447,"78":-0.2415057608771292,"79":0.1431067914349475,"80":0.1053378360490717,"81":0.10268409963144413,"82":0.17020006339840396,"83":0.20547941940395087,"84":-0.02234172846365311,"85":-0.024505460557743955,"86":-0.013364420949920032,"87":-0.06931246419135349,"88":0.06810877462480754,"89":0.05113231768752409,"90":0.22675024539188054,"91":-0.027890048076310944,"92":0.061948865038854634,"93":0.18033683377547885,"94":-0.13846485351138416,"95":0.13663548591027852,"96":0.19437328268375811,"97":0.06101951781027628,"98":-0.18779163617924488,"99":-0.08881878433014799,"100":-0.021251944376916947,"101":-0.030349675812099814,"102":0.15344041526626456,"103":-0.09023731757648697,"104":0.03152578011577768,"105":-0.10143065983253166,"106":-0.16474731072303825,"107":0.227876168885543,"108":0.055342278112758415,"109":0.07879619725587984,"110":0.07708297115098059,"111":-0.0510000277072978,"112":-0.152733368069957,"113":0.05924615814449922,"114":-0.07778187118407143,"115":-0.20046469556969593,"116":-0.2035703955962603,"117":0.0029899306673516197,"118":0.13438261250357694,"119":-0.15750977216715956,"120":0.17541147790179026,"121":-0.015043785339849484,"122":-0.12747237186190855,"123":-0.07346459119438054,"124":-0.012067379321553424,"125":-0.1314521500987769,"126":-0.06594018112674424,"127":0.08585569365271352,"128":-0.18642254880160936,"129":0.1434044480031429,"130":-0.09493112869417729,"131":0.16978461683172966,"132":-0.14960963539511796,"133":0.020758450358243776,"134":0.003388368660348039,"135":0.09347952094294104,"136":0.06892997711874478,"137":0.1380074677458388,"138":-0.05153871429596974,"139":-0.1901597693987596,"140":-0.09998243196107816,"141":0.20058256554108334,"142":0.004761472445663643,"143":0.01689390540303958,"144":0.16173537032737623,"145":0.029941596191475284,"146":0.1458586431554484,"147":0.19599563039324142,"148":0.11663985127077117,"149":0.05128672857714866,"150":0.21354235618289688,"151":-0.15271565894552497,"152":0.13390238499330478,"153":-0.24219677511457618,"154":-0.1918647400302359,"155":-0.22529300224816734,"156":0.05081941817105245,"157":-0.06439092331460376,"158":0.05423367426298631,"159":-0.135828839339718,"160":-0.055230932460514186,"161":-0.1829443195349946,"162":-0.24764732997196032,"163":-0.13472853000020754,"164":-0.23733762631157856,"165":0.1896326472464293,"166":0.16812337005926112,"167":0.11947105921578562,"168":-0.1699187656421871,"169":-0.03988929349267184,"170":0.03560727771820495,"171":0.010126605789525159,"172":-0.013246843603997093,"173":0.07947029944198387,"174":-0.0013369431523048106,"175":-0.07400965687943216,"176":-0.02643971571047417,"177":0.19728384551826808,"178":0.14127880454063488,"179":-0.041772526547872946,"180":0.01190727546136462,"181":-0.019685832569109434,"182":0.00885633972380291,"183":-0.1539641752258307,"184":0.06198354322652222,"185":0.10826700106512613,"186":0.10590852947541475,"187":-0.04448857341457999,"188":-0.03077652842475921,"189":-0.1186664227186514,"190":0.02091286071772698,"191":0.02734567365942456,"192":0.20022845620097385,"193":0.12736793172252173,"194":-0.016548447031649424,"195":0.0896460171923508,"196":-0.10418420548893109,"197":-0.0049268750161739075,"198":0.00916269721970655,"199":-0.02531251874160117,"200":-0.1608319788169911,"201":0.030482845817775345,"202":0.0878859082529536,"203":0.2582495534559993,"204":0.19085858366951108,"205":0.13627849204097903,"206":-0.08611844293831743,"207":0.0634570584061259,"208":0.1513981811582208,"209":-0.037633094748377234,"210":0.09322147341942655,"211":0.010393599901869083,"212":-0.05285172245356716,"213":0.19766872250689854,"214":0.19026581701975964,"215":-0.1276974202978773,"216":0.020756171406167714,"217":0.12408951615904701,"218":-0.014013783242885857,"219":-0.19755441697770426,"220":0.08966695971428248,"221":-0.24268641109089878,"222":-0.29342252392761803,"223":-0.011353904554782487,"224":0.019969216942703684,"225":0.07295401471783589,"226":-0.1748145400578018,"227":0.11318717508403044,"228":-0.0622124041821606,"229":0.14531298668337944,"230":0.00012731978344269609,"231":0.16284507307118395,"232":0.062281127059570174,"233":-0.14590071622789572,"234":0.06705451217626492,"235":0.039585016326349996,"236":-0.06771705424064564,"237":-0.03327851371572742,"238":-0.11868339369341467,"239":0.1661181343761695,"240":-0.04864466480863994,"241":0.014583279042341437,"242":-0.1857987267140365,"243":-0.08986573585253053,"244":0.20161238367350345,"245":-0.00677006382047131,"246":-0.2049370983724327,"247":0.14799913639580153,"248":-0.171007844365171,"249":0.15944162981893892,"250":0.03894796444647953,"251":0.11679978156006543,"252":0.11825075575891378,"253":-0.05289885916104668,"254":0.1573580142473608,"255":0.1606926169581475,"256":0.07613329924860793,"257":-0.18890932007048078,"258":-0.04182536069431403,"259":-0.004167712870750071,"260":-0.11468631164774701,"261":-0.005835468781332802,"262":-0.12340948511054348,"263":-0.07678227247073073,"264":0.27878567539320087,"265":-0.10878979329893983,"266":-0.03741830404774581,"267":0.0124118030730161,"268":0.11806807811797516,"269":-0.15941266587632655,"270":-0.12972955789557142,"271":-0.10145343971163984,"272":0.04263297513222276,"273":0.17097913104087212,"274":-0.024996444842758914,"275":-0.03952939178454644,"276":0.06314526889584299,"277":0.0077391973124234835,"278":0.0004050747523273854,"279":0.11432158066943188,"280":0.07899535482101525,"281":-0.14862141315215088,"282":-0.015805002922115015,"283":-0.20916739108405644,"284":-0.0553564319018075,"285":-0.07310710223000455,"286":0.21975055425041004,"287":0.12753325652973474,"288":-0.16427927134970438,"289":0.0794203941620006,"290":0.18494291645836333,"291":-0.015836704852217887,"292":-0.1363579366481169,"293":0.214952714761576,"294":-0.15871044703219367,"295":-0.1360890863455769,"296":-0.012124814742623042,"297":0.17651237589801325,"298":-0.28230355354463016,"299":-0.004453343896559859,"300":-0.12685473049207488,"301":-0.32029188652016033,"302":0.21012294312474894,"303":0.06547455935516001,"304":0.06501046571241831,"305":0.09194206599980438,"306":0.015040092408014707,"307":0.011169705546717923,"308":-0.05533774316178661,"309":0.19169275953150677,"310":0.10442498463406272,"311":0.08474765822089272,"312":0.011834729564888161,"313":-0.07658233751472002,"314":-0.055951503627915275,"315":-0.15278061975342022,"316":0.13094502912336203,"317":0.014030571043954347,"318":0.07346041179386185,"319":0.11727483289917161,"320":0.07687528960402445,"321":-0.12261093486393528,"322":-0.04195871879445068,"323":0.1429571791449594,"324":0.07883213473112657,"325":-0.07849666251162825,"326":-0.18234839579538645,"327":-0.10650101376472439,"328":0.18994279971218275,"329":0.16869882343335244,"330":0.11287383480142402,"331":0.016883969032369835,"332":0.12951886658608136,"333":-0.03141253532755641,"334":-0.1106393662955494,"335":0.07819113649810594,"336":-0.09207914658285812,"337":-0.07872212113338642,"338":-0.07304579076119685,"339":0.1521083343600033,"340":-0.0877174897208,"341":-0.06985631981150357,"342":-0.12510483823725038,"343":0.010164483177048182,"344":0.06496592545970523,"345":-0.1508217055810618,"346":-0.13366332058313624,"347":0.15805126909796088,"348":-0.10659197285136009,"349":0.14209624633952272,"350":0.22983181649290965,"351":-0.114352192861492,"352":0.11574072461172007,"353":0.040189201813040476,"354":0.18124365575325072,"355":-0.0650676079045051,"356":-0.1667942865243811,"357":0.018936968719724286,"358":0.22139044502188454,"359":0.01362196786450182,"360":-0.4349072569309164,"361":0.23448583269794585,"362":-0.07947073410276037,"363":-0.13740982067148416,"364":-0.25460498007117266,"365":-0.15588271296994174,"366":-0.18444216209009873,"367":-0.19609022437916407,"368":-0.19190381879421012,"369":-0.11106849508520393,"370":0.09529628315348367,"371":-0.2154515039340164,"372":0.06693332124531698,"373":0.06276828581067614,"374":-0.1356453908732872,"375":-0.16335722992108676,"376":-0.26533539762405434,"377":-0.1113378295162309,"378":0.06670821752534531,"379":-0.14287248381026835,"380":-0.27689898362974286,"381":0.2104124881916974,"382":-0.12914578635269364,"383":0.07600424346315618,"384":-0.14609938027345487,"385":-0.1960922299428606,"386":0.1429592307441749,"387":-0.10400080503150691,"388":-0.11445748102513445,"389":-0.22452612200590036,"390":0.2650486443822755,"391":-0.27793816595351123,"392":-0.2801464869194387,"393":0.023842505487528892,"394":-0.030050063508217827,"395":-0.23883604543898534,"396":0.06645163228674654,"397":-0.3817499924648339,"398":-0.03873083413658371}},"3":{"bias":0.009536799373269723,"weights":{"0":-0.09735422724866712,"1":0.003753899990963565,"2":0.19252769274480974,"3":0.10627867754917311,"4":0.1760929822378779,"5":0.07698391137535701,"6":0.04618452740426556,"7":0.011961004258733634,"8":0.10548500845988379,"9":-0.18121593978919154,"10":-0.04014835504619476,"11":-0.009946561449446828,"12":-0.1141095851637558,"13":0.06533213473006338,"14":0.10401593847478623,"15":-0.016050439160236102,"16":0.06049555775402835,"17":-0.2615088889588547,"18":-0.06144538633561311,"19":-0.1203865403145872,"20":-0.057196382376847474,"21":-0.12298216360776919,"22":0.060879249897101,"23":0.13941765629447095,"24":-0.033849125471985916,"25":-0.14931939136967318,"26":0.1410388329787721,"27":0.22488623627544738,"28":0.10080512121245608,"29":-0.04441079819420355,"30":-0.2714037280062075,"31":-0.014828562908657668,"32":0.14589371910663407,"33":-0.2334931295372445,"34":0.05319083439118715,"35":0.006868583170529397,"36":0.024121728011482994,"37":-0.1204189979535759,"38":-0.0043140040109513195,"39":0.05047666386813036,"40":0.024327842686173325,"41":-0.16053549948557827,"42":-0.19990655214570488,"43":-0.14595724352038125,"44":-0.14893216282680402,"45":-0.07953692126326198,"46":0.19523968010702367,"47":0.22363026356792015,"48":-0.12433460191143496,"49":-0.027598293543922413,"50":-0.10278963054984795,"51":0.10320902173024082,"52":0.013040727616258244,"53":-0.1804963454947502,"54":-0.12617629852851742,"55":-0.16069310523262637,"56":-0.2074616600140408,"57":-0.05401509715717895,"58":0.09237637393230472,"59":-0.17438605917027822,"60":0.14055814866996913,"61":0.1919183846656329,"62":-0.2405536403138116,"63":0.10137749564537407,"64":-0.13027184517463844,"65":0.08133999091731182,"66":0.13926103515381916,"67":-0.07035280735471156,"68":0.11614876835653537,"69":0.10666080242405174,"70":0.14106626121044896,"71":0.07354844852595328,"72":0.04628093079076518,"73":-0.2507520801962867,"74":-0.17280647919952805,"75":-0.09990796501773541,"76":-0.12485201514380853,"77":0.06804696657900654,"78":0.14561709769222564,"79":-0.045946273043238214,"80":-0.026219170574663168,"81":0.11599934758825661,"82":0.14844422348539807,"83":0.057502205166848,"84":-0.1272771735528186,"85":0.1906571393789649,"86":0.007909816173148038,"87":-0.010222732627143752,"88":0.19790634743878116,"89":-0.22197510307875853,"90":0.052503748926069994,"91":0.07658252742717377,"92":0.2121929472519801,"93":0.09598324256676675,"94":-0.16905443331019288,"95":-0.20079218868289603,"96":-0.2949350246918313,"97":0.24460401199001094,"98":-0.10916360552094678,"99":-0.23614652030732203,"100":-0.1346543354985929,"101":0.11553969511158248,"102":0.09781354288191975,"103":-0.13320115315138284,"104":-0.2178730864749756,"105":0.02730135989600169,"106":0.1166464578181088,"107":-0.17836685209204572,"108":-0.2071856241240616,"109":-0.13350422244757998,"110":-0.0323665672743837,"111":-0.18377162646500347,"112":-0.1927765316543836,"113":-0.1010683042345612,"114":0.03827962004600994,"115":-0.006845769709376575,"116":-0.14171199869227058,"117":-0.09297758970723073,"118":-0.023837139814496637,"119":0.10322757968338224,"120":0.09577901048658415,"121":-0.13646220884811766,"122":-0.08061275533102313,"123":-0.015271369306303411,"124":-0.03449293934108573,"125":-0.09014680410901448,"126":-0.02858229111377045,"127":0.1776172075244861,"128":0.05364162388168206,"129":-0.14966467935024574,"130":0.11780447788225488,"131":-0.21505896189809845,"132":0.17876505726079842,"133":0.08520105460878055,"134":0.2469119914002386,"135":-0.047059801592861404,"136":0.11595770571298483,"137":0.11521972672653231,"138":0.11399727659154567,"139":0.23766938727671746,"140":0.02883680807223632,"141":-0.02494932847089976,"142":0.006924820203529631,"143":-0.04487040096778693,"144":0.07889042004301412,"145":0.01768167403226909,"146":-0.1754368108410615,"147":-0.10046767185629686,"148":0.11000940509198981,"149":0.13087137460425147,"150":-0.10927578787243696,"151":0.07107406170876986,"152":0.009614062062732954,"153":0.11930521243838184,"154":-0.13810236532843131,"155":0.09187064639455375,"156":-0.18356030156127753,"157":0.048369852727528244,"158":-0.17820504382514912,"159":-0.04363901794891846,"160":-0.015066489378177818,"161":-0.0711502390680839,"162":-0.14950167482508997,"163":0.17937954169171372,"164":0.1945132755672075,"165":0.15027823505284438,"166":0.17854727939848145,"167":0.13072300268517445,"168":0.21441143827552425,"169":0.05211767008041146,"170":0.11075039719052754,"171":-0.1309723728944431,"172":0.051880092088345556,"173":0.02632170084967547,"174":0.08514013793892013,"175":0.14782570589479885,"176":-0.12179405558333575,"177":-0.022127436317900456,"178":-0.031632385480349114,"179":-0.020765188051675397,"180":-0.01844154562958317,"181":0.13261354240645334,"182":-0.0752028872345936,"183":0.17610785861019976,"184":-0.06438161850186183,"185":-0.11327980599558175,"186":0.11985993394923121,"187":-0.1354681776128742,"188":-0.14519164929797992,"189":-0.11377370618476088,"190":-0.06720316016195546,"191":-0.10744307350896222,"192":-0.005386503439290838,"193":-0.2031342630974604,"194":-0.0209376836233336,"195":-0.0789833545470803,"196":0.1337920765025014,"197":-0.09496503098209214,"198":0.2277001499825603,"199":-0.13958713929746194,"200":-0.06084561897664668,"201":-0.18018826612289623,"202":0.009778245858394635,"203":-0.19667870168497922,"204":0.09281408044198386,"205":-0.1683766274839323,"206":0.041167586021936736,"207":0.14911328466339033,"208":-0.14066077491935114,"209":0.02938648460422919,"210":0.05264767195862204,"211":0.016574733677005647,"212":-0.02889563923844518,"213":0.044798253289259335,"214":0.010584938853057987,"215":0.14145362427384622,"216":0.1336399212358807,"217":-0.1848297721860561,"218":-0.0909451607858448,"219":-0.10475330628285631,"220":-0.2864265935274203,"221":0.15254564610671617,"222":0.08529435922723104,"223":-0.18437966223112792,"224":-0.1593477491675757,"225":-0.05846402470418755,"226":0.06832891610451003,"227":-0.07864352558037528,"228":0.03977736267570602,"229":-0.05372682987406846,"230":0.1057649660123234,"231":0.1616680684194565,"232":-0.17710273233893264,"233":0.06882183257884003,"234":-0.12493493527312832,"235":0.008884854836101871,"236":0.1773095739463653,"237":0.0329028615603661,"238":0.2469076152023547,"239":-0.017830055288804915,"240":-0.16507857480754518,"241":-0.10820674089286296,"242":0.1975310088763685,"243":0.11521925515632113,"244":0.19351630762338345,"245":-0.11026924996360245,"246":-0.04496404287018388,"247":-0.1827912286769088,"248":-0.0013228536410058,"249":-0.13915680592102647,"250":-0.060134629536823705,"251":-0.14952668747940256,"252":-0.028008562932770726,"253":0.018394005003738605,"254":0.023476326628058243,"255":0.02652054972225139,"256":0.06549817606435561,"257":0.10143527188312808,"258":-0.03337628706017545,"259":0.029858903931490162,"260":0.13557633061105911,"261":-0.18954044039370269,"262":-0.17926961396729285,"263":-0.0851627757456327,"264":0.005405290075672749,"265":0.20416940597951289,"266":-0.006808650876541569,"267":-0.13244873899381562,"268":0.18052161431496036,"269":-0.11348104982585046,"270":-0.10774285092289153,"271":0.1373125075139927,"272":-0.14838844838127638,"273":0.17962718584818718,"274":0.15191645032984352,"275":-0.17251087413469224,"276":0.10155695419605486,"277":0.16149632132115793,"278":0.04675645399460962,"279":0.06284297629473341,"280":-0.1701015818080173,"281":-0.11920878881236452,"282":0.15772610205618695,"283":-0.14353226749154488,"284":0.11278756363617803,"285":-0.059261486924226746,"286":0.1478440640850567,"287":0.1360048367153092,"288":0.03461185806171276,"289":-0.15107552557915058,"290":-0.04301846209525277,"291":-0.11217588153982985,"292":-0.04313017309738414,"293":-0.0659617411043888,"294":0.15805307979958105,"295":0.28133731357384517,"296":-0.1439188247262506,"297":-0.04801925193410296,"298":0.155953959512852,"299":0.025250035056692766,"300":0.04223026706696395,"301":0.059218113554330286,"302":0.1565261211996235,"303":-0.1477107908206933,"304":-0.04455138967915948,"305":0.06622916613928084,"306":0.005109605949462468,"307":0.13141544126168933,"308":0.1982653362352195,"309":0.09813872534755652,"310":0.144996659534725,"311":0.21513354513844518,"312":0.0512549961112501,"313":0.019165215552476987,"314":0.2336179186832948,"315":-0.18765021022457726,"316":-0.03675421504393253,"317":0.1364513853775579,"318":-0.0762375198170506,"319":-0.024565615483509374,"320":0.15405144422145942,"321":-0.01773948510317165,"322":0.17436996601665383,"323":-0.16042044359541277,"324":-0.2218511216547612,"325":-0.2063125894657984,"326":0.09204697525985338,"327":-0.030571356981015485,"328":0.07182019481225539,"329":-0.07641545801552924,"330":0.16175766336285488,"331":0.16899902490627547,"332":0.007408873645351333,"333":0.007133171043253777,"334":0.17785313983689854,"335":-0.06931752699855513,"336":0.16822704396813265,"337":0.13739953865253074,"338":-0.12809514049725906,"339":0.16053413265605085,"340":-0.35418380229426755,"341":0.04197377527350681,"342":-0.16356901209488536,"343":-0.1245603929109909,"344":-0.14771145442164768,"345":-0.24665487873681632,"346":0.1021341004505528,"347":-0.12656401214332533,"348":-0.008703172942179923,"349":-0.08037677416024717,"350":-0.09920471879116867,"351":-0.026337162718224543,"352":-0.02321321206338228,"353":-0.07451921519801273,"354":-0.03530678399282544,"355":0.06239959090696439,"356":0.22133368020571187,"357":0.25884099704127284,"358":-0.34890920914154355,"359":-0.19015922009886027,"360":0.08022589259450603,"361":-0.10240671977839563,"362":0.2609287653799231,"363":-0.1493909307759846,"364":-0.18161391756405115,"365":0.00930342938523719,"366":-0.2355292361578349,"367":0.18524546894586635,"368":-0.19053307834508715,"369":0.046352401157596035,"370":0.007292250011819784,"371":-0.050650746377907147,"372":0.020766727477941723,"373":-0.1911533082200594,"374":0.16856147202564453,"375":-0.011015337343192743,"376":0.2896896707414131,"377":-0.10322289222607543,"378":0.15203151722844102,"379":-0.008238174776497941,"380":0.1913113462261069,"381":-0.3057050782756125,"382":0.07563553612016957,"383":0.14487146371018503,"384":-0.04006576647791239,"385":-0.022379534912157092,"386":-0.18162409830370566,"387":-0.2010218360183722,"388":-0.11070585173477046,"389":-0.14074912529255207,"390":-0.2084309158383783,"391":-0.0760137353327849,"392":0.27343375681927085,"393":0.07189076240953261,"394":0.09708386502803715,"395":0.16702808319439577,"396":0.1052309489175352,"397":-0.12964682506334377,"398":-0.28515360124109623}},"4":{"bias":0.04144757754627225,"weights":{"0":-0.07814608415323446,"1":0.06616420669531964,"2":-0.2315320192130479,"3":0.1606560971308024,"4":0.1157777559654443,"5":-0.14727180570836432,"6":0.13097153332475067,"7":0.09461092027355475,"8":0.018172938161653347,"9":0.029939647479190375,"10":0.1432403920039336,"11":-0.1264403295873987,"12":0.15572062903149672,"13":-0.13585258362908695,"14":-0.256860023853061,"15":-0.11653638436563585,"16":0.14015425949113408,"17":0.07993517633333236,"18":-0.10153859447838834,"19":0.010180633628487848,"20":-0.09795983225527376,"21":-0.1519560876661396,"22":-0.013665468934740892,"23":0.13400400207826343,"24":-0.22069081939523302,"25":0.14345146188095387,"26":0.16775724097659023,"27":-0.10185164558810586,"28":-0.10726139752082657,"29":0.0826970583361916,"30":-0.034537808398149426,"31":-0.04845327617725367,"32":-0.13202235076294502,"33":0.14100024241596104,"34":-0.047939218790312425,"35":0.10790999161290663,"36":0.0028488617614590367,"37":-0.058238404850491414,"38":-0.05252069730023456,"39":-0.30189196828631526,"40":0.09860008843550615,"41":0.02012232583600527,"42":-0.1132165016074535,"43":0.11415614839381195,"44":0.011035830905661657,"45":0.04608656147339449,"46":0.0898197580601401,"47":0.18620920805286337,"48":-0.042275831770476585,"49":0.07035548634042241,"50":-0.036095324254239974,"51":0.10519595111112198,"52":0.06513001163474626,"53":-0.14278206199589247,"54":0.11026313845500507,"55":0.3159610167575103,"56":-0.07861957535618666,"57":-0.10993228727675715,"58":-0.09607365054486951,"59":-0.15597620951554272,"60":0.23866982173724596,"61":0.10967024199531354,"62":0.033882861472773244,"63":0.05347876400911536,"64":0.007206707094956675,"65":-0.2492320271486037,"66":0.14757499705042942,"67":0.12737546141001438,"68":-0.06690690761167083,"69":0.08828390690307769,"70":-0.011994686723372868,"71":-0.19748640557652283,"72":0.045735346624588696,"73":-0.05715487171357088,"74":-0.12902644758974502,"75":-0.026159067750324207,"76":-0.10232457629063281,"77":0.048294420657350054,"78":0.060647463428708484,"79":0.11911387494849235,"80":-0.10181146595503797,"81":-0.16744290845853757,"82":0.08938367609182842,"83":0.1628737340397675,"84":0.08964694377632133,"85":-0.014386160728455435,"86":0.2330422127496635,"87":0.00550152722446256,"88":0.1928272457124356,"89":0.038051388389562735,"90":0.009615748184011355,"91":0.19870898410758292,"92":0.1325444190323623,"93":0.03659259820359744,"94":-0.20017079998245438,"95":0.016756063803210878,"96":0.1658133738762541,"97":0.21945869013114286,"98":-0.2011380444529569,"99":-0.08581933751381576,"100":0.055361143048028666,"101":-0.1343058598279135,"102":0.1845205599828298,"103":0.16622815616224998,"104":0.0083070986123823,"105":-0.14382893239710767,"106":-0.0710819744877398,"107":-0.1416089782721453,"108":0.06530264824094549,"109":0.05085443915429175,"110":0.018909415887556718,"111":0.007669580229253956,"112":0.16138831039150453,"113":-0.03577456080456963,"114":-0.19156845009175807,"115":-0.13869379445982866,"116":-0.016697869252461098,"117":0.09402674167610779,"118":0.0554633728733044,"119":-0.15883608968729462,"120":-0.17618896202932585,"121":-0.1551691166365343,"122":0.18254228434390152,"123":0.19896753278580023,"124":0.06772065027127806,"125":0.1809702652921084,"126":-0.11344458816599574,"127":-0.14727911994187487,"128":0.008845778565101547,"129":0.010766511028555305,"130":-0.03509270553565623,"131":-0.18803832417280683,"132":0.15651880370678875,"133":0.14608974370997088,"134":-0.19684325605385633,"135":0.08202662289448302,"136":0.18293225178111033,"137":0.11406301896080277,"138":0.04316405669589402,"139":0.08598995551767652,"140":0.15437900736670243,"141":0.18695312712698023,"142":0.061257771983878814,"143":-0.007678166792475839,"144":0.13801556588947855,"145":-0.1320043969330694,"146":0.09946984238956652,"147":0.07164007041783027,"148":-0.08654714214112931,"149":-0.058321609117320795,"150":-0.09395370041044972,"151":0.09736859136318121,"152":0.05061349299230515,"153":0.13115014324947774,"154":-0.02058364579414877,"155":0.0502379497965755,"156":-0.02797300858208996,"157":-0.1194587161538788,"158":0.1356747646980049,"159":-0.09052140005105663,"160":-0.07433334294653572,"161":-0.13895001319497732,"162":-0.09259610019260396,"163":0.19034318758670357,"164":-0.15132969574674293,"165":-0.06727098480729023,"166":-0.09695150315012947,"167":-0.01830838230670246,"168":-0.1811162544046387,"169":0.1518963608735458,"170":-0.12811929707935418,"171":-0.03508760148141401,"172":-0.1595744880315992,"173":-0.12522674909452391,"174":0.03332546834272742,"175":0.022806241720846405,"176":0.09284097561939927,"177":-0.016617960758903212,"178":-0.04735184901757784,"179":0.1524730832673931,"180":0.054264085791122185,"181":0.040822839635327096,"182":0.1504315639069289,"183":0.22325320260163192,"184":0.08002821780149587,"185":-0.16314547913459576,"186":-0.08706898455801888,"187":-0.01875851451124309,"188":-0.06433799700024329,"189":-0.09363288922354848,"190":0.07736657231124273,"191":-0.13045241777777672,"192":-0.12518517559703402,"193":-0.02528181596807788,"194":0.014485990423489439,"195":-0.005665152314407951,"196":0.24782198281858167,"197":0.12568896329652057,"198":0.132815482862495,"199":0.2795648643296084,"200":-0.1772022131142069,"201":0.08619965128461715,"202":0.033496081121117544,"203":-0.0674182965143433,"204":-0.05124830709257301,"205":0.04556182944104773,"206":0.15837645377454973,"207":0.006520788216880312,"208":0.13318183746421036,"209":0.07918950122963982,"210":0.18887592635319136,"211":-0.04706331594113291,"212":0.050688538155523,"213":0.0648111628107391,"214":-0.19270619346763201,"215":-0.13764071162566793,"216":0.1664784905512824,"217":-0.12022284074927309,"218":0.11554420967036087,"219":-0.203471482693532,"220":-0.03314826565616723,"221":0.11402837787974197,"222":-0.20560280846407525,"223":0.04378914854594426,"224":0.08602425789433825,"225":0.17255089025608625,"226":-0.17700762073524343,"227":0.17342674213590092,"228":-0.11975111498771489,"229":0.19850351118442022,"230":-0.09106963814997425,"231":0.11293053340465167,"232":0.0012740658728930129,"233":0.06169752227175968,"234":0.057248592861189565,"235":0.12900493287930445,"236":0.006592011153438712,"237":-0.07027519514301721,"238":0.05239492145605791,"239":0.18294320223407143,"240":-0.11455622818162482,"241":0.14761566554716027,"242":-0.12855465339936184,"243":0.22151484174273636,"244":-0.017910048340652452,"245":-0.10979692581732547,"246":-0.06637616296117466,"247":0.1211070966623137,"248":-0.09540466615824096,"249":0.11794943067787926,"250":-0.015160937682056019,"251":-0.05472971986603058,"252":-0.005443821801938415,"253":0.1167463250518042,"254":-0.160220221138291,"255":-0.042855754389304924,"256":-0.14013950814373052,"257":0.16801790288351948,"258":0.13126445565572392,"259":-0.04015632582895358,"260":0.14619944805375035,"261":-0.18942629290487287,"262":0.14891091080286667,"263":0.184511076912184,"264":0.21122338770674623,"265":-0.08587774735088187,"266":0.2081374372720498,"267":0.1464466618964891,"268":-0.11823963391188945,"269":0.20075624920368967,"270":0.013514059436415909,"271":-0.0597784896276181,"272":0.10136279540884582,"273":0.08253953476135865,"274":-0.08944722689123534,"275":0.21088246328440233,"276":-0.05233424087764724,"277":0.19228182927746854,"278":-0.13912401029305735,"279":0.010475053414404103,"280":0.06893570403991577,"281":-0.1987205161049222,"282":0.11029437911572086,"283":0.09153426158302068,"284":0.016950482781329483,"285":-0.15982086737388573,"286":-0.05827353630470917,"287":0.1229516818676521,"288":-0.2365095422148505,"289":0.18071080742056067,"290":0.020676836098146717,"291":0.19781470812145682,"292":-0.07901497455158402,"293":-0.06940475054342926,"294":-0.06731427920803923,"295":0.04898194119023274,"296":0.06603899568800567,"297":0.12725423126138752,"298":0.05432909002308457,"299":-0.16334954984521105,"300":0.03761706456611113,"301":-0.0804438755642265,"302":-0.10894035327246378,"303":-0.06143955691848338,"304":-0.057707313705711784,"305":-0.022641185223340916,"306":-0.06422817318934818,"307":-0.01736084746424873,"308":-0.193748354611154,"309":0.024987171747294694,"310":0.17383037535528634,"311":0.06576576072732647,"312":-0.18921644324576797,"313":0.03145509231440069,"314":-0.08805213768109468,"315":0.07995747195694242,"316":-0.13077728760060175,"317":-0.043699855539093516,"318":-0.2447936490155252,"319":-0.18050203991261393,"320":-0.09401586512376725,"321":0.05538158189600796,"322":-0.16553022757796854,"323":0.1825456257040121,"324":0.062333624624535816,"325":-0.008110167459999101,"326":-0.19600175073021095,"327":0.004495912185338539,"328":0.0330794901542216,"329":-0.019135453840891655,"330":0.2641536256742108,"331":0.09626139705041688,"332":-0.07539667846000732,"333":0.02446572251855538,"334":-0.13543413905402413,"335":-0.009347130375476954,"336":0.2088588075734132,"337":0.08657727676206507,"338":0.16687501086894907,"339":-0.08278284092167383,"340":-0.13054354342622224,"341":0.12823598133445988,"342":-0.16942700254458246,"343":0.16569682073767467,"344":0.12740524065659817,"345":-0.23706613226228482,"346":0.1994694971370888,"347":-0.06979001832588708,"348":-0.2066684406267554,"349":0.11002698221703296,"350":0.1698427016652712,"351":-0.16193681636582774,"352":0.09837284366688745,"353":0.11796671630931681,"354":0.06942939205266276,"355":-0.21346845968270853,"356":0.13309926923217572,"357":0.04897599092279226,"358":0.024138140666427697,"359":-0.028902528425931877,"360":-0.191739066401042,"361":-0.17889716438266265,"362":-0.026671992265969807,"363":-0.13203724797514757,"364":-0.13772983312824247,"365":-0.004688502134531652,"366":-0.22274390513433823,"367":-0.14290469084730875,"368":0.07894160728303204,"369":-0.24922575747911077,"370":0.09473528917793946,"371":-0.4165093760166921,"372":-0.17069655650922386,"373":-0.18066813780426913,"374":-0.09857459807521805,"375":-0.15553608701939106,"376":-0.09459927517323723,"377":-0.18796938900435683,"378":-0.0808342784506884,"379":-0.2338363277849425,"380":-0.2709722325124209,"381":0.07306830190844599,"382":0.05725257036703472,"383":0.10112169406265102,"384":0.00503499930921519,"385":-0.04735313762202693,"386":-0.18348145402079413,"387":-0.09552527731244728,"388":-0.0978203689216219,"389":0.06989140382769915,"390":-0.1847154388223193,"391":-0.1333002833463094,"392":-0.21137119276561173,"393":-0.02633485968369196,"394":-0.07392020641447662,"395":-0.15598645004237932,"396":0.07712444910929232,"397":-0.16472045937061836,"398":0.04349460462135266}},"5":{"bias":0.004571812313377234,"weights":{"0":-0.015340958760362917,"1":0.0823322872941292,"2":-0.12627517166615057,"3":0.12074874638053322,"4":-0.08294127529726746,"5":0.04523924780910838,"6":0.18551425008966985,"7":0.005721197999609582,"8":-0.1250901326921038,"9":-0.011170768824143027,"10":0.1432659954748948,"11":-0.1458576686721041,"12":-0.1528006088472264,"13":0.04912061123428929,"14":0.17430421318543002,"15":-0.07806802114427085,"16":-0.19635442089183414,"17":-0.15442369194094055,"18":0.10862585710281178,"19":0.06497765957907252,"20":-0.11672775803297473,"21":0.13227535542128147,"22":0.0639508613329676,"23":0.11849414359849986,"24":0.07778357868639416,"25":0.15822397416885253,"26":0.18151883481633507,"27":0.10586459448115647,"28":0.05849716346490127,"29":-0.03139653389430653,"30":-0.0773925363156929,"31":0.061031737226226256,"32":0.09824914518045688,"33":-0.1893415030051565,"34":-0.038075925837273365,"35":0.18311189812804535,"36":0.1407805614677272,"37":-0.20523660037905128,"38":0.019430634962190742,"39":-0.14191870968095982,"40":0.06819411575908346,"41":0.010664201994809922,"42":-0.25533072015706076,"43":-0.2038649380751764,"44":-0.009355136859154243,"45":-0.08869464671185084,"46":0.0804703267044701,"47":0.020212390738994706,"48":-0.18637242934406978,"49":-0.1655494335740547,"50":0.17687999015448447,"51":-0.06881576149498338,"52":0.035748250596394256,"53":0.09951648624413292,"54":-0.04302888674934526,"55":0.22804843316641468,"56":0.0620838555413003,"57":0.13268868185870786,"58":-0.0634874441165411,"59":-0.18692445816930672,"60":0.0008438886409372972,"61":-0.04270459538266469,"62":-0.057918770547287876,"63":0.23192883890838886,"64":0.1811738363383765,"65":0.05502901077206839,"66":-0.003384503849289451,"67":-0.0021356469237634843,"68":0.14590432661888475,"69":0.033573827342291356,"70":-0.15679132045942587,"71":0.02483548378619791,"72":-0.13441921188777606,"73":0.19903462684664425,"74":0.0655919551921188,"75":-0.18974108321773245,"76":0.19438475068106265,"77":-0.09939649780174921,"78":-0.1385523774244972,"79":-0.24456079629467883,"80":0.004241668525288747,"81":-0.18216218691673725,"82":-0.06122912752094307,"83":0.044865731923549354,"84":0.0759087108187403,"85":-0.18252523122740483,"86":-0.09154880350300282,"87":0.1962934578541873,"88":-0.1641801677422552,"89":0.0067011904320846485,"90":-0.11438993647050279,"91":0.1053267874614804,"92":0.1284768742276249,"93":-0.17996517677669444,"94":-0.01394460746332529,"95":-0.08089560444110307,"96":-0.10202171652935446,"97":-0.014148023698166494,"98":-0.1715772550670637,"99":-0.12236810041652073,"100":-0.05871525466660654,"101":-0.11716323670198107,"102":0.13899873548394934,"103":0.06108410413015991,"104":0.022043929266118704,"105":-0.0059957849396216276,"106":-0.1620051492047172,"107":0.1290236595668305,"108":0.15260502042805865,"109":-0.186281815904282,"110":-0.09565595312453411,"111":0.14352248250289865,"112":0.10039820949115857,"113":0.10450080856009189,"114":0.011578689481516394,"115":0.06552186655921603,"116":-0.059574452417156865,"117":-0.15400013408765872,"118":0.17751398626662093,"119":-0.037475000091078715,"120":0.13780001868758684,"121":-0.10846493772057744,"122":0.12682094979046546,"123":0.07010583569374668,"124":-0.006427116313247176,"125":0.012011070044127829,"126":-0.1054678214239723,"127":0.08787837872103425,"128":0.08768187567721766,"129":0.14726665355222168,"130":0.0899789749098646,"131":-0.08219429653826864,"132":-0.13618721845964388,"133":-0.21642581303991043,"134":-0.08879401658075027,"135":-0.0424835611874829,"136":-0.054480968609578,"137":-0.09903446518256848,"138":-0.14296290865628136,"139":0.12937468965448545,"140":-0.07039730921249053,"141":-0.16051342134798852,"142":-0.12181236328046155,"143":-0.18784813813609766,"144":0.10079293144865734,"145":0.019482105223901976,"146":-0.07299215397778419,"147":0.15202992651490196,"148":-0.08743651607524026,"149":0.01161300131527793,"150":-0.12289097979479507,"151":-0.024009621854855816,"152":-0.19322312651102136,"153":0.0051944404121143225,"154":0.09663037725565306,"155":0.11577520134142692,"156":-0.05133725942025487,"157":0.21908273487331098,"158":0.1865177040797055,"159":-0.03580528546337494,"160":-0.06116745575434402,"161":-0.030028991945809436,"162":0.1572567168307493,"163":-0.08362512304358685,"164":0.042311543901839936,"165":-0.11090514794307624,"166":-0.15203650618420497,"167":0.044969859490833125,"168":0.05976761444856982,"169":-0.08114748858726555,"170":0.05579479081725309,"171":0.16453357106562702,"172":-0.11150860423131263,"173":-0.20924497659368652,"174":0.04369792322120687,"175":0.18262569359691277,"176":0.07492328696729189,"177":0.14028939793454595,"178":-0.10848943462281715,"179":0.05173821014363574,"180":-0.16987951277886795,"181":0.15856247782930338,"182":0.13670627852104789,"183":-0.1157314641727982,"184":0.01068083854643517,"185":-0.04998084197122234,"186":-0.09576735424578553,"187":0.20433658658027964,"188":-0.15484097313815554,"189":0.04786283810755495,"190":0.21607962227801483,"191":0.08089949473528862,"192":-0.0567065982378927,"193":0.06655909708055756,"194":0.01372657416399841,"195":-0.0976331201208345,"196":0.07096861398679681,"197":0.02329132103834775,"198":0.02347612475844473,"199":-0.16873906428339772,"200":-0.14387236629537464,"201":-0.12580885948821124,"202":0.1611340727533892,"203":0.04786325737385413,"204":0.06884424125603734,"205":0.03596402692865412,"206":0.0475130563218265,"207":0.11978679282700405,"208":0.1483911598369136,"209":0.14134454298995605,"210":0.15489935463543406,"211":-0.12036424974420938,"212":-0.1992992429643863,"213":-0.009338426462603803,"214":0.13420824238251242,"215":-0.055141712352336225,"216":-0.01044660711889763,"217":0.18403111085847013,"218":0.12405847604287097,"219":0.17429524050224837,"220":-0.11426689085158499,"221":0.024204112029222874,"222":-0.0042618240282290805,"223":-0.05860753484582478,"224":-0.0026368157338243713,"225":0.08550447106105773,"226":-0.013878711335747362,"227":-0.07968339372470262,"228":-0.06275381254035028,"229":0.0484214677240065,"230":0.05338281538177466,"231":0.008513592043735887,"232":0.16145268857105868,"233":-0.0732008377123887,"234":0.10646745004468211,"235":-0.07864998006639215,"236":-0.1919315438099311,"237":0.07043936157111044,"238":-0.010075867463776996,"239":0.09272929775139836,"240":0.14846882037458048,"241":-0.10819684874184247,"242":0.00683983387822685,"243":0.21843447402248264,"244":0.17462150346410782,"245":0.15886942841779994,"246":-0.04926814215983829,"247":-0.045125894526977024,"248":0.03152514541471757,"249":-0.031030537542496735,"250":-0.026619503557365334,"251":0.04222064049085456,"252":-0.06891029386157113,"253":-0.04946946809375488,"254":0.005964706895370926,"255":0.13337569389915968,"256":-0.0845431826643162,"257":0.21658631433580977,"258":-0.140961070657284,"259":0.07026663930026733,"260":0.14761857595295277,"261":-0.041747152291449464,"262":-0.0830929720596738,"263":-0.012438766629465638,"264":-0.17659647816760113,"265":0.1319537434406028,"266":-0.04792093930786078,"267":-0.054264855639777544,"268":-0.0016529975283928083,"269":0.037004173098395175,"270":0.17974212810830625,"271":-0.12585700013553097,"272":0.11335391818014494,"273":-0.006895983246528782,"274":0.19680173495953696,"275":-0.16821235741842258,"276":-0.11550962953285468,"277":-0.13424818746975437,"278":-0.21600339015087905,"279":0.10500969620033695,"280":-0.1982062517752008,"281":0.011132299397141669,"282":0.010077612850905197,"283":0.1475578734307787,"284":0.15334636841843946,"285":0.0958997848040911,"286":0.2042789016925495,"287":-0.1389075292435516,"288":-0.15933808138146535,"289":0.03491292763066011,"290":0.19536147355302777,"291":-0.09437345078835238,"292":-0.1832770306677118,"293":0.08170037532185703,"294":0.059713499336644424,"295":-0.05496058834046903,"296":0.16503203211065426,"297":0.08979390609807282,"298":-0.11368005253621534,"299":0.03528233372147019,"300":-0.212265786618336,"301":0.13441878868004287,"302":0.18889214620602832,"303":-0.17144756123319999,"304":0.08339856949379391,"305":0.007206024440936482,"306":0.007681612149037889,"307":0.14490004031489395,"308":-0.14370116830178783,"309":0.03768127547820768,"310":-0.057745271425026695,"311":-0.08842252874492608,"312":0.1696699123517546,"313":0.17222540632463534,"314":-0.05270214991740015,"315":-0.1772299545408898,"316":-0.17950787534898965,"317":0.10449069574766572,"318":-0.1979806109263603,"319":-0.15817995296663706,"320":-0.09640365438520399,"321":-0.055292602650909066,"322":-0.10327189109226423,"323":-0.16186049583428008,"324":0.13171836381054397,"325":-0.0027853641580663385,"326":0.03354450940499657,"327":0.17920518421172657,"328":0.03806000524180523,"329":-0.015802264469895206,"330":0.011350920539768277,"331":-0.20386342941585026,"332":0.11776850759611995,"333":-0.0281491065357959,"334":0.065372136461858,"335":-0.17969451696393995,"336":-0.23650877385717498,"337":0.10866390474496816,"338":0.16802280030562664,"339":-0.06288803778675811,"340":-0.025918246016545084,"341":0.1008611787688756,"342":-0.07652584810928609,"343":0.08455985050802549,"344":-0.15571958038067213,"345":-0.011316093493496823,"346":0.15032839715286817,"347":0.20192186149774344,"348":-0.02830465966171933,"349":-0.16014164161580205,"350":0.1296226639143902,"351":-0.07923703649252495,"352":0.12749149387284717,"353":-0.06299673114725325,"354":-0.11898701856878217,"355":-0.13225004194853568,"356":0.16572549480056745,"357":0.20774759815680993,"358":-0.10482567725760537,"359":-0.23460883072316477,"360":0.025135159226344,"361":0.036851800123203604,"362":0.006045593815246878,"363":0.11192748570549048,"364":-0.13602990024012745,"365":0.03011604227475167,"366":-0.20715963618057923,"367":0.062357969275023246,"368":-0.10814800954102408,"369":0.024215536806735362,"370":0.17147130697665028,"371":-0.11210135155824213,"372":-0.17567434553048739,"373":0.1266919579494976,"374":-0.00025607100275989726,"375":-0.06738213928606326,"376":0.019965335813791035,"377":-0.02434606667149224,"378":-0.2714502260214142,"379":0.06487080991805569,"380":0.01921236104789216,"381":-0.04342551438996856,"382":0.04770517907129409,"383":0.15196527445027555,"384":-0.21813914341844332,"385":-0.15207920280541937,"386":-0.11466684107705662,"387":-0.17264145830183553,"388":0.011474177179245492,"389":-0.18873318039545345,"390":0.0610224009283255,"391":-0.24685836524404053,"392":-0.14893981621341126,"393":-0.11108570287551933,"394":0.12592483445442676,"395":0.009710804710824727,"396":-0.26454685259440164,"397":-0.14647677168417286,"398":-0.24141702289076064}},"6":{"bias":-0.16952672488240783,"weights":{"0":-0.20377009912517327,"1":0.17247552268656546,"2":0.08230954068967157,"3":0.26758809328690003,"4":-0.22298562104543265,"5":-0.163055500204669,"6":-0.08200967030519249,"7":0.1426528269308142,"8":-0.09879885194669931,"9":0.0420023754391659,"10":0.10087926429138591,"11":-0.07932839014433167,"12":0.013790006029131668,"13":0.03329719807706482,"14":0.010038461180950874,"15":-0.04499066931627566,"16":0.08431377810741184,"17":-0.0497485846527381,"18":-0.06273886751942359,"19":0.13786786827995745,"20":0.07486143848638377,"21":-0.019851418851565935,"22":0.06496380278660688,"23":0.0836532589305678,"24":-0.13711819611682677,"25":-0.07191515825468281,"26":-0.10101668393447319,"27":0.04830311386326433,"28":-0.1391958213844177,"29":0.10469287927543383,"30":0.2157115203291846,"31":-0.14318502448770012,"32":-0.08270203358091942,"33":-0.09010771697815344,"34":0.047945256945217854,"35":0.048377702464059466,"36":0.025129240804992965,"37":0.1521845764565141,"38":-0.08923181914847161,"39":0.09152314293340663,"40":0.01835430319540268,"41":-0.09584905537227235,"42":-0.10355419528983958,"43":-0.1412376914737251,"44":0.062156561616395635,"45":-0.04506948117546202,"46":-0.046713398356039076,"47":0.18180806432457808,"48":-0.004433918471148347,"49":0.012907648663380287,"50":-0.13581078476654568,"51":-0.09478595560801957,"52":0.03660695692914965,"53":0.03596635831090428,"54":0.1305577118382311,"55":0.22183558300541698,"56":0.12110485715080674,"57":-0.06450841144286572,"58":-0.03798028004610719,"59":-0.26205592502044717,"60":0.20571606339364062,"61":0.19975952169086797,"62":-0.11026439144340701,"63":-0.021809050746308768,"64":-0.0627462592598536,"65":-0.05796005835277468,"66":0.1308595079584536,"67":0.02677869463173098,"68":-0.06257529684758315,"69":-0.12708138357927665,"70":-0.17655274710348778,"71":-0.16327562914613977,"72":0.04922710867788718,"73":0.1806333633397818,"74":-0.09286113371007881,"75":0.13878358314996214,"76":-0.04535505319034638,"77":0.0839337081972488,"78":0.027935998758743086,"79":-0.008986614276378271,"80":0.14917984644673837,"81":-0.09672436542718409,"82":-0.07182112546859742,"83":-0.18563077902498085,"84":0.1694173460041449,"85":-0.012056522704088,"86":-0.08786813006217163,"87":0.09841447678356319,"88":-0.11541112889782523,"89":0.14616434240884438,"90":0.21357467782962172,"91":0.016828894742532765,"92":0.031173454557505625,"93":-0.051093837954001145,"94":-0.06913464748265365,"95":0.12743957046922091,"96":0.07348082680434158,"97":-0.11824914530792141,"98":0.10267641910006714,"99":0.08538538428358489,"100":-0.056568711091124844,"101":0.04491134665859887,"102":0.1456617462673291,"103":0.09137906808830647,"104":-0.0922918378044413,"105":-0.06770030241892717,"106":-0.02945387707711765,"107":-0.0819721898323636,"108":-0.10540517681421266,"109":0.0847417619055387,"110":0.23313027068143105,"111":0.10003585693175979,"112":0.21489992790392687,"113":-0.1412835248984957,"114":0.01954427509602345,"115":-0.012664865106856384,"116":0.00358843799355788,"117":-0.15456909723932796,"118":0.1407168951791214,"119":-0.16133654916663345,"120":-0.06342538446769956,"121":0.15421762972168213,"122":0.09928910032518477,"123":-0.07879883620821142,"124":0.044588707330572484,"125":0.04191034749681309,"126":0.05793117238471052,"127":-0.11943772670907044,"128":0.12923663438277722,"129":0.1693786831574293,"130":0.15055165111377913,"131":-0.1942904226123171,"132":0.12153667308033891,"133":0.10056898585511485,"134":0.18700674873079667,"135":-0.05588423476988856,"136":0.17917313243863056,"137":0.13326074841854516,"138":-0.08734828196426436,"139":-0.10891133347397132,"140":-0.05843116423532116,"141":-0.15201612960669056,"142":-0.038718486142990845,"143":0.2353228914970338,"144":0.0250653830313973,"145":0.08984949482184378,"146":-0.14002702544353696,"147":-0.10227186858850441,"148":0.005635393228402065,"149":-0.04299573700511547,"150":-0.01671729875018185,"151":-0.12307602589189826,"152":-0.04705043730963607,"153":-0.09895837615931956,"154":0.15518288544843864,"155":-0.13778910460873828,"156":0.1930834471094927,"157":0.05737623341242733,"158":-0.1412462320439546,"159":0.010798035565849158,"160":0.1119420235808261,"161":0.01180219583914683,"162":-0.14716245727242686,"163":-0.16005343235581307,"164":-0.14448457075677174,"165":-0.14010157326160075,"166":-0.1742999121798169,"167":-0.10415752197308414,"168":-0.11565482142950934,"169":0.014373692829664685,"170":0.04399407051856582,"171":-0.18512692679347895,"172":-0.2006409054873421,"173":0.020659354219997747,"174":-0.02516726664620191,"175":-0.018128389015618803,"176":0.18688421467943708,"177":-0.16473209984706097,"178":0.17391370947426232,"179":0.10340295417260208,"180":0.023711536138135165,"181":0.24450903197082732,"182":0.03337293455090134,"183":-0.13123194303551633,"184":-0.10951846950829039,"185":0.2117664457908272,"186":0.039086028693151836,"187":0.05825743944078119,"188":0.05970729405995246,"189":0.19359297528050193,"190":-0.09803956664937144,"191":0.05899551137276536,"192":-0.005167859060251966,"193":-0.07068112472063857,"194":0.17541516193499163,"195":-0.1008413448748871,"196":0.1783366134799485,"197":0.07546100789558174,"198":0.12634893241197026,"199":0.09340993986265289,"200":-0.13668617564646754,"201":0.0012966849390158555,"202":0.020522296939778764,"203":0.03253258655060512,"204":-0.07140891493398967,"205":-0.05851635689555184,"206":-0.07335168088660725,"207":0.20456386251473924,"208":0.019234595416166858,"209":0.06719169392883338,"210":-0.08580517493942683,"211":-0.05799080545124541,"212":-0.10630089484805381,"213":-0.05707695504965172,"214":0.07991513540375961,"215":-0.10796993262889604,"216":-0.05714758107625622,"217":0.10746708289102039,"218":0.08669493764111594,"219":-0.1883565370813239,"220":0.058046027284409794,"221":0.08599885330657382,"222":-0.1798977981439879,"223":-0.1621318132658774,"224":-0.1699591987047949,"225":-0.18155037835074744,"226":0.13265280031968052,"227":-0.13561121669266993,"228":0.15898184516361766,"229":-0.012972037280433526,"230":0.051344593675938334,"231":-0.114647468742849,"232":0.12889748731829895,"233":-0.2056386738109239,"234":0.07983764074910578,"235":-0.16150532777371193,"236":-0.012110308209445286,"237":-0.20734265482486924,"238":0.04380858643079046,"239":0.1013199672875894,"240":-0.14620745968717577,"241":0.10208656196618714,"242":-0.11667025015266089,"243":0.22566508582401315,"244":0.154303743557766,"245":0.02432207491682738,"246":0.055322581304282574,"247":-0.052066950645766406,"248":-0.15400545972319477,"249":0.11881354210752836,"250":0.12101408397250277,"251":-0.0630840289119991,"252":0.0996466663294538,"253":0.03659671793118538,"254":0.11826435222254982,"255":0.19628286993500238,"256":0.16005817063774946,"257":0.11518929493817098,"258":-0.1390689347483983,"259":-0.1644014592920306,"260":0.08759103424787057,"261":-0.15749756421570799,"262":-0.1327118854087503,"263":-0.0018841247483298558,"264":0.011048518926805338,"265":0.15428429810298988,"266":0.09033650176051251,"267":0.1991276227830571,"268":-0.005126407420309697,"269":-0.0679373954766722,"270":-0.021656483516719924,"271":-0.14468860471489897,"272":-0.09291340071974606,"273":-0.10214474428527165,"274":0.15396134285203503,"275":-0.09692621546732434,"276":0.22198140768869284,"277":-0.09424698748543643,"278":0.25659640885221974,"279":0.06616086983651681,"280":0.0021642411158405133,"281":-0.20319176761424404,"282":0.26029635733935963,"283":0.03245744828528022,"284":0.062228817921535416,"285":-0.16151934399540266,"286":0.0009505009601536153,"287":0.16038731081895863,"288":-0.17944107871985143,"289":0.22169087654091635,"290":0.1403777043267161,"291":0.05461422888710665,"292":0.06424230989014106,"293":-0.04431755464375345,"294":0.09940292156799142,"295":-0.03596515173270936,"296":0.18199786806530358,"297":-0.17073161359634956,"298":-0.0077543031235390485,"299":0.02001469159603027,"300":-0.13376332632241505,"301":-0.17477992663818845,"302":-0.018040029357764175,"303":0.18034576480310865,"304":-0.09110391384678006,"305":-0.037292141413071994,"306":0.00937098115220086,"307":0.062446042971050615,"308":-0.04383922763143514,"309":0.02715329486868249,"310":-0.09408416442888352,"311":0.1565148720926175,"312":0.014665546187712496,"313":-0.06360217817993517,"314":-0.014493184137485947,"315":0.14152460798955224,"316":0.16868334102269653,"317":-0.1413645233692334,"318":0.077227839377705,"319":0.1374356737221222,"320":-0.08012954427685051,"321":-0.16581684433068875,"322":0.026315498088882724,"323":0.16221887292183348,"324":-0.14805182676416773,"325":0.10926577132156755,"326":-0.09966884735237355,"327":-0.07762196397811946,"328":-0.06022559066179112,"329":-0.148035803120385,"330":0.08316123132761602,"331":0.07481234893827803,"332":0.19067223815199552,"333":-0.05984550715122916,"334":-0.07131926305981903,"335":0.05016055367248045,"336":0.12059554545748973,"337":0.12115139217986524,"338":-0.15744661805585877,"339":0.14901760185282353,"340":0.015483481187212366,"341":-0.0050416506376130266,"342":0.16143021166192578,"343":0.037899647262638364,"344":-0.03524778885426422,"345":-0.2110699027568692,"346":-0.05961656868566953,"347":0.0954524120839784,"348":-0.13444323041245218,"349":-0.15113500411887432,"350":-0.17615666165892166,"351":0.07658883526770384,"352":-0.06681524464724295,"353":0.03002801828636519,"354":-0.2623417491879838,"355":-0.16145386709340873,"356":0.1501838047181004,"357":0.017061114260884497,"358":0.13798239507910562,"359":-0.1574797187774513,"360":-0.2761090264186816,"361":0.11740224916267863,"362":-0.18260702522072522,"363":-0.2356338290848122,"364":0.12585567782036236,"365":0.11002079940318919,"366":-0.1964073173713953,"367":0.06507543492089585,"368":-0.07363654027261092,"369":0.05301218025133436,"370":-0.036974119208053234,"371":-0.2709872661409386,"372":-0.013818503309930855,"373":0.009738135223489297,"374":-0.11295800325030315,"375":-0.2557443721294091,"376":-0.19949241859387506,"377":-0.07163808070541523,"378":-0.1961793913998393,"379":-0.0021444272011903226,"380":-0.24997315874076886,"381":0.051518329101124916,"382":0.014922094504244357,"383":-0.013944936263249127,"384":-0.262233819012511,"385":-0.031887536560297386,"386":0.1170519797676507,"387":0.055085740421169385,"388":0.12299966751757832,"389":-0.1627869771017992,"390":0.007167774560285835,"391":-0.06127214032069933,"392":-0.23226129304279206,"393":0.14681289134426034,"394":-0.1519263162701867,"395":-0.013222197865449259,"396":-0.05035965250627863,"397":0.028963830434807936,"398":0.062399766891927055}},"7":{"bias":0.06881082315940919,"weights":{"0":0.049969711770068814,"1":-0.2642487527450655,"2":0.06498023936452513,"3":-0.08726214518884862,"4":0.15699786453827463,"5":-0.19392689278841638,"6":-0.1539571696231479,"7":0.04962483048038659,"8":-0.11526448926703141,"9":0.17938686590205635,"10":-0.15790724082255692,"11":0.2378956665862288,"12":-0.071059649761469,"13":0.04246774505017636,"14":0.05228111988637105,"15":0.11566896290030525,"16":0.22970623967492146,"17":-0.017238443603659812,"18":0.07335065739256207,"19":-0.32794112529749375,"20":0.21775070753788325,"21":-0.21580352692878663,"22":-0.14430024366025632,"23":-0.1229894560585917,"24":-0.04715967207337279,"25":-0.15895498022111312,"26":-0.007006781003010861,"27":0.06440350851671728,"28":0.06991835555032849,"29":-0.06028030467820256,"30":-0.004170651396993785,"31":0.020485495046527285,"32":0.13456200136724747,"33":-0.20829187832298524,"34":0.19387581308495166,"35":0.17976977199530728,"36":0.033359657286056915,"37":-0.05322036293023645,"38":-0.20185587466805024,"39":0.2293763663761763,"40":0.17464663260684352,"41":0.26901768717137786,"42":0.15950473326470666,"43":0.2031722044175819,"44":-0.09644417219836236,"45":0.08332623724732953,"46":-0.17209582227785197,"47":0.0776915912138839,"48":-0.002162070959997737,"49":0.0653909995123061,"50":0.15754242172550212,"51":0.14299702343162438,"52":-0.10984919683973071,"53":-0.024275774038029548,"54":0.039799906539253534,"55":0.05130219560518563,"56":-0.08768567641234147,"57":0.04865253883053703,"58":-0.2673890836896953,"59":0.10799673977416525,"60":-0.1195553704685409,"61":-0.15688939528452917,"62":0.11684761084512911,"63":-0.005607175156743257,"64":-0.009138411739964375,"65":0.11760082762831757,"66":-0.0006622510845821994,"67":0.021900455143333292,"68":-0.15834021361313122,"69":-0.11696301143840752,"70":0.003290780136078591,"71":0.047706517075300166,"72":0.11867272760251528,"73":-0.086687772600565,"74":-0.07536838401308214,"75":0.1724206327309142,"76":0.019081747144596418,"77":-0.09279406295005287,"78":0.025564222941646116,"79":-0.3270205642560687,"80":0.020212027619607255,"81":0.13840590918297901,"82":0.23664040255406474,"83":0.003050895876650652,"84":0.10576342948460914,"85":0.22298939696924966,"86":-0.16344042669008438,"87":0.12913957823725106,"88":0.022230586673008076,"89":-0.1497158649802943,"90":0.04306631591707494,"91":0.1256556478132849,"92":0.1500686581646243,"93":0.11057051163589539,"94":0.24295151972941875,"95":0.040436273058839525,"96":-0.212783852716706,"97":-0.03703276272339542,"98":-0.0006534059769350085,"99":-0.29297920404402594,"100":-0.04221986030615434,"101":0.15147174377242947,"102":0.036581288147112076,"103":0.14035852771932886,"104":0.0854069654401071,"105":0.06148911713668759,"106":-0.06206008386341381,"107":0.0753586514955766,"108":0.013471499192827101,"109":-0.2357692432400387,"110":-0.09234702028421672,"111":0.005751138800523939,"112":-0.1996528653882689,"113":-0.018650750906467096,"114":-0.028271875370691292,"115":0.16735541905235565,"116":0.04673268597555869,"117":-0.06092221948895452,"118":-0.05068376010829394,"119":-0.09586492134928433,"120":-0.1161860786713529,"121":0.08498076334425811,"122":0.06106302955135333,"123":-0.1254891885281906,"124":-0.16695755549823138,"125":0.15709407107130038,"126":-0.16722315534789853,"127":0.0750851984923279,"128":-0.11386923276892924,"129":-0.21140260078995882,"130":-0.1854076862335279,"131":-0.1430068827034256,"132":-0.05070411473250321,"133":0.18505468369450043,"134":-0.11635013175508249,"135":-0.18934712370693083,"136":0.24808471254092768,"137":-0.17192562437831221,"138":-0.15070635544451133,"139":-0.08763600493451283,"140":0.10982401660045804,"141":0.1508208347656037,"142":-0.03342991755368279,"143":-0.0703431864222892,"144":0.10787579202833006,"145":-0.1947460856972296,"146":0.10137641314980225,"147":0.02029915484995461,"148":0.16848167926672583,"149":0.09931027167868571,"150":0.10204368464295,"151":-0.14409505237195136,"152":0.053361898334585586,"153":-0.08340544004127055,"154":0.07766862981620008,"155":-0.08206871383905182,"156":-0.12949068338472408,"157":0.23803208797783243,"158":-0.20276105188008317,"159":-0.03264221591835573,"160":0.01866944306772117,"161":0.12279981785244133,"162":0.23016455047696335,"163":-0.17951403597933346,"164":0.04588973867676221,"165":0.11720432955292136,"166":0.10488763231032822,"167":-0.07925689451360902,"168":0.19606467561702126,"169":0.04942695472814616,"170":-0.12700298645192465,"171":0.031235370331959937,"172":0.018809028979305364,"173":-0.1761438855837417,"174":-0.0785866306757123,"175":0.13852120864803477,"176":0.15483713972721244,"177":-0.2603952557368877,"178":0.1765327959744381,"179":0.16916802173261092,"180":0.08298299156999255,"181":-0.0292824361317106,"182":0.08141103475675893,"183":0.026065049943125,"184":0.1885321751529425,"185":0.005974891250217659,"186":0.14988382963002775,"187":-0.038502344021557666,"188":0.14946269458543054,"189":0.19535898532773263,"190":0.13352256548027872,"191":-0.17678752647912796,"192":-0.2141124041743006,"193":-0.10668776331256838,"194":-0.1708857240308146,"195":0.06340461338575892,"196":0.012697393715486133,"197":-0.08862223793921475,"198":-0.01362869758342781,"199":-0.1455025879648572,"200":0.16323367700174082,"201":0.13987808252319595,"202":-0.20494986215224134,"203":0.07163714078490895,"204":0.014431263370562391,"205":-0.11680480234220529,"206":0.15099519756370886,"207":0.13794975317453323,"208":-0.09517115219095464,"209":0.03605600870912069,"210":0.1112092506376776,"211":0.014743123944966591,"212":0.13972224232308758,"213":-0.21018891611295973,"214":-0.14551425693582415,"215":0.037412114121682036,"216":-0.038428649296015756,"217":-0.15267257220338154,"218":-0.15673367990486425,"219":-0.05214549788284828,"220":-0.19587327948996838,"221":0.015341247622578675,"222":0.0883195370585603,"223":-0.03858010583939727,"224":0.05393202151268646,"225":0.10107804372525578,"226":0.1509851729043697,"227":-0.2170311245454924,"228":0.029623144912787388,"229":-0.03517465772629415,"230":-0.12258547446227475,"231":-0.020574082864864753,"232":0.13580808311804618,"233":0.00851531636748383,"234":0.24459445622466117,"235":0.03464514839861301,"236":-0.14215642840684103,"237":-0.14171740410579128,"238":-0.14496426086387051,"239":-0.2795620997621297,"240":0.14632548812492746,"241":-0.16335598876960217,"242":0.16734436297349872,"243":-0.04298471597086659,"244":-0.05690817774270492,"245":0.1807676581769351,"246":0.15315602601058112,"247":-0.017580365365351493,"248":0.0049076015004613435,"249":0.07041159358414399,"250":0.06481173655887626,"251":-0.0037539456070680897,"252":0.06443643671729038,"253":-0.06396027891555058,"254":-0.11465667589977033,"255":0.2015176809950244,"256":-0.11837056795642767,"257":-0.0880538303225889,"258":-0.0028109857820796734,"259":-0.24741717188355872,"260":-0.07353979490214299,"261":0.08030773191378789,"262":0.09467611648932106,"263":-0.0469182582963113,"264":-0.03820383537033436,"265":0.10285655505320086,"266":-0.0010694190426729885,"267":-0.1674001834963904,"268":-0.16811956059608563,"269":0.13378482601805386,"270":0.07583182232296148,"271":0.13628281209717458,"272":0.14139230927239882,"273":0.11303267216990216,"274":-0.020273263628584975,"275":0.14473028579263736,"276":-0.08666356893831278,"277":-0.06941913598240092,"278":-0.12907854620130013,"279":-0.2128766296987001,"280":0.07676899531168875,"281":0.14824109918208667,"282":-0.22151584405460484,"283":-0.008642013781030519,"284":0.06552690545074434,"285":0.023819401872160747,"286":0.203331810571778,"287":0.13126582130113804,"288":0.10809242523257243,"289":-0.05991029928457171,"290":-0.1678369443875403,"291":0.12726334612263362,"292":-0.08692209642230385,"293":-0.039148036794469376,"294":0.06161415402572818,"295":0.25920469350423253,"296":0.16814680322248807,"297":-0.310344789759869,"298":0.07698150205974917,"299":-0.050610030761447274,"300":-0.08704395610847418,"301":0.16874112772796554,"302":-0.2327154103716137,"303":-0.15994141000557047,"304":0.007794717740949632,"305":0.030763152009777292,"306":0.19748639117294373,"307":0.14577779414549397,"308":0.012519317082417564,"309":-0.038999756395143775,"310":-0.09671692710042308,"311":-0.0185083215648831,"312":0.1270612246888837,"313":0.13955001013151988,"314":-0.10120846644494226,"315":-0.1758762152254255,"316":-0.012354737106517815,"317":-0.13471936162850048,"318":-0.04364928078473685,"319":-0.09572619010355536,"320":0.058462667318831964,"321":-0.11308311296638074,"322":-0.10227800973777439,"323":-0.19806022638443196,"324":-0.05552395103708426,"325":0.04667824619443716,"326":0.11863517472629187,"327":0.17074899766663496,"328":0.009998413815407503,"329":-0.14364347115828413,"330":-0.16863935634447005,"331":0.04250851264164815,"332":0.24514695204247175,"333":0.061945104776462985,"334":0.062451739199887474,"335":-0.0559989736258619,"336":-0.1566721742746771,"337":0.052460959504542666,"338":0.08988297119832542,"339":0.08276265109529926,"340":-0.23544234936710276,"341":0.12919728381280526,"342":0.09947100275337165,"343":0.13500266403615357,"344":-0.157857210755452,"345":-0.08275291188716787,"346":-0.16458779729208156,"347":-0.11512888999889083,"348":0.0723661170962299,"349":-0.04697100817636763,"350":-0.05811029456528879,"351":-0.24571349973883755,"352":-0.2911759675128479,"353":-0.009105353026946143,"354":-0.08045074331068916,"355":0.12398966921157369,"356":-0.07874311432520484,"357":0.05420907144097591,"358":-0.3751368447796839,"359":-0.01412355660879166,"360":0.07312286536267135,"361":-0.35563620403939794,"362":0.2134081040932539,"363":0.0640195475833482,"364":0.007477008896361914,"365":-0.17417815564525355,"366":0.07384944217916756,"367":-0.0973211973130349,"368":0.126785640612759,"369":0.07870285581602747,"370":-0.19288934226611051,"371":-0.04392536851698896,"372":-0.18505419505606938,"373":-0.30732718243758644,"374":-0.06086347571679013,"375":-0.10290770117414266,"376":-0.04967933807445241,"377":0.14207122113438111,"378":-0.11290469422393541,"379":-0.06155192478984813,"380":-0.02582449213793167,"381":-0.38693030547005325,"382":-0.0645665785515541,"383":-0.16421728592156712,"384":0.0046898096521689435,"385":0.25468844274892066,"386":-0.22427388845453727,"387":-0.36807078342724087,"388":-0.23069695969333828,"389":0.11186784042465983,"390":-0.1589358198283251,"391":-0.18392170979621722,"392":0.12397125631011545,"393":-0.07688000513825224,"394":0.2122798108005347,"395":0.1759750321830413,"396":0.11157257573631996,"397":0.0014715535063788635,"398":-0.41039025668262946}},"8":{"bias":-0.15199743262118648,"weights":{"0":-0.08511239023935556,"1":0.07227272605438875,"2":0.1632935361730258,"3":-0.22667023246204518,"4":-0.01839035132966789,"5":-0.1606206091408282,"6":0.21862725577854455,"7":-0.0210339618089638,"8":0.23161357942373836,"9":0.017417030773308653,"10":0.21431953155321204,"11":-0.03538972989837108,"12":0.03669904659441577,"13":-0.09161613817658555,"14":0.14121356013996172,"15":0.03611922244710742,"16":-0.1605030997196066,"17":-0.19202125514928464,"18":0.0389360857120537,"19":-0.05299254519978257,"20":0.0011288101579328617,"21":-0.21433525108788146,"22":-0.19289265932806474,"23":-0.2512773158371151,"24":0.06019506504513094,"25":-0.16300777200797398,"26":-0.289481442958799,"27":-0.010468558237803195,"28":0.022470983642603748,"29":-0.016082407715913467,"30":0.043801059330892934,"31":0.038558687394018624,"32":0.09972277340215605,"33":0.061385260095670136,"34":0.055388966871850395,"35":-0.13024222218637943,"36":-0.22764517430926542,"37":-0.29201954671817526,"38":-0.10364182194016237,"39":0.10417669357921598,"40":-0.16672470398262684,"41":0.05759439483486465,"42":-0.2287832911014865,"43":-0.049851847091081855,"44":0.07765604907277865,"45":0.17815869010461682,"46":-0.120058500525154,"47":-0.09609999982227063,"48":-0.1443201915029674,"49":-0.06456155268260105,"50":0.026155523004849943,"51":-0.13742060345269536,"52":0.19156017987497873,"53":-0.09675188422097848,"54":-0.03810760519440746,"55":0.06316562920931942,"56":0.0021762620440291315,"57":-0.15617415840952395,"58":-0.21871520197958783,"59":-0.022327340129355326,"60":-0.06886445114861789,"61":-0.07101173350828728,"62":-0.09085732633440939,"63":0.11013934601221423,"64":-0.1988355737595921,"65":-0.008400300226190628,"66":-0.11028687435280701,"67":-0.012491448748630205,"68":0.11576679546010951,"69":0.11738852844271347,"70":-0.06981891162139117,"71":-0.09261994880561593,"72":0.1425985273958317,"73":-0.12033737702415566,"74":0.03867285349263595,"75":-0.23061298035950614,"76":-0.05202195107785044,"77":0.005465965196747464,"78":0.03617410197413438,"79":-0.21996992670914609,"80":-0.18823640269258535,"81":-0.010112065014558039,"82":-0.1378558631137868,"83":-0.12269202065983087,"84":-0.014836316393768275,"85":0.1366533014464345,"86":-0.05542231145995655,"87":0.14660745096015337,"88":-0.02881782944390714,"89":-0.09303894972181408,"90":-0.11221003323168656,"91":-0.11586954494467529,"92":0.02012528206913558,"93":0.1564806140677325,"94":-0.05734942147576663,"95":-0.14247848571401098,"96":0.05268403605009741,"97":0.0074157535326835914,"98":0.0638983973940727,"99":0.03875777162574444,"100":0.061172902507155784,"101":-0.10531167660001213,"102":0.048208721628437694,"103":-0.0529804535533338,"104":-0.04603440119009136,"105":-0.09303348025479836,"106":-0.06368497744788411,"107":0.02999269951117681,"108":0.08287980503101272,"109":-0.09216970932541452,"110":0.009240667148332304,"111":-0.12159831221780058,"112":0.05066279712601617,"113":-0.1539136079665472,"114":-0.06600627556100759,"115":0.12351179126201277,"116":0.023607084464806888,"117":-0.058742917163542935,"118":-0.050087068831191364,"119":-0.04722727078146055,"120":0.1932364660498231,"121":0.0809807520611736,"122":0.09785611828484289,"123":0.16247021955249227,"124":-0.013518466486947546,"125":-0.10735367033222867,"126":0.11909584719142761,"127":0.031200347774141376,"128":0.03707067415031928,"129":0.1029485805426553,"130":-0.1954999421138705,"131":-0.09187304415817303,"132":0.046322064921096286,"133":0.02030351202366917,"134":0.21876330679655245,"135":-0.025174426379198218,"136":-0.1896887531778326,"137":-0.05497585986998719,"138":0.022808037799572203,"139":-0.03805262338213343,"140":0.11459523245701426,"141":-0.04113261917365847,"142":-0.13796537170575918,"143":0.029352357608972084,"144":-0.005278633429020118,"145":-0.11947650594320824,"146":0.07721125676076043,"147":0.051051019187518275,"148":0.14277278992604156,"149":-0.12201328047451028,"150":-0.11593790997631943,"151":-0.10598996260628402,"152":-0.10062539494938816,"153":-0.1119782622128244,"154":-0.10987242748893265,"155":0.11812179286196069,"156":-0.18967684973489432,"157":-0.007713001309828452,"158":0.10725350516306487,"159":0.057871636400507215,"160":-0.1129013362808643,"161":0.08598582136144123,"162":0.1754525366635128,"163":0.1280944601896142,"164":0.0637377453165569,"165":0.11277831793045652,"166":0.01373821563263589,"167":0.055065558832524675,"168":0.12839220857500017,"169":-0.1634836896714786,"170":-0.1379083961508529,"171":0.16473461214984386,"172":0.20205706345421565,"173":-0.15142605258518588,"174":0.0013768973754601543,"175":0.2692236837618717,"176":-0.05992996207761258,"177":-0.10054139957435847,"178":0.11800213127653435,"179":0.21397628647968706,"180":0.15883903006169786,"181":0.041013785211259125,"182":-0.10306561574872022,"183":0.01525974331734399,"184":0.03540193635924792,"185":0.09271990455092867,"186":-0.15653205911438492,"187":-0.04192687447573203,"188":-0.06593567510172102,"189":0.06642320643875961,"190":0.13536377017922047,"191":-0.16389430888518103,"192":0.05799470074119792,"193":0.005562202866230761,"194":0.030251050769202287,"195":0.17558658880228856,"196":-0.2508704741908194,"197":0.18205037653377099,"198":0.23523047796356614,"199":0.14287521590499816,"200":-0.026903675881079073,"201":0.14251049209243685,"202":-0.22231591647134508,"203":-0.12769541578611887,"204":-0.04281459958807567,"205":-0.06817290533754873,"206":-0.15114098426035125,"207":0.14817450947674557,"208":0.0015727582910454079,"209":-0.18512646618853845,"210":-0.17606252644136838,"211":0.021951072967157596,"212":-0.19986907335404427,"213":-0.21296027316596366,"214":0.14828606031643826,"215":-0.13101103326353084,"216":0.026514775253614925,"217":0.04433693958053842,"218":0.11885660012227368,"219":0.3295904626099155,"220":-0.07059184675066969,"221":-0.029829522453836705,"222":0.0005757797769198238,"223":0.1024528633299421,"224":0.0011654830012607345,"225":-0.16606096389536124,"226":-0.007842718823825966,"227":-0.10001433594976059,"228":-0.05259654138189501,"229":0.13573367649888698,"230":0.08053588209645167,"231":0.05887677781804753,"232":-0.053329795699567806,"233":0.2280741703007928,"234":-0.0027782700209457167,"235":-0.059466391791872346,"236":0.18797355580431777,"237":0.03885101790586982,"238":-0.05159892362512705,"239":0.04519419238883742,"240":0.1348783125219078,"241":0.06269853798669021,"242":0.053096955380663176,"243":0.07781477318416608,"244":-0.17826167298770815,"245":-0.14341009029536092,"246":0.07394914641029242,"247":-0.11407209591078546,"248":0.15489914963991316,"249":-0.1981498752605794,"250":-0.07819029920940125,"251":0.005490129799604759,"252":0.02880199038862112,"253":-0.07962802879520262,"254":0.025448764379455667,"255":0.12813402349307113,"256":0.13624445239554087,"257":0.10956530534086685,"258":0.01688012933530967,"259":-0.13956589268867556,"260":-0.07111644855963895,"261":0.07442170249194613,"262":-0.0043409758567002805,"263":0.00968438338370409,"264":0.08290251165313693,"265":-0.17291446636006688,"266":-0.06543401650017197,"267":-0.03146719250879958,"268":-0.06747031898041078,"269":-0.03005255470756772,"270":-0.20558489436905558,"271":-0.02939620715051437,"272":-0.15526207707566655,"273":0.08269667947327915,"274":-0.07193289689434226,"275":-0.11758277524028672,"276":-0.002419697952794875,"277":0.005201820800066395,"278":0.06152916603517058,"279":0.09829531949017482,"280":-0.068246877095719,"281":0.11838929869601056,"282":-0.04157287573235813,"283":-0.13334651570307188,"284":-0.15471968087200805,"285":0.18526916601707336,"286":-0.041632216183219675,"287":-0.15547447144026577,"288":0.24554711482610714,"289":0.14843768138000565,"290":-0.005225608229864363,"291":0.13914471422586683,"292":0.0008773276145240761,"293":-0.11173199920036325,"294":0.22861253801394224,"295":-0.06673879324718597,"296":0.17368251031389795,"297":0.21318496681849708,"298":0.3541331301781695,"299":0.16367664524228745,"300":-0.2549364061042266,"301":-0.12756756084045343,"302":0.002618196223364724,"303":-0.019531641781918956,"304":-0.08080621864784827,"305":0.064426034956763,"306":0.12352114047236276,"307":-0.1427718188444164,"308":0.11448147524430805,"309":-0.2551000947674327,"310":-0.000005958951341935052,"311":-0.1359514759536166,"312":-0.038160262540025004,"313":-0.15412383174043853,"314":0.21328181179194128,"315":0.017216015393109015,"316":-0.12789606917287868,"317":0.12741254366116628,"318":0.20735303754159998,"319":0.18384199147408795,"320":-0.027422204003721206,"321":0.09489433821239932,"322":-0.17036007794782906,"323":-0.1182303512096421,"324":0.09787725631778894,"325":-0.14436655405363466,"326":0.2613321421047482,"327":0.12167913453940436,"328":-0.09859596603095161,"329":-0.08290277445411194,"330":-0.1251217364557425,"331":0.12215335442497921,"332":0.1058957197783784,"333":-0.1772791121157806,"334":0.012075517395036704,"335":-0.1073989413896588,"336":0.20704337311338097,"337":-0.0027110193133264267,"338":0.042213362860871684,"339":0.03129730947895682,"340":-0.17487518135426483,"341":-0.22297241240489196,"342":-0.11268217368273761,"343":-0.22858578627803502,"344":0.0917354485591087,"345":-0.211602583053166,"346":-0.20297581120387354,"347":0.06118072432863856,"348":0.14282124968084633,"349":-0.20525133694184247,"350":-0.013128414210536657,"351":-0.2583789501043799,"352":-0.20370697544688038,"353":-0.11922696551297296,"354":0.03677208227105499,"355":-0.028795262520233386,"356":0.1724843973223513,"357":-0.003370977254926246,"358":-0.34453588940149227,"359":-0.19635189482703294,"360":-0.04534461880443033,"361":-0.3238167440931433,"362":-0.19655728624522292,"363":-0.07459659725751477,"364":-0.0004440937111927445,"365":0.032719511214245114,"366":0.16728344818095153,"367":0.1164856862232665,"368":-0.030587496776786616,"369":-0.12986687825898854,"370":-0.153592461512802,"371":0.14264871525622314,"372":0.00875503487974424,"373":-0.24980760422296402,"374":0.15799194476255152,"375":0.07307723351531686,"376":0.17080415336267912,"377":0.09267800876102149,"378":-0.18529518131800288,"379":0.23506451044496174,"380":0.0035561298961387534,"381":-0.3015081837418765,"382":-0.22775219074828543,"383":-0.07719673177829853,"384":-0.05346009296868468,"385":-0.04459380127457515,"386":-0.18816654916015516,"387":-0.04025292784067465,"388":0.08486892247387486,"389":-0.13026848177771577,"390":-0.11792588695633337,"391":0.015541260956205711,"392":0.167828054388889,"393":0.15693572500912506,"394":0.2699857345827103,"395":-0.1070316521943623,"396":-0.11909012501150312,"397":0.003892707297880322,"398":-0.19153910904954513}},"9":{"bias":-0.1721591320869971,"weights":{"0":-0.20837006296681107,"1":-0.0983853621350958,"2":-0.07836213907817141,"3":0.14277282277253206,"4":0.012704599235813213,"5":-0.12484243595744526,"6":0.06298457179670106,"7":0.1951131446292467,"8":0.11455595343495373,"9":-0.14532876219715307,"10":0.05433794788582546,"11":0.18213251801550015,"12":0.16185129428909353,"13":0.05768746757886019,"14":-0.13335203762201608,"15":-0.06641249818729393,"16":0.07064900366487697,"17":-0.16512570350568173,"18":0.1318331641935614,"19":-0.2148027811598607,"20":-0.15982770555947112,"21":-0.11840084251249802,"22":-0.08397960981335723,"23":-0.0741520469276394,"24":-0.03793998379749468,"25":-0.026752415528009825,"26":-0.17311728739669194,"27":0.03671825672083473,"28":0.18114436025281538,"29":0.2287422190005066,"30":0.22939317482791888,"31":0.21013799196547694,"32":-0.04080494478011633,"33":0.0030790903108111386,"34":-0.03419803856807745,"35":-0.044941554290352154,"36":0.002296554416756413,"37":0.0076723108796002415,"38":-0.16180905758502964,"39":-0.07072749501738088,"40":0.1536978397706498,"41":0.036642293959129095,"42":0.11501173638629787,"43":0.0931033253851371,"44":0.14083411646959906,"45":0.05380770641768563,"46":-0.033988562428619425,"47":-0.17272965874182036,"48":-0.09859288053103446,"49":0.04591079422656179,"50":-0.16464445545376635,"51":-0.015387751216020243,"52":0.023206259273665004,"53":0.0307974013816583,"54":0.06677929203671505,"55":-0.06410045424379142,"56":0.005796329220035523,"57":-0.03194222811437112,"58":-0.04619022972855465,"59":0.1902464245975959,"60":0.032762778831860906,"61":0.035565098099057835,"62":0.08898528480652164,"63":-0.1521109865218049,"64":0.07855861390420145,"65":-0.05072062902646273,"66":0.17972394493377553,"67":0.13318282993400904,"68":-0.16354130148373378,"69":-0.03302191727165342,"70":-0.03269171888954922,"71":-0.14903328395356344,"72":-0.16804917387633583,"73":-0.20244660492050345,